digraph Tree {
node [shape=box, style="filled, rounded", color="black", fontname="helvetica"] ;
edge [fontname="helvetica"] ;
0 [label="X[72] <= 0.21\ngini = 0.96\nsamples = 3723\nvalue = [202, 247, 245, 215, 234, 209, 211, 232, 226, 232\n209, 220, 213, 206, 216, 240, 240, 227, 208, 214\n241, 233, 227, 237, 237, 226]\nclass = 2", fillcolor="#ffffff"] ;
1 [label="X[21] <= -0.99\ngini = 0.94\nsamples = 1973\nvalue = [111, 41, 72, 0, 79, 48, 4, 229, 170, 0, 0, 220\n211, 193, 215, 192, 0, 2, 207, 214, 237, 224, 3\n229, 206, 0]\nclass = 21", fillcolor="#fffeff"] ;
0 -> 1 [labeldistance=2.5, labelangle=45, headlabel="True"] ;
2 [label="X[1] <= -0.02\ngini = 0.93\nsamples = 1808\nvalue = [107, 40, 71, 0, 78, 48, 4, 224, 170, 0, 0, 205\n209, 193, 201, 187, 0, 2, 200, 212, 221, 222, 3\n223, 10, 0]\nclass = 8", fillcolor="#ffffff"] ;
1 -> 2 ;
3 [label="X[67] <= -0.99\ngini = 0.92\nsamples = 1451\nvalue = [107, 38, 71, 0, 12, 20, 3, 214, 24, 0, 0, 197\n199, 27, 196, 95, 0, 2, 193, 205, 219, 217, 1\n220, 10, 0]\nclass = 24", fillcolor="#ffffff"] ;
2 -> 3 ;
4 [label="X[19] <= -0.12\ngini = 0.91\nsamples = 1121\nvalue = [107, 35, 70, 0, 9, 20, 3, 209, 18, 0, 0, 193\n194, 26, 143, 77, 0, 2, 34, 2, 211, 217, 0, 202\n10, 0]\nclass = 22", fillcolor="#fffeff"] ;
3 -> 4 ;
5 [label="X[26] <= -0.35\ngini = 0.83\nsamples = 387\nvalue = [3, 20, 15, 0, 0, 0, 0, 74, 15, 0, 0, 8, 140\n7, 21, 8, 0, 0, 28, 2, 75, 25, 0, 174, 0, 0]\nclass = 24", fillcolor="#fdf1f4"] ;
4 -> 5 ;
6 [label="X[90] <= -0.41\ngini = 0.73\nsamples = 177\nvalue = [0, 6, 2, 0, 0, 0, 0, 7, 8, 0, 0, 3, 26, 1\n9, 8, 0, 0, 23, 2, 50, 3, 0, 127, 0, 0]\nclass = 24", fillcolor="#f6bbcc"] ;
5 -> 6 ;
7 [label="X[9] <= -0.45\ngini = 0.8\nsamples = 33\nvalue = [0, 2, 2, 0, 0, 0, 0, 2, 1, 0, 0, 2, 19, 0\n7, 8, 0, 0, 3, 1, 3, 0, 0, 1, 0, 0]\nclass = 13", fillcolor="#ccf0f8"] ;
6 -> 7 ;
8 [label="X[11] <= 0.43\ngini = 0.58\nsamples = 22\nvalue = [0, 2, 2, 0, 0, 0, 0, 0, 1, 0, 0, 0, 19, 0\n0, 2, 0, 0, 2, 1, 0, 0, 0, 1, 0, 0]\nclass = 13", fillcolor="#87dcef"] ;
7 -> 8 ;
9 [label="X[10] <= -0.15\ngini = 0.78\nsamples = 6\nvalue = [0, 2, 2, 0, 0, 0, 0, 0, 1, 0, 0, 0, 0, 0\n0, 2, 0, 0, 0, 1, 0, 0, 0, 0, 0, 0]\nclass = 2", fillcolor="#ffffff"] ;
8 -> 9 ;
10 [label="X[36] <= 0.16\ngini = 0.72\nsamples = 5\nvalue = [0, 2, 2, 0, 0, 0, 0, 0, 1, 0, 0, 0, 0, 0\n0, 0, 0, 0, 0, 1, 0, 0, 0, 0, 0, 0]\nclass = 2", fillcolor="#ffffff"] ;
9 -> 10 ;
11 [label="X[49] <= -0.03\ngini = 0.62\nsamples = 4\nvalue = [0, 2, 0, 0, 0, 0, 0, 0, 1, 0, 0, 0, 0, 0\n0, 0, 0, 0, 0, 1, 0, 0, 0, 0, 0, 0]\nclass = 2", fillcolor="#f6e1bd"] ;
10 -> 11 ;
12 [label="gini = 0.0\nsamples = 2\nvalue = [0, 2, 0, 0, 0, 0, 0, 0, 0, 0, 0, 0, 0, 0\n0, 0, 0, 0, 0, 0, 0, 0, 0, 0, 0, 0]\nclass = 2", fillcolor="#e5a639"] ;
11 -> 12 ;
13 [label="X[74] <= 0.26\ngini = 0.5\nsamples = 2\nvalue = [0, 0, 0, 0, 0, 0, 0, 0, 1, 0, 0, 0, 0, 0\n0, 0, 0, 0, 0, 1, 0, 0, 0, 0, 0, 0]\nclass = 9", fillcolor="#ffffff"] ;
11 -> 13 ;
14 [label="gini = 0.0\nsamples = 1\nvalue = [0, 0, 0, 0, 0, 0, 0, 0, 0, 0, 0, 0, 0, 0\n0, 0, 0, 0, 0, 1, 0, 0, 0, 0, 0, 0]\nclass = 20", fillcolor="#c339e5"] ;
13 -> 14 ;
15 [label="gini = 0.0\nsamples = 1\nvalue = [0, 0, 0, 0, 0, 0, 0, 0, 1, 0, 0, 0, 0, 0\n0, 0, 0, 0, 0, 0, 0, 0, 0, 0, 0, 0]\nclass = 9", fillcolor="#39e564"] ;
13 -> 15 ;
16 [label="gini = 0.0\nsamples = 1\nvalue = [0, 0, 2, 0, 0, 0, 0, 0, 0, 0, 0, 0, 0, 0\n0, 0, 0, 0, 0, 0, 0, 0, 0, 0, 0, 0]\nclass = 3", fillcolor="#e5ce39"] ;
10 -> 16 ;
17 [label="gini = 0.0\nsamples = 1\nvalue = [0, 0, 0, 0, 0, 0, 0, 0, 0, 0, 0, 0, 0, 0\n0, 2, 0, 0, 0, 0, 0, 0, 0, 0, 0, 0]\nclass = 16", fillcolor="#3950e5"] ;
9 -> 17 ;
18 [label="X[94] <= 0.61\ngini = 0.24\nsamples = 16\nvalue = [0, 0, 0, 0, 0, 0, 0, 0, 0, 0, 0, 0, 19, 0\n0, 0, 0, 0, 2, 0, 0, 0, 0, 1, 0, 0]\nclass = 13", fillcolor="#57cee9"] ;
8 -> 18 ;
19 [label="X[28] <= 0.13\ngini = 0.1\nsamples = 13\nvalue = [0, 0, 0, 0, 0, 0, 0, 0, 0, 0, 0, 0, 18, 0\n0, 0, 0, 0, 0, 0, 0, 0, 0, 1, 0, 0]\nclass = 13", fillcolor="#44c8e6"] ;
18 -> 19 ;
20 [label="gini = 0.0\nsamples = 1\nvalue = [0, 0, 0, 0, 0, 0, 0, 0, 0, 0, 0, 0, 0, 0\n0, 0, 0, 0, 0, 0, 0, 0, 0, 1, 0, 0]\nclass = 24", fillcolor="#e5396a"] ;
19 -> 20 ;
21 [label="gini = 0.0\nsamples = 12\nvalue = [0, 0, 0, 0, 0, 0, 0, 0, 0, 0, 0, 0, 18, 0\n0, 0, 0, 0, 0, 0, 0, 0, 0, 0, 0, 0]\nclass = 13", fillcolor="#39c5e5"] ;
19 -> 21 ;
22 [label="X[4] <= -0.83\ngini = 0.44\nsamples = 3\nvalue = [0, 0, 0, 0, 0, 0, 0, 0, 0, 0, 0, 0, 1, 0\n0, 0, 0, 0, 2, 0, 0, 0, 0, 0, 0, 0]\nclass = 19", fillcolor="#cc9cf2"] ;
18 -> 22 ;
23 [label="gini = 0.0\nsamples = 2\nvalue = [0, 0, 0, 0, 0, 0, 0, 0, 0, 0, 0, 0, 0, 0\n0, 0, 0, 0, 2, 0, 0, 0, 0, 0, 0, 0]\nclass = 19", fillcolor="#9a39e5"] ;
22 -> 23 ;
24 [label="gini = 0.0\nsamples = 1\nvalue = [0, 0, 0, 0, 0, 0, 0, 0, 0, 0, 0, 0, 1, 0\n0, 0, 0, 0, 0, 0, 0, 0, 0, 0, 0, 0]\nclass = 13", fillcolor="#39c5e5"] ;
22 -> 24 ;
25 [label="X[17] <= 0.27\ngini = 0.77\nsamples = 11\nvalue = [0, 0, 0, 0, 0, 0, 0, 2, 0, 0, 0, 2, 0, 0\n7, 6, 0, 0, 1, 0, 3, 0, 0, 0, 0, 0]\nclass = 15", fillcolor="#f2f6fd"] ;
7 -> 25 ;
26 [label="X[12] <= 0.07\ngini = 0.7\nsamples = 10\nvalue = [0, 0, 0, 0, 0, 0, 0, 2, 0, 0, 0, 2, 0, 0\n7, 0, 0, 0, 1, 0, 3, 0, 0, 0, 0, 0]\nclass = 15", fillcolor="#bdd2f6"] ;
25 -> 26 ;
27 [label="X[81] <= 0.98\ngini = 0.65\nsamples = 6\nvalue = [0, 0, 0, 0, 0, 0, 0, 2, 0, 0, 0, 2, 0, 0\n0, 0, 0, 0, 0, 0, 3, 0, 0, 0, 0, 0]\nclass = 21", fillcolor="#fad7f9"] ;
26 -> 27 ;
28 [label="X[25] <= 0.87\ngini = 0.48\nsamples = 5\nvalue = [0, 0, 0, 0, 0, 0, 0, 2, 0, 0, 0, 0, 0, 0\n0, 0, 0, 0, 0, 0, 3, 0, 0, 0, 0, 0]\nclass = 21", fillcolor="#f6bdf5"] ;
27 -> 28 ;
29 [label="gini = 0.0\nsamples = 2\nvalue = [0, 0, 0, 0, 0, 0, 0, 0, 0, 0, 0, 0, 0, 0\n0, 0, 0, 0, 0, 0, 2, 0, 0, 0, 0, 0]\nclass = 21", fillcolor="#e539e2"] ;
28 -> 29 ;
30 [label="X[9] <= -0.08\ngini = 0.44\nsamples = 3\nvalue = [0, 0, 0, 0, 0, 0, 0, 2, 0, 0, 0, 0, 0, 0\n0, 0, 0, 0, 0, 0, 1, 0, 0, 0, 0, 0]\nclass = 8", fillcolor="#9cf29e"] ;
28 -> 30 ;
31 [label="gini = 0.0\nsamples = 2\nvalue = [0, 0, 0, 0, 0, 0, 0, 2, 0, 0, 0, 0, 0, 0\n0, 0, 0, 0, 0, 0, 0, 0, 0, 0, 0, 0]\nclass = 8", fillcolor="#39e53c"] ;
30 -> 31 ;
32 [label="gini = 0.0\nsamples = 1\nvalue = [0, 0, 0, 0, 0, 0, 0, 0, 0, 0, 0, 0, 0, 0\n0, 0, 0, 0, 0, 0, 1, 0, 0, 0, 0, 0]\nclass = 21", fillcolor="#e539e2"] ;
30 -> 32 ;
33 [label="gini = 0.0\nsamples = 1\nvalue = [0, 0, 0, 0, 0, 0, 0, 0, 0, 0, 0, 2, 0, 0\n0, 0, 0, 0, 0, 0, 0, 0, 0, 0, 0, 0]\nclass = 12", fillcolor="#39e5dc"] ;
27 -> 33 ;
34 [label="X[46] <= -0.25\ngini = 0.22\nsamples = 4\nvalue = [0, 0, 0, 0, 0, 0, 0, 0, 0, 0, 0, 0, 0, 0\n7, 0, 0, 0, 1, 0, 0, 0, 0, 0, 0, 0]\nclass = 15", fillcolor="#558be9"] ;
26 -> 34 ;
35 [label="gini = 0.0\nsamples = 3\nvalue = [0, 0, 0, 0, 0, 0, 0, 0, 0, 0, 0, 0, 0, 0\n7, 0, 0, 0, 0, 0, 0, 0, 0, 0, 0, 0]\nclass = 15", fillcolor="#3978e5"] ;
34 -> 35 ;
36 [label="gini = 0.0\nsamples = 1\nvalue = [0, 0, 0, 0, 0, 0, 0, 0, 0, 0, 0, 0, 0, 0\n0, 0, 0, 0, 1, 0, 0, 0, 0, 0, 0, 0]\nclass = 19", fillcolor="#9a39e5"] ;
34 -> 36 ;
37 [label="gini = 0.0\nsamples = 1\nvalue = [0, 0, 0, 0, 0, 0, 0, 0, 0, 0, 0, 0, 0, 0\n0, 6, 0, 0, 0, 0, 0, 0, 0, 0, 0, 0]\nclass = 16", fillcolor="#3950e5"] ;
25 -> 37 ;
38 [label="X[10] <= -0.12\ngini = 0.63\nsamples = 144\nvalue = [0, 4, 0, 0, 0, 0, 0, 5, 7, 0, 0, 1, 7, 1\n2, 0, 0, 0, 20, 1, 47, 3, 0, 126, 0, 0]\nclass = 24", fillcolor="#f3a7bc"] ;
6 -> 38 ;
39 [label="X[61] <= 0.62\ngini = 0.48\nsamples = 107\nvalue = [0, 4, 0, 0, 0, 0, 0, 0, 6, 0, 0, 0, 5, 0\n1, 0, 0, 0, 18, 1, 13, 2, 0, 120, 0, 0]\nclass = 24", fillcolor="#ee7a9b"] ;
38 -> 39 ;
40 [label="X[39] <= 0.0\ngini = 0.3\nsamples = 86\nvalue = [0, 4, 0, 0, 0, 0, 0, 0, 3, 0, 0, 0, 0, 0\n0, 0, 0, 0, 6, 0, 8, 2, 0, 113, 0, 0]\nclass = 24", fillcolor="#ea5d85"] ;
39 -> 40 ;
41 [label="X[68] <= 0.51\ngini = 0.67\nsamples = 11\nvalue = [0, 1, 0, 0, 0, 0, 0, 0, 3, 0, 0, 0, 0, 0\n0, 0, 0, 0, 4, 0, 0, 0, 0, 7, 0, 0]\nclass = 24", fillcolor="#f8c9d6"] ;
40 -> 41 ;
42 [label="X[56] <= 0.55\ngini = 0.54\nsamples = 9\nvalue = [0, 1, 0, 0, 0, 0, 0, 0, 0, 0, 0, 0, 0, 0\n0, 0, 0, 0, 4, 0, 0, 0, 0, 7, 0, 0]\nclass = 24", fillcolor="#f5b5c7"] ;
41 -> 42 ;
43 [label="X[83] <= -0.31\ngini = 0.35\nsamples = 6\nvalue = [0, 0, 0, 0, 0, 0, 0, 0, 0, 0, 0, 0, 0, 0\n0, 0, 0, 0, 2, 0, 0, 0, 0, 7, 0, 0]\nclass = 24", fillcolor="#ec7295"] ;
42 -> 43 ;
44 [label="gini = 0.0\nsamples = 2\nvalue = [0, 0, 0, 0, 0, 0, 0, 0, 0, 0, 0, 0, 0, 0\n0, 0, 0, 0, 2, 0, 0, 0, 0, 0, 0, 0]\nclass = 19", fillcolor="#9a39e5"] ;
43 -> 44 ;
45 [label="gini = 0.0\nsamples = 4\nvalue = [0, 0, 0, 0, 0, 0, 0, 0, 0, 0, 0, 0, 0, 0\n0, 0, 0, 0, 0, 0, 0, 0, 0, 7, 0, 0]\nclass = 24", fillcolor="#e5396a"] ;
43 -> 45 ;
46 [label="X[7] <= -0.53\ngini = 0.44\nsamples = 3\nvalue = [0, 1, 0, 0, 0, 0, 0, 0, 0, 0, 0, 0, 0, 0\n0, 0, 0, 0, 2, 0, 0, 0, 0, 0, 0, 0]\nclass = 19", fillcolor="#cc9cf2"] ;
42 -> 46 ;
47 [label="gini = 0.0\nsamples = 2\nvalue = [0, 0, 0, 0, 0, 0, 0, 0, 0, 0, 0, 0, 0, 0\n0, 0, 0, 0, 2, 0, 0, 0, 0, 0, 0, 0]\nclass = 19", fillcolor="#9a39e5"] ;
46 -> 47 ;
48 [label="gini = 0.0\nsamples = 1\nvalue = [0, 1, 0, 0, 0, 0, 0, 0, 0, 0, 0, 0, 0, 0\n0, 0, 0, 0, 0, 0, 0, 0, 0, 0, 0, 0]\nclass = 2", fillcolor="#e5a639"] ;
46 -> 48 ;
49 [label="gini = 0.0\nsamples = 2\nvalue = [0, 0, 0, 0, 0, 0, 0, 0, 3, 0, 0, 0, 0, 0\n0, 0, 0, 0, 0, 0, 0, 0, 0, 0, 0, 0]\nclass = 9", fillcolor="#39e564"] ;
41 -> 49 ;
50 [label="X[49] <= 0.72\ngini = 0.23\nsamples = 75\nvalue = [0, 3, 0, 0, 0, 0, 0, 0, 0, 0, 0, 0, 0, 0\n0, 0, 0, 0, 2, 0, 8, 2, 0, 106, 0, 0]\nclass = 24", fillcolor="#e8537e"] ;
40 -> 50 ;
51 [label="X[62] <= -0.3\ngini = 0.2\nsamples = 74\nvalue = [0, 1, 0, 0, 0, 0, 0, 0, 0, 0, 0, 0, 0, 0\n0, 0, 0, 0, 2, 0, 8, 2, 0, 106, 0, 0]\nclass = 24", fillcolor="#e8507b"] ;
50 -> 51 ;
52 [label="gini = 0.0\nsamples = 1\nvalue = [0, 0, 0, 0, 0, 0, 0, 0, 0, 0, 0, 0, 0, 0\n0, 0, 0, 0, 2, 0, 0, 0, 0, 0, 0, 0]\nclass = 19", fillcolor="#9a39e5"] ;
51 -> 52 ;
53 [label="X[25] <= 0.98\ngini = 0.17\nsamples = 73\nvalue = [0, 1, 0, 0, 0, 0, 0, 0, 0, 0, 0, 0, 0, 0\n0, 0, 0, 0, 0, 0, 8, 2, 0, 106, 0, 0]\nclass = 24", fillcolor="#e84d79"] ;
51 -> 53 ;
54 [label="X[72] <= -0.86\ngini = 0.15\nsamples = 70\nvalue = [0, 1, 0, 0, 0, 0, 0, 0, 0, 0, 0, 0, 0, 0\n0, 0, 0, 0, 0, 0, 6, 2, 0, 105, 0, 0]\nclass = 24", fillcolor="#e74a76"] ;
53 -> 54 ;
55 [label="X[92] <= 0.48\ngini = 0.49\nsamples = 7\nvalue = [0, 0, 0, 0, 0, 0, 0, 0, 0, 0, 0, 0, 0, 0\n0, 0, 0, 0, 0, 0, 5, 0, 0, 4, 0, 0]\nclass = 21", fillcolor="#fad7f9"] ;
54 -> 55 ;
56 [label="X[45] <= 0.09\ngini = 0.41\nsamples = 5\nvalue = [0, 0, 0, 0, 0, 0, 0, 0, 0, 0, 0, 0, 0, 0\n0, 0, 0, 0, 0, 0, 5, 0, 0, 2, 0, 0]\nclass = 21", fillcolor="#ef88ee"] ;
55 -> 56 ;
57 [label="gini = 0.0\nsamples = 1\nvalue = [0, 0, 0, 0, 0, 0, 0, 0, 0, 0, 0, 0, 0, 0\n0, 0, 0, 0, 0, 0, 0, 0, 0, 2, 0, 0]\nclass = 24", fillcolor="#e5396a"] ;
56 -> 57 ;
58 [label="gini = 0.0\nsamples = 4\nvalue = [0, 0, 0, 0, 0, 0, 0, 0, 0, 0, 0, 0, 0, 0\n0, 0, 0, 0, 0, 0, 5, 0, 0, 0, 0, 0]\nclass = 21", fillcolor="#e539e2"] ;
56 -> 58 ;
59 [label="gini = 0.0\nsamples = 2\nvalue = [0, 0, 0, 0, 0, 0, 0, 0, 0, 0, 0, 0, 0, 0\n0, 0, 0, 0, 0, 0, 0, 0, 0, 2, 0, 0]\nclass = 24", fillcolor="#e5396a"] ;
55 -> 59 ;
60 [label="X[90] <= -0.32\ngini = 0.07\nsamples = 63\nvalue = [0, 1, 0, 0, 0, 0, 0, 0, 0, 0, 0, 0, 0, 0\n0, 0, 0, 0, 0, 0, 1, 2, 0, 101, 0, 0]\nclass = 24", fillcolor="#e64170"] ;
54 -> 60 ;
61 [label="X[86] <= -0.44\ngini = 0.41\nsamples = 5\nvalue = [0, 0, 0, 0, 0, 0, 0, 0, 0, 0, 0, 0, 0, 0\n0, 0, 0, 0, 0, 0, 1, 1, 0, 6, 0, 0]\nclass = 24", fillcolor="#ec7295"] ;
60 -> 61 ;
62 [label="gini = 0.0\nsamples = 3\nvalue = [0, 0, 0, 0, 0, 0, 0, 0, 0, 0, 0, 0, 0, 0\n0, 0, 0, 0, 0, 0, 0, 0, 0, 6, 0, 0]\nclass = 24", fillcolor="#e5396a"] ;
61 -> 62 ;
63 [label="X[51] <= -0.0\ngini = 0.5\nsamples = 2\nvalue = [0, 0, 0, 0, 0, 0, 0, 0, 0, 0, 0, 0, 0, 0\n0, 0, 0, 0, 0, 0, 1, 1, 0, 0, 0, 0]\nclass = 21", fillcolor="#ffffff"] ;
61 -> 63 ;
64 [label="gini = 0.0\nsamples = 1\nvalue = [0, 0, 0, 0, 0, 0, 0, 0, 0, 0, 0, 0, 0, 0\n0, 0, 0, 0, 0, 0, 0, 1, 0, 0, 0, 0]\nclass = 22", fillcolor="#e539ba"] ;
63 -> 64 ;
65 [label="gini = 0.0\nsamples = 1\nvalue = [0, 0, 0, 0, 0, 0, 0, 0, 0, 0, 0, 0, 0, 0\n0, 0, 0, 0, 0, 0, 1, 0, 0, 0, 0, 0]\nclass = 21", fillcolor="#e539e2"] ;
63 -> 65 ;
66 [label="X[64] <= -0.19\ngini = 0.04\nsamples = 58\nvalue = [0, 1, 0, 0, 0, 0, 0, 0, 0, 0, 0, 0, 0, 0\n0, 0, 0, 0, 0, 0, 0, 1, 0, 95, 0, 0]\nclass = 24", fillcolor="#e63d6d"] ;
60 -> 66 ;
67 [label="X[17] <= -0.23\ngini = 0.02\nsamples = 57\nvalue = [0, 1, 0, 0, 0, 0, 0, 0, 0, 0, 0, 0, 0, 0\n0, 0, 0, 0, 0, 0, 0, 0, 0, 95, 0, 0]\nclass = 24", fillcolor="#e53b6c"] ;
66 -> 67 ;
68 [label="gini = 0.0\nsamples = 1\nvalue = [0, 1, 0, 0, 0, 0, 0, 0, 0, 0, 0, 0, 0, 0\n0, 0, 0, 0, 0, 0, 0, 0, 0, 0, 0, 0]\nclass = 2", fillcolor="#e5a639"] ;
67 -> 68 ;
69 [label="gini = 0.0\nsamples = 56\nvalue = [0, 0, 0, 0, 0, 0, 0, 0, 0, 0, 0, 0, 0, 0\n0, 0, 0, 0, 0, 0, 0, 0, 0, 95, 0, 0]\nclass = 24", fillcolor="#e5396a"] ;
67 -> 69 ;
70 [label="gini = 0.0\nsamples = 1\nvalue = [0, 0, 0, 0, 0, 0, 0, 0, 0, 0, 0, 0, 0, 0\n0, 0, 0, 0, 0, 0, 0, 1, 0, 0, 0, 0]\nclass = 22", fillcolor="#e539ba"] ;
66 -> 70 ;
71 [label="X[35] <= -0.39\ngini = 0.44\nsamples = 3\nvalue = [0, 0, 0, 0, 0, 0, 0, 0, 0, 0, 0, 0, 0, 0\n0, 0, 0, 0, 0, 0, 2, 0, 0, 1, 0, 0]\nclass = 21", fillcolor="#f29cf0"] ;
53 -> 71 ;
72 [label="gini = 0.0\nsamples = 2\nvalue = [0, 0, 0, 0, 0, 0, 0, 0, 0, 0, 0, 0, 0, 0\n0, 0, 0, 0, 0, 0, 2, 0, 0, 0, 0, 0]\nclass = 21", fillcolor="#e539e2"] ;
71 -> 72 ;
73 [label="gini = 0.0\nsamples = 1\nvalue = [0, 0, 0, 0, 0, 0, 0, 0, 0, 0, 0, 0, 0, 0\n0, 0, 0, 0, 0, 0, 0, 0, 0, 1, 0, 0]\nclass = 24", fillcolor="#e5396a"] ;
71 -> 73 ;
74 [label="gini = 0.0\nsamples = 1\nvalue = [0, 2, 0, 0, 0, 0, 0, 0, 0, 0, 0, 0, 0, 0\n0, 0, 0, 0, 0, 0, 0, 0, 0, 0, 0, 0]\nclass = 2", fillcolor="#e5a639"] ;
50 -> 74 ;
75 [label="X[43] <= 0.08\ngini = 0.78\nsamples = 21\nvalue = [0, 0, 0, 0, 0, 0, 0, 0, 3, 0, 0, 0, 5, 0\n1, 0, 0, 0, 12, 1, 5, 0, 0, 7, 0, 0]\nclass = 19", fillcolor="#ecdafa"] ;
39 -> 75 ;
76 [label="X[8] <= -0.46\ngini = 0.41\nsamples = 9\nvalue = [0, 0, 0, 0, 0, 0, 0, 0, 2, 0, 0, 0, 1, 0\n1, 0, 0, 0, 12, 0, 0, 0, 0, 0, 0, 0]\nclass = 19", fillcolor="#b772ec"] ;
75 -> 76 ;
77 [label="X[40] <= -0.46\ngini = 0.14\nsamples = 7\nvalue = [0, 0, 0, 0, 0, 0, 0, 0, 0, 0, 0, 0, 0, 0\n1, 0, 0, 0, 12, 0, 0, 0, 0, 0, 0, 0]\nclass = 19", fillcolor="#a249e7"] ;
76 -> 77 ;
78 [label="gini = 0.0\nsamples = 5\nvalue = [0, 0, 0, 0, 0, 0, 0, 0, 0, 0, 0, 0, 0, 0\n0, 0, 0, 0, 11, 0, 0, 0, 0, 0, 0, 0]\nclass = 19", fillcolor="#9a39e5"] ;
77 -> 78 ;
79 [label="X[85] <= 0.87\ngini = 0.5\nsamples = 2\nvalue = [0, 0, 0, 0, 0, 0, 0, 0, 0, 0, 0, 0, 0, 0\n1, 0, 0, 0, 1, 0, 0, 0, 0, 0, 0, 0]\nclass = 15", fillcolor="#ffffff"] ;
77 -> 79 ;
80 [label="gini = 0.0\nsamples = 1\nvalue = [0, 0, 0, 0, 0, 0, 0, 0, 0, 0, 0, 0, 0, 0\n1, 0, 0, 0, 0, 0, 0, 0, 0, 0, 0, 0]\nclass = 15", fillcolor="#3978e5"] ;
79 -> 80 ;
81 [label="gini = 0.0\nsamples = 1\nvalue = [0, 0, 0, 0, 0, 0, 0, 0, 0, 0, 0, 0, 0, 0\n0, 0, 0, 0, 1, 0, 0, 0, 0, 0, 0, 0]\nclass = 19", fillcolor="#9a39e5"] ;
79 -> 81 ;
82 [label="X[53] <= -0.39\ngini = 0.44\nsamples = 2\nvalue = [0, 0, 0, 0, 0, 0, 0, 0, 2, 0, 0, 0, 1, 0\n0, 0, 0, 0, 0, 0, 0, 0, 0, 0, 0, 0]\nclass = 9", fillcolor="#9cf2b2"] ;
76 -> 82 ;
83 [label="gini = 0.0\nsamples = 1\nvalue = [0, 0, 0, 0, 0, 0, 0, 0, 2, 0, 0, 0, 0, 0\n0, 0, 0, 0, 0, 0, 0, 0, 0, 0, 0, 0]\nclass = 9", fillcolor="#39e564"] ;
82 -> 83 ;
84 [label="gini = 0.0\nsamples = 1\nvalue = [0, 0, 0, 0, 0, 0, 0, 0, 0, 0, 0, 0, 1, 0\n0, 0, 0, 0, 0, 0, 0, 0, 0, 0, 0, 0]\nclass = 13", fillcolor="#39c5e5"] ;
82 -> 84 ;
85 [label="X[52] <= 0.39\ngini = 0.72\nsamples = 12\nvalue = [0, 0, 0, 0, 0, 0, 0, 0, 1, 0, 0, 0, 4, 0\n0, 0, 0, 0, 0, 1, 5, 0, 0, 7, 0, 0]\nclass = 24", fillcolor="#fbe1e8"] ;
75 -> 85 ;
86 [label="X[47] <= 0.56\ngini = 0.24\nsamples = 4\nvalue = [0, 0, 0, 0, 0, 0, 0, 0, 0, 0, 0, 0, 0, 0\n0, 0, 0, 0, 0, 1, 0, 0, 0, 6, 0, 0]\nclass = 24", fillcolor="#e95a83"] ;
85 -> 86 ;
87 [label="gini = 0.0\nsamples = 3\nvalue = [0, 0, 0, 0, 0, 0, 0, 0, 0, 0, 0, 0, 0, 0\n0, 0, 0, 0, 0, 0, 0, 0, 0, 6, 0, 0]\nclass = 24", fillcolor="#e5396a"] ;
86 -> 87 ;
88 [label="gini = 0.0\nsamples = 1\nvalue = [0, 0, 0, 0, 0, 0, 0, 0, 0, 0, 0, 0, 0, 0\n0, 0, 0, 0, 0, 1, 0, 0, 0, 0, 0, 0]\nclass = 20", fillcolor="#c339e5"] ;
86 -> 88 ;
89 [label="X[71] <= 0.64\ngini = 0.64\nsamples = 8\nvalue = [0, 0, 0, 0, 0, 0, 0, 0, 1, 0, 0, 0, 4, 0\n0, 0, 0, 0, 0, 0, 5, 0, 0, 1, 0, 0]\nclass = 21", fillcolor="#fbe3fb"] ;
85 -> 89 ;
90 [label="X[2] <= -0.1\ngini = 0.28\nsamples = 4\nvalue = [0, 0, 0, 0, 0, 0, 0, 0, 1, 0, 0, 0, 0, 0\n0, 0, 0, 0, 0, 0, 5, 0, 0, 0, 0, 0]\nclass = 21", fillcolor="#ea61e8"] ;
89 -> 90 ;
91 [label="gini = 0.0\nsamples = 3\nvalue = [0, 0, 0, 0, 0, 0, 0, 0, 0, 0, 0, 0, 0, 0\n0, 0, 0, 0, 0, 0, 5, 0, 0, 0, 0, 0]\nclass = 21", fillcolor="#e539e2"] ;
90 -> 91 ;
92 [label="gini = 0.0\nsamples = 1\nvalue = [0, 0, 0, 0, 0, 0, 0, 0, 1, 0, 0, 0, 0, 0\n0, 0, 0, 0, 0, 0, 0, 0, 0, 0, 0, 0]\nclass = 9", fillcolor="#39e564"] ;
90 -> 92 ;
93 [label="X[72] <= -0.37\ngini = 0.32\nsamples = 4\nvalue = [0, 0, 0, 0, 0, 0, 0, 0, 0, 0, 0, 0, 4, 0\n0, 0, 0, 0, 0, 0, 0, 0, 0, 1, 0, 0]\nclass = 13", fillcolor="#6ad4ec"] ;
89 -> 93 ;
94 [label="gini = 0.0\nsamples = 1\nvalue = [0, 0, 0, 0, 0, 0, 0, 0, 0, 0, 0, 0, 0, 0\n0, 0, 0, 0, 0, 0, 0, 0, 0, 1, 0, 0]\nclass = 24", fillcolor="#e5396a"] ;
93 -> 94 ;
95 [label="gini = 0.0\nsamples = 3\nvalue = [0, 0, 0, 0, 0, 0, 0, 0, 0, 0, 0, 0, 4, 0\n0, 0, 0, 0, 0, 0, 0, 0, 0, 0, 0, 0]\nclass = 13", fillcolor="#39c5e5"] ;
93 -> 95 ;
96 [label="X[44] <= 0.44\ngini = 0.58\nsamples = 37\nvalue = [0, 0, 0, 0, 0, 0, 0, 5, 1, 0, 0, 1, 2, 1\n1, 0, 0, 0, 2, 0, 34, 1, 0, 6, 0, 0]\nclass = 21", fillcolor="#f08bee"] ;
38 -> 96 ;
97 [label="X[93] <= 0.07\ngini = 0.71\nsamples = 7\nvalue = [0, 0, 0, 0, 0, 0, 0, 4, 0, 0, 0, 1, 0, 1\n1, 0, 0, 0, 0, 0, 0, 0, 0, 4, 0, 0]\nclass = 8", fillcolor="#ffffff"] ;
96 -> 97 ;
98 [label="gini = 0.0\nsamples = 2\nvalue = [0, 0, 0, 0, 0, 0, 0, 4, 0, 0, 0, 0, 0, 0\n0, 0, 0, 0, 0, 0, 0, 0, 0, 0, 0, 0]\nclass = 8", fillcolor="#39e53c"] ;
97 -> 98 ;
99 [label="X[20] <= -0.2\ngini = 0.61\nsamples = 5\nvalue = [0, 0, 0, 0, 0, 0, 0, 0, 0, 0, 0, 1, 0, 1\n1, 0, 0, 0, 0, 0, 0, 0, 0, 4, 0, 0]\nclass = 24", fillcolor="#f29cb4"] ;
97 -> 99 ;
100 [label="gini = 0.0\nsamples = 2\nvalue = [0, 0, 0, 0, 0, 0, 0, 0, 0, 0, 0, 0, 0, 0\n0, 0, 0, 0, 0, 0, 0, 0, 0, 4, 0, 0]\nclass = 24", fillcolor="#e5396a"] ;
99 -> 100 ;
101 [label="X[32] <= -0.07\ngini = 0.67\nsamples = 3\nvalue = [0, 0, 0, 0, 0, 0, 0, 0, 0, 0, 0, 1, 0, 1\n1, 0, 0, 0, 0, 0, 0, 0, 0, 0, 0, 0]\nclass = 12", fillcolor="#ffffff"] ;
99 -> 101 ;
102 [label="gini = 0.0\nsamples = 1\nvalue = [0, 0, 0, 0, 0, 0, 0, 0, 0, 0, 0, 1, 0, 0\n0, 0, 0, 0, 0, 0, 0, 0, 0, 0, 0, 0]\nclass = 12", fillcolor="#39e5dc"] ;
101 -> 102 ;
103 [label="X[17] <= 0.59\ngini = 0.5\nsamples = 2\nvalue = [0, 0, 0, 0, 0, 0, 0, 0, 0, 0, 0, 0, 0, 1\n1, 0, 0, 0, 0, 0, 0, 0, 0, 0, 0, 0]\nclass = 14", fillcolor="#ffffff"] ;
101 -> 103 ;
104 [label="gini = 0.0\nsamples = 1\nvalue = [0, 0, 0, 0, 0, 0, 0, 0, 0, 0, 0, 0, 0, 1\n0, 0, 0, 0, 0, 0, 0, 0, 0, 0, 0, 0]\nclass = 14", fillcolor="#399de5"] ;
103 -> 104 ;
105 [label="gini = 0.0\nsamples = 1\nvalue = [0, 0, 0, 0, 0, 0, 0, 0, 0, 0, 0, 0, 0, 0\n1, 0, 0, 0, 0, 0, 0, 0, 0, 0, 0, 0]\nclass = 15", fillcolor="#3978e5"] ;
103 -> 105 ;
106 [label="X[4] <= -0.89\ngini = 0.37\nsamples = 30\nvalue = [0, 0, 0, 0, 0, 0, 0, 1, 1, 0, 0, 0, 2, 0\n0, 0, 0, 0, 2, 0, 34, 1, 0, 2, 0, 0]\nclass = 21", fillcolor="#eb64e8"] ;
96 -> 106 ;
107 [label="X[74] <= 0.59\ngini = 0.73\nsamples = 5\nvalue = [0, 0, 0, 0, 0, 0, 0, 0, 0, 0, 0, 0, 2, 0\n0, 0, 0, 0, 1, 0, 2, 0, 0, 2, 0, 0]\nclass = 13", fillcolor="#ffffff"] ;
106 -> 107 ;
108 [label="X[46] <= -0.54\ngini = 0.64\nsamples = 4\nvalue = [0, 0, 0, 0, 0, 0, 0, 0, 0, 0, 0, 0, 0, 0\n0, 0, 0, 0, 1, 0, 2, 0, 0, 2, 0, 0]\nclass = 21", fillcolor="#ffffff"] ;
107 -> 108 ;
109 [label="gini = 0.0\nsamples = 1\nvalue = [0, 0, 0, 0, 0, 0, 0, 0, 0, 0, 0, 0, 0, 0\n0, 0, 0, 0, 0, 0, 2, 0, 0, 0, 0, 0]\nclass = 21", fillcolor="#e539e2"] ;
108 -> 109 ;
110 [label="X[14] <= -0.19\ngini = 0.44\nsamples = 3\nvalue = [0, 0, 0, 0, 0, 0, 0, 0, 0, 0, 0, 0, 0, 0\n0, 0, 0, 0, 1, 0, 0, 0, 0, 2, 0, 0]\nclass = 24", fillcolor="#f29cb4"] ;
108 -> 110 ;
111 [label="gini = 0.0\nsamples = 1\nvalue = [0, 0, 0, 0, 0, 0, 0, 0, 0, 0, 0, 0, 0, 0\n0, 0, 0, 0, 1, 0, 0, 0, 0, 0, 0, 0]\nclass = 19", fillcolor="#9a39e5"] ;
110 -> 111 ;
112 [label="gini = 0.0\nsamples = 2\nvalue = [0, 0, 0, 0, 0, 0, 0, 0, 0, 0, 0, 0, 0, 0\n0, 0, 0, 0, 0, 0, 0, 0, 0, 2, 0, 0]\nclass = 24", fillcolor="#e5396a"] ;
110 -> 112 ;
113 [label="gini = 0.0\nsamples = 1\nvalue = [0, 0, 0, 0, 0, 0, 0, 0, 0, 0, 0, 0, 2, 0\n0, 0, 0, 0, 0, 0, 0, 0, 0, 0, 0, 0]\nclass = 13", fillcolor="#39c5e5"] ;
107 -> 113 ;
114 [label="X[88] <= 0.65\ngini = 0.21\nsamples = 25\nvalue = [0, 0, 0, 0, 0, 0, 0, 1, 1, 0, 0, 0, 0, 0\n0, 0, 0, 0, 1, 0, 32, 1, 0, 0, 0, 0]\nclass = 21", fillcolor="#e850e5"] ;
106 -> 114 ;
115 [label="X[47] <= -0.01\ngini = 0.06\nsamples = 20\nvalue = [0, 0, 0, 0, 0, 0, 0, 0, 1, 0, 0, 0, 0, 0\n0, 0, 0, 0, 0, 0, 30, 0, 0, 0, 0, 0]\nclass = 21", fillcolor="#e640e3"] ;
114 -> 115 ;
116 [label="gini = 0.0\nsamples = 1\nvalue = [0, 0, 0, 0, 0, 0, 0, 0, 1, 0, 0, 0, 0, 0\n0, 0, 0, 0, 0, 0, 0, 0, 0, 0, 0, 0]\nclass = 9", fillcolor="#39e564"] ;
115 -> 116 ;
117 [label="gini = 0.0\nsamples = 19\nvalue = [0, 0, 0, 0, 0, 0, 0, 0, 0, 0, 0, 0, 0, 0\n0, 0, 0, 0, 0, 0, 30, 0, 0, 0, 0, 0]\nclass = 21", fillcolor="#e539e2"] ;
115 -> 117 ;
118 [label="X[88] <= 0.73\ngini = 0.72\nsamples = 5\nvalue = [0, 0, 0, 0, 0, 0, 0, 1, 0, 0, 0, 0, 0, 0\n0, 0, 0, 0, 1, 0, 2, 1, 0, 0, 0, 0]\nclass = 21", fillcolor="#f8cef8"] ;
114 -> 118 ;
119 [label="X[5] <= 0.25\ngini = 0.67\nsamples = 3\nvalue = [0, 0, 0, 0, 0, 0, 0, 1, 0, 0, 0, 0, 0, 0\n0, 0, 0, 0, 1, 0, 0, 1, 0, 0, 0, 0]\nclass = 8", fillcolor="#ffffff"] ;
118 -> 119 ;
120 [label="gini = 0.0\nsamples = 1\nvalue = [0, 0, 0, 0, 0, 0, 0, 0, 0, 0, 0, 0, 0, 0\n0, 0, 0, 0, 1, 0, 0, 0, 0, 0, 0, 0]\nclass = 19", fillcolor="#9a39e5"] ;
119 -> 120 ;
121 [label="X[43] <= 0.69\ngini = 0.5\nsamples = 2\nvalue = [0, 0, 0, 0, 0, 0, 0, 1, 0, 0, 0, 0, 0, 0\n0, 0, 0, 0, 0, 0, 0, 1, 0, 0, 0, 0]\nclass = 8", fillcolor="#ffffff"] ;
119 -> 121 ;
122 [label="gini = 0.0\nsamples = 1\nvalue = [0, 0, 0, 0, 0, 0, 0, 0, 0, 0, 0, 0, 0, 0\n0, 0, 0, 0, 0, 0, 0, 1, 0, 0, 0, 0]\nclass = 22", fillcolor="#e539ba"] ;
121 -> 122 ;
123 [label="gini = 0.0\nsamples = 1\nvalue = [0, 0, 0, 0, 0, 0, 0, 1, 0, 0, 0, 0, 0, 0\n0, 0, 0, 0, 0, 0, 0, 0, 0, 0, 0, 0]\nclass = 8", fillcolor="#39e53c"] ;
121 -> 123 ;
124 [label="gini = 0.0\nsamples = 2\nvalue = [0, 0, 0, 0, 0, 0, 0, 0, 0, 0, 0, 0, 0, 0\n0, 0, 0, 0, 0, 0, 2, 0, 0, 0, 0, 0]\nclass = 21", fillcolor="#e539e2"] ;
118 -> 124 ;
125 [label="X[36] <= 0.15\ngini = 0.81\nsamples = 210\nvalue = [3, 14, 13, 0, 0, 0, 0, 67, 7, 0, 0, 5, 114\n6, 12, 0, 0, 0, 5, 0, 25, 22, 0, 47, 0, 0]\nclass = 13", fillcolor="#ddf5fb"] ;
5 -> 125 ;
126 [label="X[12] <= -0.45\ngini = 0.85\nsamples = 139\nvalue = [3, 13, 13, 0, 0, 0, 0, 60, 5, 0, 0, 5, 42, 6\n6, 0, 0, 0, 2, 0, 14, 21, 0, 40, 0, 0]\nclass = 8", fillcolor="#ecfdec"] ;
125 -> 126 ;
127 [label="X[80] <= 0.52\ngini = 0.79\nsamples = 78\nvalue = [0, 13, 10, 0, 0, 0, 0, 9, 3, 0, 0, 0, 37, 0\n2, 0, 0, 0, 0, 0, 11, 5, 0, 40, 0, 0]\nclass = 24", fillcolor="#fef9fa"] ;
126 -> 127 ;
128 [label="X[51] <= 0.46\ngini = 0.78\nsamples = 55\nvalue = [0, 12, 8, 0, 0, 0, 0, 6, 2, 0, 0, 0, 15, 0\n1, 0, 0, 0, 0, 0, 10, 5, 0, 40, 0, 0]\nclass = 24", fillcolor="#f7c4d3"] ;
127 -> 128 ;
129 [label="X[8] <= -0.35\ngini = 0.72\nsamples = 48\nvalue = [0, 0, 7, 0, 0, 0, 0, 6, 2, 0, 0, 0, 15, 0\n1, 0, 0, 0, 0, 0, 10, 5, 0, 40, 0, 0]\nclass = 24", fillcolor="#f6b9cb"] ;
128 -> 129 ;
130 [label="X[9] <= -0.47\ngini = 0.58\nsamples = 35\nvalue = [0, 0, 5, 0, 0, 0, 0, 5, 0, 0, 0, 0, 7, 0\n0, 0, 0, 0, 0, 0, 6, 1, 0, 40, 0, 0]\nclass = 24", fillcolor="#f08ca9"] ;
129 -> 130 ;
131 [label="X[29] <= 0.84\ngini = 0.35\nsamples = 26\nvalue = [0, 0, 1, 0, 0, 0, 0, 0, 0, 0, 0, 0, 6, 0\n0, 0, 0, 0, 0, 0, 3, 0, 0, 38, 0, 0]\nclass = 24", fillcolor="#eb688d"] ;
130 -> 131 ;
132 [label="X[17] <= -0.2\ngini = 0.18\nsamples = 23\nvalue = [0, 0, 1, 0, 0, 0, 0, 0, 0, 0, 0, 0, 3, 0\n0, 0, 0, 0, 0, 0, 0, 0, 0, 38, 0, 0]\nclass = 24", fillcolor="#e84d79"] ;
131 -> 132 ;
133 [label="gini = 0.0\nsamples = 1\nvalue = [0, 0, 1, 0, 0, 0, 0, 0, 0, 0, 0, 0, 0, 0\n0, 0, 0, 0, 0, 0, 0, 0, 0, 0, 0, 0]\nclass = 3", fillcolor="#e5ce39"] ;
132 -> 133 ;
134 [label="X[71] <= 0.55\ngini = 0.14\nsamples = 22\nvalue = [0, 0, 0, 0, 0, 0, 0, 0, 0, 0, 0, 0, 3, 0\n0, 0, 0, 0, 0, 0, 0, 0, 0, 38, 0, 0]\nclass = 24", fillcolor="#e74976"] ;
132 -> 134 ;
135 [label="X[62] <= -0.34\ngini = 0.05\nsamples = 19\nvalue = [0, 0, 0, 0, 0, 0, 0, 0, 0, 0, 0, 0, 1, 0\n0, 0, 0, 0, 0, 0, 0, 0, 0, 37, 0, 0]\nclass = 24", fillcolor="#e63e6e"] ;
134 -> 135 ;
136 [label="gini = 0.0\nsamples = 1\nvalue = [0, 0, 0, 0, 0, 0, 0, 0, 0, 0, 0, 0, 1, 0\n0, 0, 0, 0, 0, 0, 0, 0, 0, 0, 0, 0]\nclass = 13", fillcolor="#39c5e5"] ;
135 -> 136 ;
137 [label="gini = 0.0\nsamples = 18\nvalue = [0, 0, 0, 0, 0, 0, 0, 0, 0, 0, 0, 0, 0, 0\n0, 0, 0, 0, 0, 0, 0, 0, 0, 37, 0, 0]\nclass = 24", fillcolor="#e5396a"] ;
135 -> 137 ;
138 [label="X[63] <= 0.22\ngini = 0.44\nsamples = 3\nvalue = [0, 0, 0, 0, 0, 0, 0, 0, 0, 0, 0, 0, 2, 0\n0, 0, 0, 0, 0, 0, 0, 0, 0, 1, 0, 0]\nclass = 13", fillcolor="#9ce2f2"] ;
134 -> 138 ;
139 [label="gini = 0.0\nsamples = 1\nvalue = [0, 0, 0, 0, 0, 0, 0, 0, 0, 0, 0, 0, 0, 0\n0, 0, 0, 0, 0, 0, 0, 0, 0, 1, 0, 0]\nclass = 24", fillcolor="#e5396a"] ;
138 -> 139 ;
140 [label="gini = 0.0\nsamples = 2\nvalue = [0, 0, 0, 0, 0, 0, 0, 0, 0, 0, 0, 0, 2, 0\n0, 0, 0, 0, 0, 0, 0, 0, 0, 0, 0, 0]\nclass = 13", fillcolor="#39c5e5"] ;
138 -> 140 ;
141 [label="X[66] <= -0.06\ngini = 0.5\nsamples = 3\nvalue = [0, 0, 0, 0, 0, 0, 0, 0, 0, 0, 0, 0, 3, 0\n0, 0, 0, 0, 0, 0, 3, 0, 0, 0, 0, 0]\nclass = 13", fillcolor="#ffffff"] ;
131 -> 141 ;
142 [label="gini = 0.0\nsamples = 2\nvalue = [0, 0, 0, 0, 0, 0, 0, 0, 0, 0, 0, 0, 3, 0\n0, 0, 0, 0, 0, 0, 0, 0, 0, 0, 0, 0]\nclass = 13", fillcolor="#39c5e5"] ;
141 -> 142 ;
143 [label="gini = 0.0\nsamples = 1\nvalue = [0, 0, 0, 0, 0, 0, 0, 0, 0, 0, 0, 0, 0, 0\n0, 0, 0, 0, 0, 0, 3, 0, 0, 0, 0, 0]\nclass = 21", fillcolor="#e539e2"] ;
141 -> 143 ;
144 [label="X[51] <= 0.25\ngini = 0.78\nsamples = 9\nvalue = [0, 0, 4, 0, 0, 0, 0, 5, 0, 0, 0, 0, 1, 0\n0, 0, 0, 0, 0, 0, 3, 1, 0, 2, 0, 0]\nclass = 8", fillcolor="#eefdef"] ;
130 -> 144 ;
145 [label="X[56] <= 0.51\ngini = 0.72\nsamples = 7\nvalue = [0, 0, 0, 0, 0, 0, 0, 5, 0, 0, 0, 0, 1, 0\n0, 0, 0, 0, 0, 0, 3, 1, 0, 2, 0, 0]\nclass = 8", fillcolor="#d3f9d4"] ;
144 -> 145 ;
146 [label="X[76] <= -0.74\ngini = 0.45\nsamples = 4\nvalue = [0, 0, 0, 0, 0, 0, 0, 5, 0, 0, 0, 0, 1, 0\n0, 0, 0, 0, 0, 0, 0, 1, 0, 0, 0, 0]\nclass = 8", fillcolor="#7bee7d"] ;
145 -> 146 ;
147 [label="gini = 0.0\nsamples = 2\nvalue = [0, 0, 0, 0, 0, 0, 0, 5, 0, 0, 0, 0, 0, 0\n0, 0, 0, 0, 0, 0, 0, 0, 0, 0, 0, 0]\nclass = 8", fillcolor="#39e53c"] ;
146 -> 147 ;
148 [label="X[90] <= -0.35\ngini = 0.5\nsamples = 2\nvalue = [0, 0, 0, 0, 0, 0, 0, 0, 0, 0, 0, 0, 1, 0\n0, 0, 0, 0, 0, 0, 0, 1, 0, 0, 0, 0]\nclass = 13", fillcolor="#ffffff"] ;
146 -> 148 ;
149 [label="gini = 0.0\nsamples = 1\nvalue = [0, 0, 0, 0, 0, 0, 0, 0, 0, 0, 0, 0, 1, 0\n0, 0, 0, 0, 0, 0, 0, 0, 0, 0, 0, 0]\nclass = 13", fillcolor="#39c5e5"] ;
148 -> 149 ;
150 [label="gini = 0.0\nsamples = 1\nvalue = [0, 0, 0, 0, 0, 0, 0, 0, 0, 0, 0, 0, 0, 0\n0, 0, 0, 0, 0, 0, 0, 1, 0, 0, 0, 0]\nclass = 22", fillcolor="#e539ba"] ;
148 -> 150 ;
151 [label="X[83] <= -0.3\ngini = 0.48\nsamples = 3\nvalue = [0, 0, 0, 0, 0, 0, 0, 0, 0, 0, 0, 0, 0, 0\n0, 0, 0, 0, 0, 0, 3, 0, 0, 2, 0, 0]\nclass = 21", fillcolor="#f6bdf5"] ;
145 -> 151 ;
152 [label="gini = 0.0\nsamples = 2\nvalue = [0, 0, 0, 0, 0, 0, 0, 0, 0, 0, 0, 0, 0, 0\n0, 0, 0, 0, 0, 0, 3, 0, 0, 0, 0, 0]\nclass = 21", fillcolor="#e539e2"] ;
151 -> 152 ;
153 [label="gini = 0.0\nsamples = 1\nvalue = [0, 0, 0, 0, 0, 0, 0, 0, 0, 0, 0, 0, 0, 0\n0, 0, 0, 0, 0, 0, 0, 0, 0, 2, 0, 0]\nclass = 24", fillcolor="#e5396a"] ;
151 -> 153 ;
154 [label="gini = 0.0\nsamples = 2\nvalue = [0, 0, 4, 0, 0, 0, 0, 0, 0, 0, 0, 0, 0, 0\n0, 0, 0, 0, 0, 0, 0, 0, 0, 0, 0, 0]\nclass = 3", fillcolor="#e5ce39"] ;
144 -> 154 ;
155 [label="X[47] <= 0.46\ngini = 0.78\nsamples = 13\nvalue = [0, 0, 2, 0, 0, 0, 0, 1, 2, 0, 0, 0, 8, 0\n1, 0, 0, 0, 0, 0, 4, 4, 0, 0, 0, 0]\nclass = 13", fillcolor="#d3f2f9"] ;
129 -> 155 ;
156 [label="X[73] <= -0.62\ngini = 0.76\nsamples = 8\nvalue = [0, 0, 2, 0, 0, 0, 0, 0, 2, 0, 0, 0, 0, 0\n1, 0, 0, 0, 0, 0, 3, 4, 0, 0, 0, 0]\nclass = 22", fillcolor="#fce9f7"] ;
155 -> 156 ;
157 [label="X[1] <= -0.78\ngini = 0.32\nsamples = 4\nvalue = [0, 0, 0, 0, 0, 0, 0, 0, 0, 0, 0, 0, 0, 0\n1, 0, 0, 0, 0, 0, 0, 4, 0, 0, 0, 0]\nclass = 22", fillcolor="#ec6acb"] ;
156 -> 157 ;
158 [label="gini = 0.0\nsamples = 1\nvalue = [0, 0, 0, 0, 0, 0, 0, 0, 0, 0, 0, 0, 0, 0\n1, 0, 0, 0, 0, 0, 0, 0, 0, 0, 0, 0]\nclass = 15", fillcolor="#3978e5"] ;
157 -> 158 ;
159 [label="gini = 0.0\nsamples = 3\nvalue = [0, 0, 0, 0, 0, 0, 0, 0, 0, 0, 0, 0, 0, 0\n0, 0, 0, 0, 0, 0, 0, 4, 0, 0, 0, 0]\nclass = 22", fillcolor="#e539ba"] ;
157 -> 159 ;
160 [label="X[76] <= -0.86\ngini = 0.65\nsamples = 4\nvalue = [0, 0, 2, 0, 0, 0, 0, 0, 2, 0, 0, 0, 0, 0\n0, 0, 0, 0, 0, 0, 3, 0, 0, 0, 0, 0]\nclass = 21", fillcolor="#fad7f9"] ;
156 -> 160 ;
161 [label="X[28] <= 0.23\ngini = 0.5\nsamples = 2\nvalue = [0, 0, 2, 0, 0, 0, 0, 0, 2, 0, 0, 0, 0, 0\n0, 0, 0, 0, 0, 0, 0, 0, 0, 0, 0, 0]\nclass = 3", fillcolor="#ffffff"] ;
160 -> 161 ;
162 [label="gini = 0.0\nsamples = 1\nvalue = [0, 0, 2, 0, 0, 0, 0, 0, 0, 0, 0, 0, 0, 0\n0, 0, 0, 0, 0, 0, 0, 0, 0, 0, 0, 0]\nclass = 3", fillcolor="#e5ce39"] ;
161 -> 162 ;
163 [label="gini = 0.0\nsamples = 1\nvalue = [0, 0, 0, 0, 0, 0, 0, 0, 2, 0, 0, 0, 0, 0\n0, 0, 0, 0, 0, 0, 0, 0, 0, 0, 0, 0]\nclass = 9", fillcolor="#39e564"] ;
161 -> 163 ;
164 [label="gini = 0.0\nsamples = 2\nvalue = [0, 0, 0, 0, 0, 0, 0, 0, 0, 0, 0, 0, 0, 0\n0, 0, 0, 0, 0, 0, 3, 0, 0, 0, 0, 0]\nclass = 21", fillcolor="#e539e2"] ;
160 -> 164 ;
165 [label="X[36] <= -0.02\ngini = 0.34\nsamples = 5\nvalue = [0, 0, 0, 0, 0, 0, 0, 1, 0, 0, 0, 0, 8, 0\n0, 0, 0, 0, 0, 0, 1, 0, 0, 0, 0, 0]\nclass = 13", fillcolor="#65d2eb"] ;
155 -> 165 ;
166 [label="gini = 0.0\nsamples = 3\nvalue = [0, 0, 0, 0, 0, 0, 0, 0, 0, 0, 0, 0, 8, 0\n0, 0, 0, 0, 0, 0, 0, 0, 0, 0, 0, 0]\nclass = 13", fillcolor="#39c5e5"] ;
165 -> 166 ;
167 [label="X[32] <= 0.76\ngini = 0.5\nsamples = 2\nvalue = [0, 0, 0, 0, 0, 0, 0, 1, 0, 0, 0, 0, 0, 0\n0, 0, 0, 0, 0, 0, 1, 0, 0, 0, 0, 0]\nclass = 8", fillcolor="#ffffff"] ;
165 -> 167 ;
168 [label="gini = 0.0\nsamples = 1\nvalue = [0, 0, 0, 0, 0, 0, 0, 0, 0, 0, 0, 0, 0, 0\n0, 0, 0, 0, 0, 0, 1, 0, 0, 0, 0, 0]\nclass = 21", fillcolor="#e539e2"] ;
167 -> 168 ;
169 [label="gini = 0.0\nsamples = 1\nvalue = [0, 0, 0, 0, 0, 0, 0, 1, 0, 0, 0, 0, 0, 0\n0, 0, 0, 0, 0, 0, 0, 0, 0, 0, 0, 0]\nclass = 8", fillcolor="#39e53c"] ;
167 -> 169 ;
170 [label="X[73] <= 0.2\ngini = 0.14\nsamples = 7\nvalue = [0, 12, 1, 0, 0, 0, 0, 0, 0, 0, 0, 0, 0, 0\n0, 0, 0, 0, 0, 0, 0, 0, 0, 0, 0, 0]\nclass = 2", fillcolor="#e7ad49"] ;
128 -> 170 ;
171 [label="gini = 0.0\nsamples = 6\nvalue = [0, 12, 0, 0, 0, 0, 0, 0, 0, 0, 0, 0, 0, 0\n0, 0, 0, 0, 0, 0, 0, 0, 0, 0, 0, 0]\nclass = 2", fillcolor="#e5a639"] ;
170 -> 171 ;
172 [label="gini = 0.0\nsamples = 1\nvalue = [0, 0, 1, 0, 0, 0, 0, 0, 0, 0, 0, 0, 0, 0\n0, 0, 0, 0, 0, 0, 0, 0, 0, 0, 0, 0]\nclass = 3", fillcolor="#e5ce39"] ;
170 -> 172 ;
173 [label="X[11] <= 0.48\ngini = 0.48\nsamples = 23\nvalue = [0, 1, 2, 0, 0, 0, 0, 3, 1, 0, 0, 0, 22, 0\n1, 0, 0, 0, 0, 0, 1, 0, 0, 0, 0, 0]\nclass = 13", fillcolor="#79d8ed"] ;
127 -> 173 ;
174 [label="X[56] <= -0.2\ngini = 0.75\nsamples = 6\nvalue = [0, 1, 2, 0, 0, 0, 0, 3, 0, 0, 0, 0, 1, 0\n0, 0, 0, 0, 0, 0, 1, 0, 0, 0, 0, 0]\nclass = 8", fillcolor="#defbde"] ;
173 -> 174 ;
175 [label="gini = 0.0\nsamples = 1\nvalue = [0, 0, 2, 0, 0, 0, 0, 0, 0, 0, 0, 0, 0, 0\n0, 0, 0, 0, 0, 0, 0, 0, 0, 0, 0, 0]\nclass = 3", fillcolor="#e5ce39"] ;
174 -> 175 ;
176 [label="X[52] <= -0.25\ngini = 0.67\nsamples = 5\nvalue = [0, 1, 0, 0, 0, 0, 0, 3, 0, 0, 0, 0, 1, 0\n0, 0, 0, 0, 0, 0, 1, 0, 0, 0, 0, 0]\nclass = 8", fillcolor="#b0f5b1"] ;
174 -> 176 ;
177 [label="X[29] <= 0.22\ngini = 0.5\nsamples = 2\nvalue = [0, 1, 0, 0, 0, 0, 0, 0, 0, 0, 0, 0, 1, 0\n0, 0, 0, 0, 0, 0, 0, 0, 0, 0, 0, 0]\nclass = 2", fillcolor="#ffffff"] ;
176 -> 177 ;
178 [label="gini = 0.0\nsamples = 1\nvalue = [0, 1, 0, 0, 0, 0, 0, 0, 0, 0, 0, 0, 0, 0\n0, 0, 0, 0, 0, 0, 0, 0, 0, 0, 0, 0]\nclass = 2", fillcolor="#e5a639"] ;
177 -> 178 ;
179 [label="gini = 0.0\nsamples = 1\nvalue = [0, 0, 0, 0, 0, 0, 0, 0, 0, 0, 0, 0, 1, 0\n0, 0, 0, 0, 0, 0, 0, 0, 0, 0, 0, 0]\nclass = 13", fillcolor="#39c5e5"] ;
177 -> 179 ;
180 [label="X[15] <= 0.2\ngini = 0.38\nsamples = 3\nvalue = [0, 0, 0, 0, 0, 0, 0, 3, 0, 0, 0, 0, 0, 0\n0, 0, 0, 0, 0, 0, 1, 0, 0, 0, 0, 0]\nclass = 8", fillcolor="#7bee7d"] ;
176 -> 180 ;
181 [label="gini = 0.0\nsamples = 2\nvalue = [0, 0, 0, 0, 0, 0, 0, 3, 0, 0, 0, 0, 0, 0\n0, 0, 0, 0, 0, 0, 0, 0, 0, 0, 0, 0]\nclass = 8", fillcolor="#39e53c"] ;
180 -> 181 ;
182 [label="gini = 0.0\nsamples = 1\nvalue = [0, 0, 0, 0, 0, 0, 0, 0, 0, 0, 0, 0, 0, 0\n0, 0, 0, 0, 0, 0, 1, 0, 0, 0, 0, 0]\nclass = 21", fillcolor="#e539e2"] ;
180 -> 182 ;
183 [label="X[47] <= -0.1\ngini = 0.16\nsamples = 17\nvalue = [0, 0, 0, 0, 0, 0, 0, 0, 1, 0, 0, 0, 21, 0\n1, 0, 0, 0, 0, 0, 0, 0, 0, 0, 0, 0]\nclass = 13", fillcolor="#4bcae7"] ;
173 -> 183 ;
184 [label="gini = 0.0\nsamples = 1\nvalue = [0, 0, 0, 0, 0, 0, 0, 0, 1, 0, 0, 0, 0, 0\n0, 0, 0, 0, 0, 0, 0, 0, 0, 0, 0, 0]\nclass = 9", fillcolor="#39e564"] ;
183 -> 184 ;
185 [label="X[63] <= 0.7\ngini = 0.09\nsamples = 16\nvalue = [0, 0, 0, 0, 0, 0, 0, 0, 0, 0, 0, 0, 21, 0\n1, 0, 0, 0, 0, 0, 0, 0, 0, 0, 0, 0]\nclass = 13", fillcolor="#42c8e6"] ;
183 -> 185 ;
186 [label="gini = 0.0\nsamples = 15\nvalue = [0, 0, 0, 0, 0, 0, 0, 0, 0, 0, 0, 0, 21, 0\n0, 0, 0, 0, 0, 0, 0, 0, 0, 0, 0, 0]\nclass = 13", fillcolor="#39c5e5"] ;
185 -> 186 ;
187 [label="gini = 0.0\nsamples = 1\nvalue = [0, 0, 0, 0, 0, 0, 0, 0, 0, 0, 0, 0, 0, 0\n1, 0, 0, 0, 0, 0, 0, 0, 0, 0, 0, 0]\nclass = 15", fillcolor="#3978e5"] ;
185 -> 187 ;
188 [label="X[9] <= 0.05\ngini = 0.7\nsamples = 61\nvalue = [3, 0, 3, 0, 0, 0, 0, 51, 2, 0, 0, 5, 5, 6\n4, 0, 0, 0, 2, 0, 3, 16, 0, 0, 0, 0]\nclass = 8", fillcolor="#acf4ae"] ;
126 -> 188 ;
189 [label="X[73] <= -0.32\ngini = 0.52\nsamples = 41\nvalue = [2, 0, 1, 0, 0, 0, 0, 49, 2, 0, 0, 4, 5, 0\n2, 0, 0, 0, 0, 0, 1, 6, 0, 0, 0, 0]\nclass = 8", fillcolor="#7eee80"] ;
188 -> 189 ;
190 [label="X[52] <= -0.83\ngini = 0.37\nsamples = 34\nvalue = [0, 0, 0, 0, 0, 0, 0, 48, 2, 0, 0, 4, 2, 0\n0, 0, 0, 0, 0, 0, 1, 4, 0, 0, 0, 0]\nclass = 8", fillcolor="#66eb68"] ;
189 -> 190 ;
191 [label="X[26] <= 0.08\ngini = 0.49\nsamples = 4\nvalue = [0, 0, 0, 0, 0, 0, 0, 0, 0, 0, 0, 3, 0, 0\n0, 0, 0, 0, 0, 0, 0, 4, 0, 0, 0, 0]\nclass = 22", fillcolor="#f8ceee"] ;
190 -> 191 ;
192 [label="gini = 0.0\nsamples = 3\nvalue = [0, 0, 0, 0, 0, 0, 0, 0, 0, 0, 0, 0, 0, 0\n0, 0, 0, 0, 0, 0, 0, 4, 0, 0, 0, 0]\nclass = 22", fillcolor="#e539ba"] ;
191 -> 192 ;
193 [label="gini = 0.0\nsamples = 1\nvalue = [0, 0, 0, 0, 0, 0, 0, 0, 0, 0, 0, 3, 0, 0\n0, 0, 0, 0, 0, 0, 0, 0, 0, 0, 0, 0]\nclass = 12", fillcolor="#39e5dc"] ;
191 -> 193 ;
194 [label="X[33] <= 0.94\ngini = 0.21\nsamples = 30\nvalue = [0, 0, 0, 0, 0, 0, 0, 48, 2, 0, 0, 1, 2, 0\n0, 0, 0, 0, 0, 0, 1, 0, 0, 0, 0, 0]\nclass = 8", fillcolor="#50e852"] ;
190 -> 194 ;
195 [label="X[66] <= 0.39\ngini = 0.15\nsamples = 29\nvalue = [0, 0, 0, 0, 0, 0, 0, 48, 0, 0, 0, 1, 2, 0\n0, 0, 0, 0, 0, 0, 1, 0, 0, 0, 0, 0]\nclass = 8", fillcolor="#49e74c"] ;
194 -> 195 ;
196 [label="X[43] <= -0.38\ngini = 0.11\nsamples = 28\nvalue = [0, 0, 0, 0, 0, 0, 0, 48, 0, 0, 0, 1, 1, 0\n0, 0, 0, 0, 0, 0, 1, 0, 0, 0, 0, 0]\nclass = 8", fillcolor="#45e748"] ;
195 -> 196 ;
197 [label="X[3] <= 0.17\ngini = 0.5\nsamples = 2\nvalue = [0, 0, 0, 0, 0, 0, 0, 1, 0, 0, 0, 1, 0, 0\n0, 0, 0, 0, 0, 0, 0, 0, 0, 0, 0, 0]\nclass = 8", fillcolor="#ffffff"] ;
196 -> 197 ;
198 [label="gini = 0.0\nsamples = 1\nvalue = [0, 0, 0, 0, 0, 0, 0, 0, 0, 0, 0, 1, 0, 0\n0, 0, 0, 0, 0, 0, 0, 0, 0, 0, 0, 0]\nclass = 12", fillcolor="#39e5dc"] ;
197 -> 198 ;
199 [label="gini = 0.0\nsamples = 1\nvalue = [0, 0, 0, 0, 0, 0, 0, 1, 0, 0, 0, 0, 0, 0\n0, 0, 0, 0, 0, 0, 0, 0, 0, 0, 0, 0]\nclass = 8", fillcolor="#39e53c"] ;
197 -> 199 ;
200 [label="X[85] <= 0.72\ngini = 0.08\nsamples = 26\nvalue = [0, 0, 0, 0, 0, 0, 0, 47, 0, 0, 0, 0, 1, 0\n0, 0, 0, 0, 0, 0, 1, 0, 0, 0, 0, 0]\nclass = 8", fillcolor="#41e644"] ;
196 -> 200 ;
201 [label="X[93] <= 0.07\ngini = 0.04\nsamples = 25\nvalue = [0, 0, 0, 0, 0, 0, 0, 47, 0, 0, 0, 0, 1, 0\n0, 0, 0, 0, 0, 0, 0, 0, 0, 0, 0, 0]\nclass = 8", fillcolor="#3de640"] ;
200 -> 201 ;
202 [label="X[10] <= -0.11\ngini = 0.38\nsamples = 3\nvalue = [0, 0, 0, 0, 0, 0, 0, 3, 0, 0, 0, 0, 1, 0\n0, 0, 0, 0, 0, 0, 0, 0, 0, 0, 0, 0]\nclass = 8", fillcolor="#7bee7d"] ;
201 -> 202 ;
203 [label="gini = 0.0\nsamples = 1\nvalue = [0, 0, 0, 0, 0, 0, 0, 0, 0, 0, 0, 0, 1, 0\n0, 0, 0, 0, 0, 0, 0, 0, 0, 0, 0, 0]\nclass = 13", fillcolor="#39c5e5"] ;
202 -> 203 ;
204 [label="gini = 0.0\nsamples = 2\nvalue = [0, 0, 0, 0, 0, 0, 0, 3, 0, 0, 0, 0, 0, 0\n0, 0, 0, 0, 0, 0, 0, 0, 0, 0, 0, 0]\nclass = 8", fillcolor="#39e53c"] ;
202 -> 204 ;
205 [label="gini = 0.0\nsamples = 22\nvalue = [0, 0, 0, 0, 0, 0, 0, 44, 0, 0, 0, 0, 0, 0\n0, 0, 0, 0, 0, 0, 0, 0, 0, 0, 0, 0]\nclass = 8", fillcolor="#39e53c"] ;
201 -> 205 ;
206 [label="gini = 0.0\nsamples = 1\nvalue = [0, 0, 0, 0, 0, 0, 0, 0, 0, 0, 0, 0, 0, 0\n0, 0, 0, 0, 0, 0, 1, 0, 0, 0, 0, 0]\nclass = 21", fillcolor="#e539e2"] ;
200 -> 206 ;
207 [label="gini = 0.0\nsamples = 1\nvalue = [0, 0, 0, 0, 0, 0, 0, 0, 0, 0, 0, 0, 1, 0\n0, 0, 0, 0, 0, 0, 0, 0, 0, 0, 0, 0]\nclass = 13", fillcolor="#39c5e5"] ;
195 -> 207 ;
208 [label="gini = 0.0\nsamples = 1\nvalue = [0, 0, 0, 0, 0, 0, 0, 0, 2, 0, 0, 0, 0, 0\n0, 0, 0, 0, 0, 0, 0, 0, 0, 0, 0, 0]\nclass = 9", fillcolor="#39e564"] ;
194 -> 208 ;
209 [label="X[10] <= -0.38\ngini = 0.81\nsamples = 7\nvalue = [2, 0, 1, 0, 0, 0, 0, 1, 0, 0, 0, 0, 3, 0\n2, 0, 0, 0, 0, 0, 0, 2, 0, 0, 0, 0]\nclass = 13", fillcolor="#e9f9fc"] ;
189 -> 209 ;
210 [label="gini = 0.0\nsamples = 2\nvalue = [0, 0, 0, 0, 0, 0, 0, 0, 0, 0, 0, 0, 3, 0\n0, 0, 0, 0, 0, 0, 0, 0, 0, 0, 0, 0]\nclass = 13", fillcolor="#39c5e5"] ;
209 -> 210 ;
211 [label="X[9] <= -0.01\ngini = 0.78\nsamples = 5\nvalue = [2, 0, 1, 0, 0, 0, 0, 1, 0, 0, 0, 0, 0, 0\n2, 0, 0, 0, 0, 0, 0, 2, 0, 0, 0, 0]\nclass = 1", fillcolor="#ffffff"] ;
209 -> 211 ;
212 [label="X[62] <= 0.22\ngini = 0.72\nsamples = 4\nvalue = [2, 0, 1, 0, 0, 0, 0, 1, 0, 0, 0, 0, 0, 0\n2, 0, 0, 0, 0, 0, 0, 0, 0, 0, 0, 0]\nclass = 1", fillcolor="#ffffff"] ;
211 -> 212 ;
213 [label="gini = 0.0\nsamples = 1\nvalue = [0, 0, 0, 0, 0, 0, 0, 0, 0, 0, 0, 0, 0, 0\n2, 0, 0, 0, 0, 0, 0, 0, 0, 0, 0, 0]\nclass = 15", fillcolor="#3978e5"] ;
212 -> 213 ;
214 [label="X[23] <= 0.21\ngini = 0.62\nsamples = 3\nvalue = [2, 0, 1, 0, 0, 0, 0, 1, 0, 0, 0, 0, 0, 0\n0, 0, 0, 0, 0, 0, 0, 0, 0, 0, 0, 0]\nclass = 1", fillcolor="#f6d5bd"] ;
212 -> 214 ;
215 [label="X[47] <= 0.51\ngini = 0.5\nsamples = 2\nvalue = [0, 0, 1, 0, 0, 0, 0, 1, 0, 0, 0, 0, 0, 0\n0, 0, 0, 0, 0, 0, 0, 0, 0, 0, 0, 0]\nclass = 3", fillcolor="#ffffff"] ;
214 -> 215 ;
216 [label="gini = 0.0\nsamples = 1\nvalue = [0, 0, 1, 0, 0, 0, 0, 0, 0, 0, 0, 0, 0, 0\n0, 0, 0, 0, 0, 0, 0, 0, 0, 0, 0, 0]\nclass = 3", fillcolor="#e5ce39"] ;
215 -> 216 ;
217 [label="gini = 0.0\nsamples = 1\nvalue = [0, 0, 0, 0, 0, 0, 0, 1, 0, 0, 0, 0, 0, 0\n0, 0, 0, 0, 0, 0, 0, 0, 0, 0, 0, 0]\nclass = 8", fillcolor="#39e53c"] ;
215 -> 217 ;
218 [label="gini = 0.0\nsamples = 1\nvalue = [2, 0, 0, 0, 0, 0, 0, 0, 0, 0, 0, 0, 0, 0\n0, 0, 0, 0, 0, 0, 0, 0, 0, 0, 0, 0]\nclass = 1", fillcolor="#e58139"] ;
214 -> 218 ;
219 [label="gini = 0.0\nsamples = 1\nvalue = [0, 0, 0, 0, 0, 0, 0, 0, 0, 0, 0, 0, 0, 0\n0, 0, 0, 0, 0, 0, 0, 2, 0, 0, 0, 0]\nclass = 22", fillcolor="#e539ba"] ;
211 -> 219 ;
220 [label="X[0] <= -0.58\ngini = 0.8\nsamples = 20\nvalue = [1, 0, 2, 0, 0, 0, 0, 2, 0, 0, 0, 1, 0, 6\n2, 0, 0, 0, 2, 0, 2, 10, 0, 0, 0, 0]\nclass = 22", fillcolor="#fadbf2"] ;
188 -> 220 ;
221 [label="X[12] <= 0.19\ngini = 0.55\nsamples = 9\nvalue = [0, 0, 2, 0, 0, 0, 0, 1, 0, 0, 0, 0, 0, 0\n1, 0, 0, 0, 0, 0, 1, 9, 0, 0, 0, 0]\nclass = 22", fillcolor="#f08cd7"] ;
220 -> 221 ;
222 [label="X[74] <= 0.08\ngini = 0.18\nsamples = 6\nvalue = [0, 0, 0, 0, 0, 0, 0, 0, 0, 0, 0, 0, 0, 0\n0, 0, 0, 0, 0, 0, 1, 9, 0, 0, 0, 0]\nclass = 22", fillcolor="#e84fc2"] ;
221 -> 222 ;
223 [label="gini = 0.0\nsamples = 1\nvalue = [0, 0, 0, 0, 0, 0, 0, 0, 0, 0, 0, 0, 0, 0\n0, 0, 0, 0, 0, 0, 1, 0, 0, 0, 0, 0]\nclass = 21", fillcolor="#e539e2"] ;
222 -> 223 ;
224 [label="gini = 0.0\nsamples = 5\nvalue = [0, 0, 0, 0, 0, 0, 0, 0, 0, 0, 0, 0, 0, 0\n0, 0, 0, 0, 0, 0, 0, 9, 0, 0, 0, 0]\nclass = 22", fillcolor="#e539ba"] ;
222 -> 224 ;
225 [label="X[17] <= -0.13\ngini = 0.62\nsamples = 3\nvalue = [0, 0, 2, 0, 0, 0, 0, 1, 0, 0, 0, 0, 0, 0\n1, 0, 0, 0, 0, 0, 0, 0, 0, 0, 0, 0]\nclass = 3", fillcolor="#f6efbd"] ;
221 -> 225 ;
226 [label="gini = 0.0\nsamples = 1\nvalue = [0, 0, 2, 0, 0, 0, 0, 0, 0, 0, 0, 0, 0, 0\n0, 0, 0, 0, 0, 0, 0, 0, 0, 0, 0, 0]\nclass = 3", fillcolor="#e5ce39"] ;
225 -> 226 ;
227 [label="X[82] <= -0.57\ngini = 0.5\nsamples = 2\nvalue = [0, 0, 0, 0, 0, 0, 0, 1, 0, 0, 0, 0, 0, 0\n1, 0, 0, 0, 0, 0, 0, 0, 0, 0, 0, 0]\nclass = 8", fillcolor="#ffffff"] ;
225 -> 227 ;
228 [label="gini = 0.0\nsamples = 1\nvalue = [0, 0, 0, 0, 0, 0, 0, 0, 0, 0, 0, 0, 0, 0\n1, 0, 0, 0, 0, 0, 0, 0, 0, 0, 0, 0]\nclass = 15", fillcolor="#3978e5"] ;
227 -> 228 ;
229 [label="gini = 0.0\nsamples = 1\nvalue = [0, 0, 0, 0, 0, 0, 0, 1, 0, 0, 0, 0, 0, 0\n0, 0, 0, 0, 0, 0, 0, 0, 0, 0, 0, 0]\nclass = 8", fillcolor="#39e53c"] ;
227 -> 229 ;
230 [label="X[98] <= -0.69\ngini = 0.77\nsamples = 11\nvalue = [1, 0, 0, 0, 0, 0, 0, 1, 0, 0, 0, 1, 0, 6\n1, 0, 0, 0, 2, 0, 1, 1, 0, 0, 0, 0]\nclass = 14", fillcolor="#bddef6"] ;
220 -> 230 ;
231 [label="X[32] <= -0.09\ngini = 0.82\nsamples = 6\nvalue = [1, 0, 0, 0, 0, 0, 0, 1, 0, 0, 0, 1, 0, 0\n1, 0, 0, 0, 2, 0, 0, 1, 0, 0, 0, 0]\nclass = 19", fillcolor="#eedefb"] ;
230 -> 231 ;
232 [label="gini = 0.0\nsamples = 1\nvalue = [0, 0, 0, 0, 0, 0, 0, 0, 0, 0, 0, 0, 0, 0\n0, 0, 0, 0, 2, 0, 0, 0, 0, 0, 0, 0]\nclass = 19", fillcolor="#9a39e5"] ;
231 -> 232 ;
233 [label="X[73] <= -0.95\ngini = 0.8\nsamples = 5\nvalue = [1, 0, 0, 0, 0, 0, 0, 1, 0, 0, 0, 1, 0, 0\n1, 0, 0, 0, 0, 0, 0, 1, 0, 0, 0, 0]\nclass = 1", fillcolor="#ffffff"] ;
231 -> 233 ;
234 [label="gini = 0.0\nsamples = 1\nvalue = [0, 0, 0, 0, 0, 0, 0, 0, 0, 0, 0, 0, 0, 0\n1, 0, 0, 0, 0, 0, 0, 0, 0, 0, 0, 0]\nclass = 15", fillcolor="#3978e5"] ;
233 -> 234 ;
235 [label="X[76] <= -0.74\ngini = 0.75\nsamples = 4\nvalue = [1, 0, 0, 0, 0, 0, 0, 1, 0, 0, 0, 1, 0, 0\n0, 0, 0, 0, 0, 0, 0, 1, 0, 0, 0, 0]\nclass = 1", fillcolor="#ffffff"] ;
233 -> 235 ;
236 [label="gini = 0.0\nsamples = 1\nvalue = [0, 0, 0, 0, 0, 0, 0, 1, 0, 0, 0, 0, 0, 0\n0, 0, 0, 0, 0, 0, 0, 0, 0, 0, 0, 0]\nclass = 8", fillcolor="#39e53c"] ;
235 -> 236 ;
237 [label="X[85] <= 0.16\ngini = 0.67\nsamples = 3\nvalue = [1, 0, 0, 0, 0, 0, 0, 0, 0, 0, 0, 1, 0, 0\n0, 0, 0, 0, 0, 0, 0, 1, 0, 0, 0, 0]\nclass = 1", fillcolor="#ffffff"] ;
235 -> 237 ;
238 [label="gini = 0.0\nsamples = 1\nvalue = [0, 0, 0, 0, 0, 0, 0, 0, 0, 0, 0, 0, 0, 0\n0, 0, 0, 0, 0, 0, 0, 1, 0, 0, 0, 0]\nclass = 22", fillcolor="#e539ba"] ;
237 -> 238 ;
239 [label="X[39] <= 0.0\ngini = 0.5\nsamples = 2\nvalue = [1, 0, 0, 0, 0, 0, 0, 0, 0, 0, 0, 1, 0, 0\n0, 0, 0, 0, 0, 0, 0, 0, 0, 0, 0, 0]\nclass = 1", fillcolor="#ffffff"] ;
237 -> 239 ;
240 [label="gini = 0.0\nsamples = 1\nvalue = [1, 0, 0, 0, 0, 0, 0, 0, 0, 0, 0, 0, 0, 0\n0, 0, 0, 0, 0, 0, 0, 0, 0, 0, 0, 0]\nclass = 1", fillcolor="#e58139"] ;
239 -> 240 ;
241 [label="gini = 0.0\nsamples = 1\nvalue = [0, 0, 0, 0, 0, 0, 0, 0, 0, 0, 0, 1, 0, 0\n0, 0, 0, 0, 0, 0, 0, 0, 0, 0, 0, 0]\nclass = 12", fillcolor="#39e5dc"] ;
239 -> 241 ;
242 [label="X[28] <= 0.77\ngini = 0.24\nsamples = 5\nvalue = [0, 0, 0, 0, 0, 0, 0, 0, 0, 0, 0, 0, 0, 6\n0, 0, 0, 0, 0, 0, 1, 0, 0, 0, 0, 0]\nclass = 14", fillcolor="#5aade9"] ;
230 -> 242 ;
243 [label="gini = 0.0\nsamples = 4\nvalue = [0, 0, 0, 0, 0, 0, 0, 0, 0, 0, 0, 0, 0, 6\n0, 0, 0, 0, 0, 0, 0, 0, 0, 0, 0, 0]\nclass = 14", fillcolor="#399de5"] ;
242 -> 243 ;
244 [label="gini = 0.0\nsamples = 1\nvalue = [0, 0, 0, 0, 0, 0, 0, 0, 0, 0, 0, 0, 0, 0\n0, 0, 0, 0, 0, 0, 1, 0, 0, 0, 0, 0]\nclass = 21", fillcolor="#e539e2"] ;
242 -> 244 ;
245 [label="X[52] <= 0.02\ngini = 0.55\nsamples = 71\nvalue = [0, 1, 0, 0, 0, 0, 0, 7, 2, 0, 0, 0, 72, 0\n6, 0, 0, 0, 3, 0, 11, 1, 0, 7, 0, 0]\nclass = 13", fillcolor="#85dbef"] ;
125 -> 245 ;
246 [label="X[49] <= 0.3\ngini = 0.84\nsamples = 28\nvalue = [0, 1, 0, 0, 0, 0, 0, 7, 1, 0, 0, 0, 8, 0\n6, 0, 0, 0, 3, 0, 5, 1, 0, 3, 0, 0]\nclass = 13", fillcolor="#f8fdfe"] ;
245 -> 246 ;
247 [label="X[9] <= -0.49\ngini = 0.74\nsamples = 14\nvalue = [0, 1, 0, 0, 0, 0, 0, 7, 0, 0, 0, 0, 1, 0\n2, 0, 0, 0, 0, 0, 1, 1, 0, 3, 0, 0]\nclass = 8", fillcolor="#c2f7c3"] ;
246 -> 247 ;
248 [label="X[44] <= 0.42\ngini = 0.56\nsamples = 4\nvalue = [0, 1, 0, 0, 0, 0, 0, 0, 0, 0, 0, 0, 0, 0\n0, 0, 0, 0, 0, 0, 1, 0, 0, 3, 0, 0]\nclass = 24", fillcolor="#f29cb4"] ;
247 -> 248 ;
249 [label="X[90] <= -0.23\ngini = 0.5\nsamples = 2\nvalue = [0, 1, 0, 0, 0, 0, 0, 0, 0, 0, 0, 0, 0, 0\n0, 0, 0, 0, 0, 0, 1, 0, 0, 0, 0, 0]\nclass = 2", fillcolor="#ffffff"] ;
248 -> 249 ;
250 [label="gini = 0.0\nsamples = 1\nvalue = [0, 0, 0, 0, 0, 0, 0, 0, 0, 0, 0, 0, 0, 0\n0, 0, 0, 0, 0, 0, 1, 0, 0, 0, 0, 0]\nclass = 21", fillcolor="#e539e2"] ;
249 -> 250 ;
251 [label="gini = 0.0\nsamples = 1\nvalue = [0, 1, 0, 0, 0, 0, 0, 0, 0, 0, 0, 0, 0, 0\n0, 0, 0, 0, 0, 0, 0, 0, 0, 0, 0, 0]\nclass = 2", fillcolor="#e5a639"] ;
249 -> 251 ;
252 [label="gini = 0.0\nsamples = 2\nvalue = [0, 0, 0, 0, 0, 0, 0, 0, 0, 0, 0, 0, 0, 0\n0, 0, 0, 0, 0, 0, 0, 0, 0, 3, 0, 0]\nclass = 24", fillcolor="#e5396a"] ;
248 -> 252 ;
253 [label="X[50] <= 0.0\ngini = 0.55\nsamples = 10\nvalue = [0, 0, 0, 0, 0, 0, 0, 7, 0, 0, 0, 0, 1, 0\n2, 0, 0, 0, 0, 0, 0, 1, 0, 0, 0, 0]\nclass = 8", fillcolor="#91f193"] ;
247 -> 253 ;
254 [label="X[69] <= -0.67\ngini = 0.22\nsamples = 7\nvalue = [0, 0, 0, 0, 0, 0, 0, 7, 0, 0, 0, 0, 0, 0\n0, 0, 0, 0, 0, 0, 0, 1, 0, 0, 0, 0]\nclass = 8", fillcolor="#55e958"] ;
253 -> 254 ;
255 [label="gini = 0.0\nsamples = 6\nvalue = [0, 0, 0, 0, 0, 0, 0, 7, 0, 0, 0, 0, 0, 0\n0, 0, 0, 0, 0, 0, 0, 0, 0, 0, 0, 0]\nclass = 8", fillcolor="#39e53c"] ;
254 -> 255 ;
256 [label="gini = 0.0\nsamples = 1\nvalue = [0, 0, 0, 0, 0, 0, 0, 0, 0, 0, 0, 0, 0, 0\n0, 0, 0, 0, 0, 0, 0, 1, 0, 0, 0, 0]\nclass = 22", fillcolor="#e539ba"] ;
254 -> 256 ;
257 [label="X[18] <= 0.79\ngini = 0.44\nsamples = 3\nvalue = [0, 0, 0, 0, 0, 0, 0, 0, 0, 0, 0, 0, 1, 0\n2, 0, 0, 0, 0, 0, 0, 0, 0, 0, 0, 0]\nclass = 15", fillcolor="#9cbcf2"] ;
253 -> 257 ;
258 [label="gini = 0.0\nsamples = 1\nvalue = [0, 0, 0, 0, 0, 0, 0, 0, 0, 0, 0, 0, 1, 0\n0, 0, 0, 0, 0, 0, 0, 0, 0, 0, 0, 0]\nclass = 13", fillcolor="#39c5e5"] ;
257 -> 258 ;
259 [label="gini = 0.0\nsamples = 2\nvalue = [0, 0, 0, 0, 0, 0, 0, 0, 0, 0, 0, 0, 0, 0\n2, 0, 0, 0, 0, 0, 0, 0, 0, 0, 0, 0]\nclass = 15", fillcolor="#3978e5"] ;
257 -> 259 ;
260 [label="X[50] <= 0.0\ngini = 0.75\nsamples = 14\nvalue = [0, 0, 0, 0, 0, 0, 0, 0, 1, 0, 0, 0, 7, 0\n4, 0, 0, 0, 3, 0, 4, 0, 0, 0, 0, 0]\nclass = 13", fillcolor="#d7f3fa"] ;
246 -> 260 ;
261 [label="X[17] <= 0.31\ngini = 0.54\nsamples = 10\nvalue = [0, 0, 0, 0, 0, 0, 0, 0, 1, 0, 0, 0, 7, 0\n0, 0, 0, 0, 0, 0, 4, 0, 0, 0, 0, 0]\nclass = 13", fillcolor="#b5e9f5"] ;
260 -> 261 ;
262 [label="X[5] <= -0.56\ngini = 0.22\nsamples = 8\nvalue = [0, 0, 0, 0, 0, 0, 0, 0, 1, 0, 0, 0, 7, 0\n0, 0, 0, 0, 0, 0, 0, 0, 0, 0, 0, 0]\nclass = 13", fillcolor="#55cde9"] ;
261 -> 262 ;
263 [label="gini = 0.0\nsamples = 1\nvalue = [0, 0, 0, 0, 0, 0, 0, 0, 1, 0, 0, 0, 0, 0\n0, 0, 0, 0, 0, 0, 0, 0, 0, 0, 0, 0]\nclass = 9", fillcolor="#39e564"] ;
262 -> 263 ;
264 [label="gini = 0.0\nsamples = 7\nvalue = [0, 0, 0, 0, 0, 0, 0, 0, 0, 0, 0, 0, 7, 0\n0, 0, 0, 0, 0, 0, 0, 0, 0, 0, 0, 0]\nclass = 13", fillcolor="#39c5e5"] ;
262 -> 264 ;
265 [label="gini = 0.0\nsamples = 2\nvalue = [0, 0, 0, 0, 0, 0, 0, 0, 0, 0, 0, 0, 0, 0\n0, 0, 0, 0, 0, 0, 4, 0, 0, 0, 0, 0]\nclass = 21", fillcolor="#e539e2"] ;
261 -> 265 ;
266 [label="X[75] <= -0.94\ngini = 0.49\nsamples = 4\nvalue = [0, 0, 0, 0, 0, 0, 0, 0, 0, 0, 0, 0, 0, 0\n4, 0, 0, 0, 3, 0, 0, 0, 0, 0, 0, 0]\nclass = 15", fillcolor="#ceddf8"] ;
260 -> 266 ;
267 [label="gini = 0.0\nsamples = 3\nvalue = [0, 0, 0, 0, 0, 0, 0, 0, 0, 0, 0, 0, 0, 0\n4, 0, 0, 0, 0, 0, 0, 0, 0, 0, 0, 0]\nclass = 15", fillcolor="#3978e5"] ;
266 -> 267 ;
268 [label="gini = 0.0\nsamples = 1\nvalue = [0, 0, 0, 0, 0, 0, 0, 0, 0, 0, 0, 0, 0, 0\n0, 0, 0, 0, 3, 0, 0, 0, 0, 0, 0, 0]\nclass = 19", fillcolor="#9a39e5"] ;
266 -> 268 ;
269 [label="X[36] <= 0.52\ngini = 0.26\nsamples = 43\nvalue = [0, 0, 0, 0, 0, 0, 0, 0, 1, 0, 0, 0, 64, 0\n0, 0, 0, 0, 0, 0, 6, 0, 0, 4, 0, 0]\nclass = 13", fillcolor="#59cee9"] ;
245 -> 269 ;
270 [label="X[70] <= -0.07\ngini = 0.14\nsamples = 40\nvalue = [0, 0, 0, 0, 0, 0, 0, 0, 1, 0, 0, 0, 62, 0\n0, 0, 0, 0, 0, 0, 0, 0, 0, 4, 0, 0]\nclass = 13", fillcolor="#49cae7"] ;
269 -> 270 ;
271 [label="X[14] <= -0.07\ngini = 0.09\nsamples = 39\nvalue = [0, 0, 0, 0, 0, 0, 0, 0, 1, 0, 0, 0, 62, 0\n0, 0, 0, 0, 0, 0, 0, 0, 0, 2, 0, 0]\nclass = 13", fillcolor="#42c8e6"] ;
270 -> 271 ;
272 [label="X[29] <= -0.79\ngini = 0.03\nsamples = 37\nvalue = [0, 0, 0, 0, 0, 0, 0, 0, 1, 0, 0, 0, 61, 0\n0, 0, 0, 0, 0, 0, 0, 0, 0, 0, 0, 0]\nclass = 13", fillcolor="#3cc6e5"] ;
271 -> 272 ;
273 [label="gini = 0.0\nsamples = 1\nvalue = [0, 0, 0, 0, 0, 0, 0, 0, 1, 0, 0, 0, 0, 0\n0, 0, 0, 0, 0, 0, 0, 0, 0, 0, 0, 0]\nclass = 9", fillcolor="#39e564"] ;
272 -> 273 ;
274 [label="gini = 0.0\nsamples = 36\nvalue = [0, 0, 0, 0, 0, 0, 0, 0, 0, 0, 0, 0, 61, 0\n0, 0, 0, 0, 0, 0, 0, 0, 0, 0, 0, 0]\nclass = 13", fillcolor="#39c5e5"] ;
272 -> 274 ;
275 [label="X[74] <= 0.23\ngini = 0.44\nsamples = 2\nvalue = [0, 0, 0, 0, 0, 0, 0, 0, 0, 0, 0, 0, 1, 0\n0, 0, 0, 0, 0, 0, 0, 0, 0, 2, 0, 0]\nclass = 24", fillcolor="#f29cb4"] ;
271 -> 275 ;
276 [label="gini = 0.0\nsamples = 1\nvalue = [0, 0, 0, 0, 0, 0, 0, 0, 0, 0, 0, 0, 0, 0\n0, 0, 0, 0, 0, 0, 0, 0, 0, 2, 0, 0]\nclass = 24", fillcolor="#e5396a"] ;
275 -> 276 ;
277 [label="gini = 0.0\nsamples = 1\nvalue = [0, 0, 0, 0, 0, 0, 0, 0, 0, 0, 0, 0, 1, 0\n0, 0, 0, 0, 0, 0, 0, 0, 0, 0, 0, 0]\nclass = 13", fillcolor="#39c5e5"] ;
275 -> 277 ;
278 [label="gini = 0.0\nsamples = 1\nvalue = [0, 0, 0, 0, 0, 0, 0, 0, 0, 0, 0, 0, 0, 0\n0, 0, 0, 0, 0, 0, 0, 0, 0, 2, 0, 0]\nclass = 24", fillcolor="#e5396a"] ;
270 -> 278 ;
279 [label="X[5] <= -0.11\ngini = 0.38\nsamples = 3\nvalue = [0, 0, 0, 0, 0, 0, 0, 0, 0, 0, 0, 0, 2, 0\n0, 0, 0, 0, 0, 0, 6, 0, 0, 0, 0, 0]\nclass = 21", fillcolor="#ee7bec"] ;
269 -> 279 ;
280 [label="gini = 0.0\nsamples = 1\nvalue = [0, 0, 0, 0, 0, 0, 0, 0, 0, 0, 0, 0, 2, 0\n0, 0, 0, 0, 0, 0, 0, 0, 0, 0, 0, 0]\nclass = 13", fillcolor="#39c5e5"] ;
279 -> 280 ;
281 [label="gini = 0.0\nsamples = 2\nvalue = [0, 0, 0, 0, 0, 0, 0, 0, 0, 0, 0, 0, 0, 0\n0, 0, 0, 0, 0, 0, 6, 0, 0, 0, 0, 0]\nclass = 21", fillcolor="#e539e2"] ;
279 -> 281 ;
282 [label="X[77] <= 0.13\ngini = 0.89\nsamples = 734\nvalue = [104, 15, 55, 0, 9, 20, 3, 135, 3, 0, 0, 185\n54, 19, 122, 69, 0, 2, 6, 0, 136, 192, 0, 28\n10, 0]\nclass = 22", fillcolor="#fffeff"] ;
4 -> 282 ;
283 [label="X[14] <= 0.34\ngini = 0.88\nsamples = 689\nvalue = [104, 15, 54, 0, 3, 6, 3, 134, 3, 0, 0, 185, 54\n17, 122, 25, 0, 2, 6, 0, 136, 190, 0, 27, 10\n0]\nclass = 22", fillcolor="#fffeff"] ;
282 -> 283 ;
284 [label="X[48] <= 0.0\ngini = 0.88\nsamples = 314\nvalue = [40, 14, 50, 0, 0, 1, 0, 116, 3, 0, 0, 26, 48\n6, 39, 1, 0, 0, 4, 0, 62, 63, 0, 20, 8, 0]\nclass = 8", fillcolor="#e7fce7"] ;
283 -> 284 ;
285 [label="X[63] <= 0.22\ngini = 0.85\nsamples = 263\nvalue = [27, 14, 50, 0, 0, 0, 0, 116, 3, 0, 0, 9, 48\n0, 27, 1, 0, 0, 4, 0, 62, 28, 0, 20, 4, 0]\nclass = 8", fillcolor="#e1fbe1"] ;
284 -> 285 ;
286 [label="X[99] <= -0.19\ngini = 0.74\nsamples = 100\nvalue = [24, 9, 8, 0, 0, 0, 0, 78, 3, 0, 0, 2, 4, 0\n1, 0, 0, 0, 1, 0, 11, 20, 0, 4, 4, 0]\nclass = 8", fillcolor="#b5f5b6"] ;
285 -> 286 ;
287 [label="X[42] <= -0.49\ngini = 0.64\nsamples = 77\nvalue = [11, 1, 7, 0, 0, 0, 0, 74, 3, 0, 0, 2, 2, 0\n1, 0, 0, 0, 1, 0, 9, 12, 0, 1, 4, 0]\nclass = 8", fillcolor="#95f197"] ;
286 -> 287 ;
288 [label="X[70] <= -0.37\ngini = 0.74\nsamples = 14\nvalue = [6, 0, 4, 0, 0, 0, 0, 0, 0, 0, 0, 1, 0, 0\n0, 0, 0, 0, 0, 0, 0, 9, 0, 0, 4, 0]\nclass = 22", fillcolor="#fbdef4"] ;
287 -> 288 ;
289 [label="X[63] <= -0.26\ngini = 0.4\nsamples = 7\nvalue = [0, 0, 0, 0, 0, 0, 0, 0, 0, 0, 0, 1, 0, 0\n0, 0, 0, 0, 0, 0, 0, 9, 0, 0, 2, 0]\nclass = 22", fillcolor="#ed74cf"] ;
288 -> 289 ;
290 [label="gini = 0.0\nsamples = 1\nvalue = [0, 0, 0, 0, 0, 0, 0, 0, 0, 0, 0, 0, 0, 0\n0, 0, 0, 0, 0, 0, 0, 0, 0, 0, 2, 0]\nclass = 25", fillcolor="#e53941"] ;
289 -> 290 ;
291 [label="X[16] <= 0.08\ngini = 0.18\nsamples = 6\nvalue = [0, 0, 0, 0, 0, 0, 0, 0, 0, 0, 0, 1, 0, 0\n0, 0, 0, 0, 0, 0, 0, 9, 0, 0, 0, 0]\nclass = 22", fillcolor="#e84fc2"] ;
289 -> 291 ;
292 [label="gini = 0.0\nsamples = 5\nvalue = [0, 0, 0, 0, 0, 0, 0, 0, 0, 0, 0, 0, 0, 0\n0, 0, 0, 0, 0, 0, 0, 9, 0, 0, 0, 0]\nclass = 22", fillcolor="#e539ba"] ;
291 -> 292 ;
293 [label="gini = 0.0\nsamples = 1\nvalue = [0, 0, 0, 0, 0, 0, 0, 0, 0, 0, 0, 1, 0, 0\n0, 0, 0, 0, 0, 0, 0, 0, 0, 0, 0, 0]\nclass = 12", fillcolor="#39e5dc"] ;
291 -> 293 ;
294 [label="X[26] <= 0.25\ngini = 0.61\nsamples = 7\nvalue = [6, 0, 4, 0, 0, 0, 0, 0, 0, 0, 0, 0, 0, 0\n0, 0, 0, 0, 0, 0, 0, 0, 0, 0, 2, 0]\nclass = 1", fillcolor="#f8e0ce"] ;
288 -> 294 ;
295 [label="X[25] <= 0.65\ngini = 0.44\nsamples = 3\nvalue = [0, 0, 4, 0, 0, 0, 0, 0, 0, 0, 0, 0, 0, 0\n0, 0, 0, 0, 0, 0, 0, 0, 0, 0, 2, 0]\nclass = 3", fillcolor="#f2e69c"] ;
294 -> 295 ;
296 [label="gini = 0.0\nsamples = 2\nvalue = [0, 0, 4, 0, 0, 0, 0, 0, 0, 0, 0, 0, 0, 0\n0, 0, 0, 0, 0, 0, 0, 0, 0, 0, 0, 0]\nclass = 3", fillcolor="#e5ce39"] ;
295 -> 296 ;
297 [label="gini = 0.0\nsamples = 1\nvalue = [0, 0, 0, 0, 0, 0, 0, 0, 0, 0, 0, 0, 0, 0\n0, 0, 0, 0, 0, 0, 0, 0, 0, 0, 2, 0]\nclass = 25", fillcolor="#e53941"] ;
295 -> 297 ;
298 [label="gini = 0.0\nsamples = 4\nvalue = [6, 0, 0, 0, 0, 0, 0, 0, 0, 0, 0, 0, 0, 0\n0, 0, 0, 0, 0, 0, 0, 0, 0, 0, 0, 0]\nclass = 1", fillcolor="#e58139"] ;
294 -> 298 ;
299 [label="X[80] <= 0.06\ngini = 0.48\nsamples = 63\nvalue = [5, 1, 3, 0, 0, 0, 0, 74, 3, 0, 0, 1, 2, 0\n1, 0, 0, 0, 1, 0, 9, 3, 0, 1, 0, 0]\nclass = 8", fillcolor="#78ed7a"] ;
287 -> 299 ;
300 [label="X[44] <= 0.84\ngini = 0.77\nsamples = 12\nvalue = [5, 1, 1, 0, 0, 0, 0, 1, 0, 0, 0, 1, 0, 0\n0, 0, 0, 0, 0, 0, 5, 2, 0, 0, 0, 0]\nclass = 1", fillcolor="#ffffff"] ;
299 -> 300 ;
301 [label="X[11] <= 0.46\ngini = 0.68\nsamples = 7\nvalue = [5, 1, 1, 0, 0, 0, 0, 0, 0, 0, 0, 1, 0, 0\n0, 0, 0, 0, 0, 0, 0, 2, 0, 0, 0, 0]\nclass = 1", fillcolor="#f5d0b5"] ;
300 -> 301 ;
302 [label="X[5] <= 0.26\ngini = 0.62\nsamples = 3\nvalue = [0, 1, 1, 0, 0, 0, 0, 0, 0, 0, 0, 0, 0, 0\n0, 0, 0, 0, 0, 0, 0, 2, 0, 0, 0, 0]\nclass = 22", fillcolor="#f6bde8"] ;
301 -> 302 ;
303 [label="gini = 0.0\nsamples = 1\nvalue = [0, 0, 0, 0, 0, 0, 0, 0, 0, 0, 0, 0, 0, 0\n0, 0, 0, 0, 0, 0, 0, 2, 0, 0, 0, 0]\nclass = 22", fillcolor="#e539ba"] ;
302 -> 303 ;
304 [label="X[88] <= 0.1\ngini = 0.5\nsamples = 2\nvalue = [0, 1, 1, 0, 0, 0, 0, 0, 0, 0, 0, 0, 0, 0\n0, 0, 0, 0, 0, 0, 0, 0, 0, 0, 0, 0]\nclass = 2", fillcolor="#ffffff"] ;
302 -> 304 ;
305 [label="gini = 0.0\nsamples = 1\nvalue = [0, 0, 1, 0, 0, 0, 0, 0, 0, 0, 0, 0, 0, 0\n0, 0, 0, 0, 0, 0, 0, 0, 0, 0, 0, 0]\nclass = 3", fillcolor="#e5ce39"] ;
304 -> 305 ;
306 [label="gini = 0.0\nsamples = 1\nvalue = [0, 1, 0, 0, 0, 0, 0, 0, 0, 0, 0, 0, 0, 0\n0, 0, 0, 0, 0, 0, 0, 0, 0, 0, 0, 0]\nclass = 2", fillcolor="#e5a639"] ;
304 -> 306 ;
307 [label="X[24] <= 0.16\ngini = 0.28\nsamples = 4\nvalue = [5, 0, 0, 0, 0, 0, 0, 0, 0, 0, 0, 1, 0, 0\n0, 0, 0, 0, 0, 0, 0, 0, 0, 0, 0, 0]\nclass = 1", fillcolor="#ea9a61"] ;
301 -> 307 ;
308 [label="gini = 0.0\nsamples = 1\nvalue = [0, 0, 0, 0, 0, 0, 0, 0, 0, 0, 0, 1, 0, 0\n0, 0, 0, 0, 0, 0, 0, 0, 0, 0, 0, 0]\nclass = 12", fillcolor="#39e5dc"] ;
307 -> 308 ;
309 [label="gini = 0.0\nsamples = 3\nvalue = [5, 0, 0, 0, 0, 0, 0, 0, 0, 0, 0, 0, 0, 0\n0, 0, 0, 0, 0, 0, 0, 0, 0, 0, 0, 0]\nclass = 1", fillcolor="#e58139"] ;
307 -> 309 ;
310 [label="X[18] <= 0.07\ngini = 0.28\nsamples = 5\nvalue = [0, 0, 0, 0, 0, 0, 0, 1, 0, 0, 0, 0, 0, 0\n0, 0, 0, 0, 0, 0, 5, 0, 0, 0, 0, 0]\nclass = 21", fillcolor="#ea61e8"] ;
300 -> 310 ;
311 [label="gini = 0.0\nsamples = 1\nvalue = [0, 0, 0, 0, 0, 0, 0, 1, 0, 0, 0, 0, 0, 0\n0, 0, 0, 0, 0, 0, 0, 0, 0, 0, 0, 0]\nclass = 8", fillcolor="#39e53c"] ;
310 -> 311 ;
312 [label="gini = 0.0\nsamples = 4\nvalue = [0, 0, 0, 0, 0, 0, 0, 0, 0, 0, 0, 0, 0, 0\n0, 0, 0, 0, 0, 0, 5, 0, 0, 0, 0, 0]\nclass = 21", fillcolor="#e539e2"] ;
310 -> 312 ;
313 [label="X[37] <= -0.47\ngini = 0.31\nsamples = 51\nvalue = [0, 0, 2, 0, 0, 0, 0, 73, 3, 0, 0, 0, 2, 0\n1, 0, 0, 0, 1, 0, 4, 1, 0, 1, 0, 0]\nclass = 8", fillcolor="#5cea5f"] ;
299 -> 313 ;
314 [label="X[31] <= -0.29\ngini = 0.81\nsamples = 11\nvalue = [0, 0, 2, 0, 0, 0, 0, 3, 3, 0, 0, 0, 2, 0\n0, 0, 0, 0, 0, 0, 4, 0, 0, 1, 0, 0]\nclass = 21", fillcolor="#fdeffd"] ;
313 -> 314 ;
315 [label="X[20] <= -0.5\ngini = 0.76\nsamples = 9\nvalue = [0, 0, 2, 0, 0, 0, 0, 3, 0, 0, 0, 0, 2, 0\n0, 0, 0, 0, 0, 0, 4, 0, 0, 1, 0, 0]\nclass = 21", fillcolor="#fce9fc"] ;
314 -> 315 ;
316 [label="gini = 0.0\nsamples = 3\nvalue = [0, 0, 0, 0, 0, 0, 0, 0, 0, 0, 0, 0, 0, 0\n0, 0, 0, 0, 0, 0, 4, 0, 0, 0, 0, 0]\nclass = 21", fillcolor="#e539e2"] ;
315 -> 316 ;
317 [label="X[26] <= 0.09\ngini = 0.72\nsamples = 6\nvalue = [0, 0, 2, 0, 0, 0, 0, 3, 0, 0, 0, 0, 2, 0\n0, 0, 0, 0, 0, 0, 0, 0, 0, 1, 0, 0]\nclass = 8", fillcolor="#defbde"] ;
315 -> 317 ;
318 [label="X[12] <= -0.54\ngini = 0.56\nsamples = 4\nvalue = [0, 0, 1, 0, 0, 0, 0, 3, 0, 0, 0, 0, 0, 0\n0, 0, 0, 0, 0, 0, 0, 0, 0, 1, 0, 0]\nclass = 8", fillcolor="#9cf29e"] ;
317 -> 318 ;
319 [label="X[62] <= 0.31\ngini = 0.5\nsamples = 2\nvalue = [0, 0, 1, 0, 0, 0, 0, 0, 0, 0, 0, 0, 0, 0\n0, 0, 0, 0, 0, 0, 0, 0, 0, 1, 0, 0]\nclass = 3", fillcolor="#ffffff"] ;
318 -> 319 ;
320 [label="gini = 0.0\nsamples = 1\nvalue = [0, 0, 1, 0, 0, 0, 0, 0, 0, 0, 0, 0, 0, 0\n0, 0, 0, 0, 0, 0, 0, 0, 0, 0, 0, 0]\nclass = 3", fillcolor="#e5ce39"] ;
319 -> 320 ;
321 [label="gini = 0.0\nsamples = 1\nvalue = [0, 0, 0, 0, 0, 0, 0, 0, 0, 0, 0, 0, 0, 0\n0, 0, 0, 0, 0, 0, 0, 0, 0, 1, 0, 0]\nclass = 24", fillcolor="#e5396a"] ;
319 -> 321 ;
322 [label="gini = 0.0\nsamples = 2\nvalue = [0, 0, 0, 0, 0, 0, 0, 3, 0, 0, 0, 0, 0, 0\n0, 0, 0, 0, 0, 0, 0, 0, 0, 0, 0, 0]\nclass = 8", fillcolor="#39e53c"] ;
318 -> 322 ;
323 [label="X[88] <= 0.23\ngini = 0.44\nsamples = 2\nvalue = [0, 0, 1, 0, 0, 0, 0, 0, 0, 0, 0, 0, 2, 0\n0, 0, 0, 0, 0, 0, 0, 0, 0, 0, 0, 0]\nclass = 13", fillcolor="#9ce2f2"] ;
317 -> 323 ;
324 [label="gini = 0.0\nsamples = 1\nvalue = [0, 0, 1, 0, 0, 0, 0, 0, 0, 0, 0, 0, 0, 0\n0, 0, 0, 0, 0, 0, 0, 0, 0, 0, 0, 0]\nclass = 3", fillcolor="#e5ce39"] ;
323 -> 324 ;
325 [label="gini = 0.0\nsamples = 1\nvalue = [0, 0, 0, 0, 0, 0, 0, 0, 0, 0, 0, 0, 2, 0\n0, 0, 0, 0, 0, 0, 0, 0, 0, 0, 0, 0]\nclass = 13", fillcolor="#39c5e5"] ;
323 -> 325 ;
326 [label="gini = 0.0\nsamples = 2\nvalue = [0, 0, 0, 0, 0, 0, 0, 0, 3, 0, 0, 0, 0, 0\n0, 0, 0, 0, 0, 0, 0, 0, 0, 0, 0, 0]\nclass = 9", fillcolor="#39e564"] ;
314 -> 326 ;
327 [label="X[33] <= 0.13\ngini = 0.08\nsamples = 40\nvalue = [0, 0, 0, 0, 0, 0, 0, 70, 0, 0, 0, 0, 0, 0\n1, 0, 0, 0, 1, 0, 0, 1, 0, 0, 0, 0]\nclass = 8", fillcolor="#41e644"] ;
313 -> 327 ;
328 [label="gini = 0.0\nsamples = 1\nvalue = [0, 0, 0, 0, 0, 0, 0, 0, 0, 0, 0, 0, 0, 0\n0, 0, 0, 0, 1, 0, 0, 0, 0, 0, 0, 0]\nclass = 19", fillcolor="#9a39e5"] ;
327 -> 328 ;
329 [label="X[52] <= -0.89\ngini = 0.05\nsamples = 39\nvalue = [0, 0, 0, 0, 0, 0, 0, 70, 0, 0, 0, 0, 0, 0\n1, 0, 0, 0, 0, 0, 0, 1, 0, 0, 0, 0]\nclass = 8", fillcolor="#3fe641"] ;
327 -> 329 ;
330 [label="gini = 0.0\nsamples = 1\nvalue = [0, 0, 0, 0, 0, 0, 0, 0, 0, 0, 0, 0, 0, 0\n1, 0, 0, 0, 0, 0, 0, 0, 0, 0, 0, 0]\nclass = 15", fillcolor="#3978e5"] ;
329 -> 330 ;
331 [label="X[92] <= 0.73\ngini = 0.03\nsamples = 38\nvalue = [0, 0, 0, 0, 0, 0, 0, 70, 0, 0, 0, 0, 0, 0\n0, 0, 0, 0, 0, 0, 0, 1, 0, 0, 0, 0]\nclass = 8", fillcolor="#3ce53f"] ;
329 -> 331 ;
332 [label="gini = 0.0\nsamples = 31\nvalue = [0, 0, 0, 0, 0, 0, 0, 57, 0, 0, 0, 0, 0, 0\n0, 0, 0, 0, 0, 0, 0, 0, 0, 0, 0, 0]\nclass = 8", fillcolor="#39e53c"] ;
331 -> 332 ;
333 [label="X[74] <= 0.54\ngini = 0.13\nsamples = 7\nvalue = [0, 0, 0, 0, 0, 0, 0, 13, 0, 0, 0, 0, 0, 0\n0, 0, 0, 0, 0, 0, 0, 1, 0, 0, 0, 0]\nclass = 8", fillcolor="#48e74b"] ;
331 -> 333 ;
334 [label="gini = 0.0\nsamples = 1\nvalue = [0, 0, 0, 0, 0, 0, 0, 0, 0, 0, 0, 0, 0, 0\n0, 0, 0, 0, 0, 0, 0, 1, 0, 0, 0, 0]\nclass = 22", fillcolor="#e539ba"] ;
333 -> 334 ;
335 [label="gini = 0.0\nsamples = 6\nvalue = [0, 0, 0, 0, 0, 0, 0, 13, 0, 0, 0, 0, 0, 0\n0, 0, 0, 0, 0, 0, 0, 0, 0, 0, 0, 0]\nclass = 8", fillcolor="#39e53c"] ;
333 -> 335 ;
336 [label="X[76] <= -0.73\ngini = 0.8\nsamples = 23\nvalue = [13, 8, 1, 0, 0, 0, 0, 4, 0, 0, 0, 0, 2, 0\n0, 0, 0, 0, 0, 0, 2, 8, 0, 3, 0, 0]\nclass = 1", fillcolor="#fbece1"] ;
286 -> 336 ;
337 [label="X[40] <= -0.44\ngini = 0.81\nsamples = 17\nvalue = [2, 8, 1, 0, 0, 0, 0, 4, 0, 0, 0, 0, 2, 0\n0, 0, 0, 0, 0, 0, 2, 7, 0, 2, 0, 0]\nclass = 2", fillcolor="#fefbf6"] ;
336 -> 337 ;
338 [label="X[66] <= -0.13\ngini = 0.68\nsamples = 10\nvalue = [2, 7, 1, 0, 0, 0, 0, 4, 0, 0, 0, 0, 1, 0\n0, 0, 0, 0, 0, 0, 0, 0, 0, 0, 0, 0]\nclass = 2", fillcolor="#f8e7c9"] ;
337 -> 338 ;
339 [label="X[42] <= -0.21\ngini = 0.48\nsamples = 4\nvalue = [2, 0, 0, 0, 0, 0, 0, 3, 0, 0, 0, 0, 0, 0\n0, 0, 0, 0, 0, 0, 0, 0, 0, 0, 0, 0]\nclass = 8", fillcolor="#bdf6be"] ;
338 -> 339 ;
340 [label="gini = 0.0\nsamples = 2\nvalue = [2, 0, 0, 0, 0, 0, 0, 0, 0, 0, 0, 0, 0, 0\n0, 0, 0, 0, 0, 0, 0, 0, 0, 0, 0, 0]\nclass = 1", fillcolor="#e58139"] ;
339 -> 340 ;
341 [label="gini = 0.0\nsamples = 2\nvalue = [0, 0, 0, 0, 0, 0, 0, 3, 0, 0, 0, 0, 0, 0\n0, 0, 0, 0, 0, 0, 0, 0, 0, 0, 0, 0]\nclass = 8", fillcolor="#39e53c"] ;
339 -> 341 ;
342 [label="X[99] <= 0.43\ngini = 0.48\nsamples = 6\nvalue = [0, 7, 1, 0, 0, 0, 0, 1, 0, 0, 0, 0, 1, 0\n0, 0, 0, 0, 0, 0, 0, 0, 0, 0, 0, 0]\nclass = 2", fillcolor="#eec47b"] ;
338 -> 342 ;
343 [label="gini = 0.0\nsamples = 3\nvalue = [0, 7, 0, 0, 0, 0, 0, 0, 0, 0, 0, 0, 0, 0\n0, 0, 0, 0, 0, 0, 0, 0, 0, 0, 0, 0]\nclass = 2", fillcolor="#e5a639"] ;
342 -> 343 ;
344 [label="X[62] <= -0.26\ngini = 0.67\nsamples = 3\nvalue = [0, 0, 1, 0, 0, 0, 0, 1, 0, 0, 0, 0, 1, 0\n0, 0, 0, 0, 0, 0, 0, 0, 0, 0, 0, 0]\nclass = 3", fillcolor="#ffffff"] ;
342 -> 344 ;
345 [label="gini = 0.0\nsamples = 1\nvalue = [0, 0, 0, 0, 0, 0, 0, 1, 0, 0, 0, 0, 0, 0\n0, 0, 0, 0, 0, 0, 0, 0, 0, 0, 0, 0]\nclass = 8", fillcolor="#39e53c"] ;
344 -> 345 ;
346 [label="X[47] <= 0.35\ngini = 0.5\nsamples = 2\nvalue = [0, 0, 1, 0, 0, 0, 0, 0, 0, 0, 0, 0, 1, 0\n0, 0, 0, 0, 0, 0, 0, 0, 0, 0, 0, 0]\nclass = 3", fillcolor="#ffffff"] ;
344 -> 346 ;
347 [label="gini = 0.0\nsamples = 1\nvalue = [0, 0, 0, 0, 0, 0, 0, 0, 0, 0, 0, 0, 1, 0\n0, 0, 0, 0, 0, 0, 0, 0, 0, 0, 0, 0]\nclass = 13", fillcolor="#39c5e5"] ;
346 -> 347 ;
348 [label="gini = 0.0\nsamples = 1\nvalue = [0, 0, 1, 0, 0, 0, 0, 0, 0, 0, 0, 0, 0, 0\n0, 0, 0, 0, 0, 0, 0, 0, 0, 0, 0, 0]\nclass = 3", fillcolor="#e5ce39"] ;
346 -> 348 ;
349 [label="X[66] <= -0.26\ngini = 0.65\nsamples = 7\nvalue = [0, 1, 0, 0, 0, 0, 0, 0, 0, 0, 0, 0, 1, 0\n0, 0, 0, 0, 0, 0, 2, 7, 0, 2, 0, 0]\nclass = 22", fillcolor="#f3a5e0"] ;
337 -> 349 ;
350 [label="X[94] <= -0.11\ngini = 0.35\nsamples = 4\nvalue = [0, 0, 0, 0, 0, 0, 0, 0, 0, 0, 0, 0, 0, 0\n0, 0, 0, 0, 0, 0, 0, 7, 0, 2, 0, 0]\nclass = 22", fillcolor="#ec72ce"] ;
349 -> 350 ;
351 [label="gini = 0.0\nsamples = 3\nvalue = [0, 0, 0, 0, 0, 0, 0, 0, 0, 0, 0, 0, 0, 0\n0, 0, 0, 0, 0, 0, 0, 7, 0, 0, 0, 0]\nclass = 22", fillcolor="#e539ba"] ;
350 -> 351 ;
352 [label="gini = 0.0\nsamples = 1\nvalue = [0, 0, 0, 0, 0, 0, 0, 0, 0, 0, 0, 0, 0, 0\n0, 0, 0, 0, 0, 0, 0, 0, 0, 2, 0, 0]\nclass = 24", fillcolor="#e5396a"] ;
350 -> 352 ;
353 [label="X[4] <= -0.65\ngini = 0.62\nsamples = 3\nvalue = [0, 1, 0, 0, 0, 0, 0, 0, 0, 0, 0, 0, 1, 0\n0, 0, 0, 0, 0, 0, 2, 0, 0, 0, 0, 0]\nclass = 21", fillcolor="#f6bdf5"] ;
349 -> 353 ;
354 [label="X[68] <= 0.04\ngini = 0.5\nsamples = 2\nvalue = [0, 1, 0, 0, 0, 0, 0, 0, 0, 0, 0, 0, 1, 0\n0, 0, 0, 0, 0, 0, 0, 0, 0, 0, 0, 0]\nclass = 2", fillcolor="#ffffff"] ;
353 -> 354 ;
355 [label="gini = 0.0\nsamples = 1\nvalue = [0, 1, 0, 0, 0, 0, 0, 0, 0, 0, 0, 0, 0, 0\n0, 0, 0, 0, 0, 0, 0, 0, 0, 0, 0, 0]\nclass = 2", fillcolor="#e5a639"] ;
354 -> 355 ;
356 [label="gini = 0.0\nsamples = 1\nvalue = [0, 0, 0, 0, 0, 0, 0, 0, 0, 0, 0, 0, 1, 0\n0, 0, 0, 0, 0, 0, 0, 0, 0, 0, 0, 0]\nclass = 13", fillcolor="#39c5e5"] ;
354 -> 356 ;
357 [label="gini = 0.0\nsamples = 1\nvalue = [0, 0, 0, 0, 0, 0, 0, 0, 0, 0, 0, 0, 0, 0\n0, 0, 0, 0, 0, 0, 2, 0, 0, 0, 0, 0]\nclass = 21", fillcolor="#e539e2"] ;
353 -> 357 ;
358 [label="X[24] <= -0.03\ngini = 0.27\nsamples = 6\nvalue = [11, 0, 0, 0, 0, 0, 0, 0, 0, 0, 0, 0, 0, 0\n0, 0, 0, 0, 0, 0, 0, 1, 0, 1, 0, 0]\nclass = 1", fillcolor="#e9965a"] ;
336 -> 358 ;
359 [label="X[40] <= -0.47\ngini = 0.5\nsamples = 2\nvalue = [0, 0, 0, 0, 0, 0, 0, 0, 0, 0, 0, 0, 0, 0\n0, 0, 0, 0, 0, 0, 0, 1, 0, 1, 0, 0]\nclass = 22", fillcolor="#ffffff"] ;
358 -> 359 ;
360 [label="gini = 0.0\nsamples = 1\nvalue = [0, 0, 0, 0, 0, 0, 0, 0, 0, 0, 0, 0, 0, 0\n0, 0, 0, 0, 0, 0, 0, 1, 0, 0, 0, 0]\nclass = 22", fillcolor="#e539ba"] ;
359 -> 360 ;
361 [label="gini = 0.0\nsamples = 1\nvalue = [0, 0, 0, 0, 0, 0, 0, 0, 0, 0, 0, 0, 0, 0\n0, 0, 0, 0, 0, 0, 0, 0, 0, 1, 0, 0]\nclass = 24", fillcolor="#e5396a"] ;
359 -> 361 ;
362 [label="gini = 0.0\nsamples = 4\nvalue = [11, 0, 0, 0, 0, 0, 0, 0, 0, 0, 0, 0, 0, 0\n0, 0, 0, 0, 0, 0, 0, 0, 0, 0, 0, 0]\nclass = 1", fillcolor="#e58139"] ;
358 -> 362 ;
363 [label="X[83] <= 0.31\ngini = 0.85\nsamples = 163\nvalue = [3, 5, 42, 0, 0, 0, 0, 38, 0, 0, 0, 7, 44, 0\n26, 1, 0, 0, 3, 0, 51, 8, 0, 16, 0, 0]\nclass = 21", fillcolor="#fef8fe"] ;
285 -> 363 ;
364 [label="X[32] <= 0.22\ngini = 0.83\nsamples = 127\nvalue = [2, 0, 7, 0, 0, 0, 0, 37, 0, 0, 0, 7, 42, 0\n21, 1, 0, 0, 3, 0, 50, 8, 0, 16, 0, 0]\nclass = 21", fillcolor="#fef5fd"] ;
363 -> 364 ;
365 [label="X[15] <= -0.25\ngini = 0.83\nsamples = 57\nvalue = [1, 0, 6, 0, 0, 0, 0, 8, 0, 0, 0, 7, 10, 0\n7, 0, 0, 0, 0, 0, 28, 8, 0, 14, 0, 0]\nclass = 21", fillcolor="#fadafa"] ;
364 -> 365 ;
366 [label="X[12] <= -0.1\ngini = 0.6\nsamples = 13\nvalue = [0, 0, 0, 0, 0, 0, 0, 0, 0, 0, 0, 0, 4, 0\n0, 0, 0, 0, 0, 0, 0, 5, 0, 11, 0, 0]\nclass = 24", fillcolor="#f5b0c3"] ;
365 -> 366 ;
367 [label="X[37] <= -0.68\ngini = 0.46\nsamples = 10\nvalue = [0, 0, 0, 0, 0, 0, 0, 0, 0, 0, 0, 0, 4, 0\n0, 0, 0, 0, 0, 0, 0, 1, 0, 11, 0, 0]\nclass = 24", fillcolor="#f08ca8"] ;
366 -> 367 ;
368 [label="X[15] <= -0.39\ngini = 0.32\nsamples = 4\nvalue = [0, 0, 0, 0, 0, 0, 0, 0, 0, 0, 0, 0, 4, 0\n0, 0, 0, 0, 0, 0, 0, 1, 0, 0, 0, 0]\nclass = 13", fillcolor="#6ad4ec"] ;
367 -> 368 ;
369 [label="gini = 0.0\nsamples = 1\nvalue = [0, 0, 0, 0, 0, 0, 0, 0, 0, 0, 0, 0, 0, 0\n0, 0, 0, 0, 0, 0, 0, 1, 0, 0, 0, 0]\nclass = 22", fillcolor="#e539ba"] ;
368 -> 369 ;
370 [label="gini = 0.0\nsamples = 3\nvalue = [0, 0, 0, 0, 0, 0, 0, 0, 0, 0, 0, 0, 4, 0\n0, 0, 0, 0, 0, 0, 0, 0, 0, 0, 0, 0]\nclass = 13", fillcolor="#39c5e5"] ;
368 -> 370 ;
371 [label="gini = 0.0\nsamples = 6\nvalue = [0, 0, 0, 0, 0, 0, 0, 0, 0, 0, 0, 0, 0, 0\n0, 0, 0, 0, 0, 0, 0, 0, 0, 11, 0, 0]\nclass = 24", fillcolor="#e5396a"] ;
367 -> 371 ;
372 [label="gini = 0.0\nsamples = 3\nvalue = [0, 0, 0, 0, 0, 0, 0, 0, 0, 0, 0, 0, 0, 0\n0, 0, 0, 0, 0, 0, 0, 4, 0, 0, 0, 0]\nclass = 22", fillcolor="#e539ba"] ;
366 -> 372 ;
373 [label="X[52] <= 0.67\ngini = 0.78\nsamples = 44\nvalue = [1, 0, 6, 0, 0, 0, 0, 8, 0, 0, 0, 7, 6, 0\n7, 0, 0, 0, 0, 0, 28, 3, 0, 3, 0, 0]\nclass = 21", fillcolor="#f6bef5"] ;
365 -> 373 ;
374 [label="X[32] <= -0.06\ngini = 0.87\nsamples = 31\nvalue = [1, 0, 5, 0, 0, 0, 0, 8, 0, 0, 0, 7, 5, 0\n7, 0, 0, 0, 0, 0, 8, 3, 0, 3, 0, 0]\nclass = 8", fillcolor="#ffffff"] ;
373 -> 374 ;
375 [label="X[47] <= 0.34\ngini = 0.46\nsamples = 6\nvalue = [0, 0, 2, 0, 0, 0, 0, 0, 0, 0, 0, 7, 0, 0\n0, 0, 0, 0, 0, 0, 0, 1, 0, 0, 0, 0]\nclass = 12", fillcolor="#83efe9"] ;
374 -> 375 ;
376 [label="gini = 0.0\nsamples = 3\nvalue = [0, 0, 0, 0, 0, 0, 0, 0, 0, 0, 0, 7, 0, 0\n0, 0, 0, 0, 0, 0, 0, 0, 0, 0, 0, 0]\nclass = 12", fillcolor="#39e5dc"] ;
375 -> 376 ;
377 [label="X[51] <= -0.31\ngini = 0.44\nsamples = 3\nvalue = [0, 0, 2, 0, 0, 0, 0, 0, 0, 0, 0, 0, 0, 0\n0, 0, 0, 0, 0, 0, 0, 1, 0, 0, 0, 0]\nclass = 3", fillcolor="#f2e69c"] ;
375 -> 377 ;
378 [label="gini = 0.0\nsamples = 1\nvalue = [0, 0, 0, 0, 0, 0, 0, 0, 0, 0, 0, 0, 0, 0\n0, 0, 0, 0, 0, 0, 0, 1, 0, 0, 0, 0]\nclass = 22", fillcolor="#e539ba"] ;
377 -> 378 ;
379 [label="gini = 0.0\nsamples = 2\nvalue = [0, 0, 2, 0, 0, 0, 0, 0, 0, 0, 0, 0, 0, 0\n0, 0, 0, 0, 0, 0, 0, 0, 0, 0, 0, 0]\nclass = 3", fillcolor="#e5ce39"] ;
377 -> 379 ;
380 [label="X[37] <= -0.13\ngini = 0.84\nsamples = 25\nvalue = [1, 0, 3, 0, 0, 0, 0, 8, 0, 0, 0, 0, 5, 0\n7, 0, 0, 0, 0, 0, 8, 2, 0, 3, 0, 0]\nclass = 8", fillcolor="#ffffff"] ;
374 -> 380 ;
381 [label="X[92] <= 0.76\ngini = 0.81\nsamples = 15\nvalue = [1, 0, 3, 0, 0, 0, 0, 0, 0, 0, 0, 0, 5, 0\n3, 0, 0, 0, 0, 0, 8, 2, 0, 3, 0, 0]\nclass = 21", fillcolor="#fbe1fb"] ;
380 -> 381 ;
382 [label="X[45] <= 0.73\ngini = 0.84\nsamples = 13\nvalue = [1, 0, 3, 0, 0, 0, 0, 0, 0, 0, 0, 0, 5, 0\n3, 0, 0, 0, 0, 0, 3, 2, 0, 3, 0, 0]\nclass = 13", fillcolor="#e8f8fc"] ;
381 -> 382 ;
383 [label="X[44] <= 0.9\ngini = 0.8\nsamples = 12\nvalue = [1, 0, 0, 0, 0, 0, 0, 0, 0, 0, 0, 0, 5, 0\n3, 0, 0, 0, 0, 0, 3, 2, 0, 3, 0, 0]\nclass = 13", fillcolor="#e3f7fb"] ;
382 -> 383 ;
384 [label="X[20] <= 0.03\ngini = 0.78\nsamples = 7\nvalue = [1, 0, 0, 0, 0, 0, 0, 0, 0, 0, 0, 0, 0, 0\n3, 0, 0, 0, 0, 0, 2, 2, 0, 3, 0, 0]\nclass = 15", fillcolor="#ffffff"] ;
383 -> 384 ;
385 [label="X[22] <= -0.3\ngini = 0.61\nsamples = 4\nvalue = [1, 0, 0, 0, 0, 0, 0, 0, 0, 0, 0, 0, 0, 0\n0, 0, 0, 0, 0, 0, 2, 0, 0, 3, 0, 0]\nclass = 24", fillcolor="#f8ceda"] ;
384 -> 385 ;
386 [label="gini = 0.0\nsamples = 2\nvalue = [0, 0, 0, 0, 0, 0, 0, 0, 0, 0, 0, 0, 0, 0\n0, 0, 0, 0, 0, 0, 0, 0, 0, 3, 0, 0]\nclass = 24", fillcolor="#e5396a"] ;
385 -> 386 ;
387 [label="X[72] <= -0.23\ngini = 0.44\nsamples = 2\nvalue = [1, 0, 0, 0, 0, 0, 0, 0, 0, 0, 0, 0, 0, 0\n0, 0, 0, 0, 0, 0, 2, 0, 0, 0, 0, 0]\nclass = 21", fillcolor="#f29cf0"] ;
385 -> 387 ;
388 [label="gini = 0.0\nsamples = 1\nvalue = [0, 0, 0, 0, 0, 0, 0, 0, 0, 0, 0, 0, 0, 0\n0, 0, 0, 0, 0, 0, 2, 0, 0, 0, 0, 0]\nclass = 21", fillcolor="#e539e2"] ;
387 -> 388 ;
389 [label="gini = 0.0\nsamples = 1\nvalue = [1, 0, 0, 0, 0, 0, 0, 0, 0, 0, 0, 0, 0, 0\n0, 0, 0, 0, 0, 0, 0, 0, 0, 0, 0, 0]\nclass = 1", fillcolor="#e58139"] ;
387 -> 389 ;
390 [label="X[81] <= 0.37\ngini = 0.48\nsamples = 3\nvalue = [0, 0, 0, 0, 0, 0, 0, 0, 0, 0, 0, 0, 0, 0\n3, 0, 0, 0, 0, 0, 0, 2, 0, 0, 0, 0]\nclass = 15", fillcolor="#bdd2f6"] ;
384 -> 390 ;
391 [label="gini = 0.0\nsamples = 1\nvalue = [0, 0, 0, 0, 0, 0, 0, 0, 0, 0, 0, 0, 0, 0\n0, 0, 0, 0, 0, 0, 0, 2, 0, 0, 0, 0]\nclass = 22", fillcolor="#e539ba"] ;
390 -> 391 ;
392 [label="gini = 0.0\nsamples = 2\nvalue = [0, 0, 0, 0, 0, 0, 0, 0, 0, 0, 0, 0, 0, 0\n3, 0, 0, 0, 0, 0, 0, 0, 0, 0, 0, 0]\nclass = 15", fillcolor="#3978e5"] ;
390 -> 392 ;
393 [label="X[36] <= -0.26\ngini = 0.28\nsamples = 5\nvalue = [0, 0, 0, 0, 0, 0, 0, 0, 0, 0, 0, 0, 5, 0\n0, 0, 0, 0, 0, 0, 1, 0, 0, 0, 0, 0]\nclass = 13", fillcolor="#61d1ea"] ;
383 -> 393 ;
394 [label="gini = 0.0\nsamples = 1\nvalue = [0, 0, 0, 0, 0, 0, 0, 0, 0, 0, 0, 0, 0, 0\n0, 0, 0, 0, 0, 0, 1, 0, 0, 0, 0, 0]\nclass = 21", fillcolor="#e539e2"] ;
393 -> 394 ;
395 [label="gini = 0.0\nsamples = 4\nvalue = [0, 0, 0, 0, 0, 0, 0, 0, 0, 0, 0, 0, 5, 0\n0, 0, 0, 0, 0, 0, 0, 0, 0, 0, 0, 0]\nclass = 13", fillcolor="#39c5e5"] ;
393 -> 395 ;
396 [label="gini = 0.0\nsamples = 1\nvalue = [0, 0, 3, 0, 0, 0, 0, 0, 0, 0, 0, 0, 0, 0\n0, 0, 0, 0, 0, 0, 0, 0, 0, 0, 0, 0]\nclass = 3", fillcolor="#e5ce39"] ;
382 -> 396 ;
397 [label="gini = 0.0\nsamples = 2\nvalue = [0, 0, 0, 0, 0, 0, 0, 0, 0, 0, 0, 0, 0, 0\n0, 0, 0, 0, 0, 0, 5, 0, 0, 0, 0, 0]\nclass = 21", fillcolor="#e539e2"] ;
381 -> 397 ;
398 [label="X[63] <= 0.44\ngini = 0.44\nsamples = 10\nvalue = [0, 0, 0, 0, 0, 0, 0, 8, 0, 0, 0, 0, 0, 0\n4, 0, 0, 0, 0, 0, 0, 0, 0, 0, 0, 0]\nclass = 8", fillcolor="#9cf29e"] ;
380 -> 398 ;
399 [label="gini = 0.0\nsamples = 7\nvalue = [0, 0, 0, 0, 0, 0, 0, 8, 0, 0, 0, 0, 0, 0\n0, 0, 0, 0, 0, 0, 0, 0, 0, 0, 0, 0]\nclass = 8", fillcolor="#39e53c"] ;
398 -> 399 ;
400 [label="gini = 0.0\nsamples = 3\nvalue = [0, 0, 0, 0, 0, 0, 0, 0, 0, 0, 0, 0, 0, 0\n4, 0, 0, 0, 0, 0, 0, 0, 0, 0, 0, 0]\nclass = 15", fillcolor="#3978e5"] ;
398 -> 400 ;
401 [label="X[41] <= -0.99\ngini = 0.17\nsamples = 13\nvalue = [0, 0, 1, 0, 0, 0, 0, 0, 0, 0, 0, 0, 1, 0\n0, 0, 0, 0, 0, 0, 20, 0, 0, 0, 0, 0]\nclass = 21", fillcolor="#e74ce5"] ;
373 -> 401 ;
402 [label="gini = 0.0\nsamples = 11\nvalue = [0, 0, 0, 0, 0, 0, 0, 0, 0, 0, 0, 0, 0, 0\n0, 0, 0, 0, 0, 0, 20, 0, 0, 0, 0, 0]\nclass = 21", fillcolor="#e539e2"] ;
401 -> 402 ;
403 [label="X[29] <= -0.05\ngini = 0.5\nsamples = 2\nvalue = [0, 0, 1, 0, 0, 0, 0, 0, 0, 0, 0, 0, 1, 0\n0, 0, 0, 0, 0, 0, 0, 0, 0, 0, 0, 0]\nclass = 3", fillcolor="#ffffff"] ;
401 -> 403 ;
404 [label="gini = 0.0\nsamples = 1\nvalue = [0, 0, 0, 0, 0, 0, 0, 0, 0, 0, 0, 0, 1, 0\n0, 0, 0, 0, 0, 0, 0, 0, 0, 0, 0, 0]\nclass = 13", fillcolor="#39c5e5"] ;
403 -> 404 ;
405 [label="gini = 0.0\nsamples = 1\nvalue = [0, 0, 1, 0, 0, 0, 0, 0, 0, 0, 0, 0, 0, 0\n0, 0, 0, 0, 0, 0, 0, 0, 0, 0, 0, 0]\nclass = 3", fillcolor="#e5ce39"] ;
403 -> 405 ;
406 [label="X[10] <= 0.06\ngini = 0.77\nsamples = 70\nvalue = [1, 0, 1, 0, 0, 0, 0, 29, 0, 0, 0, 0, 32, 0\n14, 1, 0, 0, 3, 0, 22, 0, 0, 2, 0, 0]\nclass = 13", fillcolor="#f7fdfe"] ;
364 -> 406 ;
407 [label="X[15] <= 0.17\ngini = 0.7\nsamples = 42\nvalue = [0, 0, 1, 0, 0, 0, 0, 6, 0, 0, 0, 0, 31, 0\n11, 0, 0, 0, 2, 0, 13, 0, 0, 2, 0, 0]\nclass = 13", fillcolor="#bcebf6"] ;
406 -> 407 ;
408 [label="X[66] <= 0.39\ngini = 0.67\nsamples = 39\nvalue = [0, 0, 1, 0, 0, 0, 0, 6, 0, 0, 0, 0, 31, 0\n11, 0, 0, 0, 2, 0, 7, 0, 0, 2, 0, 0]\nclass = 13", fillcolor="#aee7f4"] ;
407 -> 408 ;
409 [label="X[90] <= -0.35\ngini = 0.61\nsamples = 35\nvalue = [0, 0, 1, 0, 0, 0, 0, 6, 0, 0, 0, 0, 31, 0\n4, 0, 0, 0, 1, 0, 7, 0, 0, 2, 0, 0]\nclass = 13", fillcolor="#95e0f1"] ;
408 -> 409 ;
410 [label="X[45] <= 0.59\ngini = 0.2\nsamples = 17\nvalue = [0, 0, 1, 0, 0, 0, 0, 2, 0, 0, 0, 0, 24, 0\n0, 0, 0, 0, 0, 0, 0, 0, 0, 0, 0, 0]\nclass = 13", fillcolor="#51cce8"] ;
409 -> 410 ;
411 [label="X[4] <= -0.77\ngini = 0.08\nsamples = 15\nvalue = [0, 0, 0, 0, 0, 0, 0, 1, 0, 0, 0, 0, 24, 0\n0, 0, 0, 0, 0, 0, 0, 0, 0, 0, 0, 0]\nclass = 13", fillcolor="#41c7e6"] ;
410 -> 411 ;
412 [label="gini = 0.0\nsamples = 12\nvalue = [0, 0, 0, 0, 0, 0, 0, 0, 0, 0, 0, 0, 22, 0\n0, 0, 0, 0, 0, 0, 0, 0, 0, 0, 0, 0]\nclass = 13", fillcolor="#39c5e5"] ;
411 -> 412 ;
413 [label="X[25] <= 0.29\ngini = 0.44\nsamples = 3\nvalue = [0, 0, 0, 0, 0, 0, 0, 1, 0, 0, 0, 0, 2, 0\n0, 0, 0, 0, 0, 0, 0, 0, 0, 0, 0, 0]\nclass = 13", fillcolor="#9ce2f2"] ;
411 -> 413 ;
414 [label="gini = 0.0\nsamples = 1\nvalue = [0, 0, 0, 0, 0, 0, 0, 1, 0, 0, 0, 0, 0, 0\n0, 0, 0, 0, 0, 0, 0, 0, 0, 0, 0, 0]\nclass = 8", fillcolor="#39e53c"] ;
413 -> 414 ;
415 [label="gini = 0.0\nsamples = 2\nvalue = [0, 0, 0, 0, 0, 0, 0, 0, 0, 0, 0, 0, 2, 0\n0, 0, 0, 0, 0, 0, 0, 0, 0, 0, 0, 0]\nclass = 13", fillcolor="#39c5e5"] ;
413 -> 415 ;
416 [label="X[13] <= 0.4\ngini = 0.5\nsamples = 2\nvalue = [0, 0, 1, 0, 0, 0, 0, 1, 0, 0, 0, 0, 0, 0\n0, 0, 0, 0, 0, 0, 0, 0, 0, 0, 0, 0]\nclass = 3", fillcolor="#ffffff"] ;
410 -> 416 ;
417 [label="gini = 0.0\nsamples = 1\nvalue = [0, 0, 0, 0, 0, 0, 0, 1, 0, 0, 0, 0, 0, 0\n0, 0, 0, 0, 0, 0, 0, 0, 0, 0, 0, 0]\nclass = 8", fillcolor="#39e53c"] ;
416 -> 417 ;
418 [label="gini = 0.0\nsamples = 1\nvalue = [0, 0, 1, 0, 0, 0, 0, 0, 0, 0, 0, 0, 0, 0\n0, 0, 0, 0, 0, 0, 0, 0, 0, 0, 0, 0]\nclass = 3", fillcolor="#e5ce39"] ;
416 -> 418 ;
419 [label="X[55] <= 0.54\ngini = 0.78\nsamples = 18\nvalue = [0, 0, 0, 0, 0, 0, 0, 4, 0, 0, 0, 0, 7, 0\n4, 0, 0, 0, 1, 0, 7, 0, 0, 2, 0, 0]\nclass = 13", fillcolor="#ffffff"] ;
409 -> 419 ;
420 [label="gini = 0.0\nsamples = 5\nvalue = [0, 0, 0, 0, 0, 0, 0, 0, 0, 0, 0, 0, 0, 0\n0, 0, 0, 0, 0, 0, 7, 0, 0, 0, 0, 0]\nclass = 21", fillcolor="#e539e2"] ;
419 -> 420 ;
421 [label="X[66] <= 0.23\ngini = 0.73\nsamples = 13\nvalue = [0, 0, 0, 0, 0, 0, 0, 4, 0, 0, 0, 0, 7, 0\n4, 0, 0, 0, 1, 0, 0, 0, 0, 2, 0, 0]\nclass = 13", fillcolor="#d5f3f9"] ;
419 -> 421 ;
422 [label="X[28] <= 0.64\ngini = 0.64\nsamples = 11\nvalue = [0, 0, 0, 0, 0, 0, 0, 0, 0, 0, 0, 0, 7, 0\n4, 0, 0, 0, 1, 0, 0, 0, 0, 2, 0, 0]\nclass = 13", fillcolor="#c4eef7"] ;
421 -> 422 ;
423 [label="X[40] <= -0.34\ngini = 0.32\nsamples = 4\nvalue = [0, 0, 0, 0, 0, 0, 0, 0, 0, 0, 0, 0, 0, 0\n4, 0, 0, 0, 0, 0, 0, 0, 0, 1, 0, 0]\nclass = 15", fillcolor="#6a9aec"] ;
422 -> 423 ;
424 [label="gini = 0.0\nsamples = 3\nvalue = [0, 0, 0, 0, 0, 0, 0, 0, 0, 0, 0, 0, 0, 0\n4, 0, 0, 0, 0, 0, 0, 0, 0, 0, 0, 0]\nclass = 15", fillcolor="#3978e5"] ;
423 -> 424 ;
425 [label="gini = 0.0\nsamples = 1\nvalue = [0, 0, 0, 0, 0, 0, 0, 0, 0, 0, 0, 0, 0, 0\n0, 0, 0, 0, 0, 0, 0, 0, 0, 1, 0, 0]\nclass = 24", fillcolor="#e5396a"] ;
423 -> 425 ;
426 [label="X[62] <= 0.37\ngini = 0.37\nsamples = 7\nvalue = [0, 0, 0, 0, 0, 0, 0, 0, 0, 0, 0, 0, 7, 0\n0, 0, 0, 0, 1, 0, 0, 0, 0, 1, 0, 0]\nclass = 13", fillcolor="#6ad4ec"] ;
422 -> 426 ;
427 [label="gini = 0.0\nsamples = 5\nvalue = [0, 0, 0, 0, 0, 0, 0, 0, 0, 0, 0, 0, 7, 0\n0, 0, 0, 0, 0, 0, 0, 0, 0, 0, 0, 0]\nclass = 13", fillcolor="#39c5e5"] ;
426 -> 427 ;
428 [label="X[44] <= 0.88\ngini = 0.5\nsamples = 2\nvalue = [0, 0, 0, 0, 0, 0, 0, 0, 0, 0, 0, 0, 0, 0\n0, 0, 0, 0, 1, 0, 0, 0, 0, 1, 0, 0]\nclass = 19", fillcolor="#ffffff"] ;
426 -> 428 ;
429 [label="gini = 0.0\nsamples = 1\nvalue = [0, 0, 0, 0, 0, 0, 0, 0, 0, 0, 0, 0, 0, 0\n0, 0, 0, 0, 0, 0, 0, 0, 0, 1, 0, 0]\nclass = 24", fillcolor="#e5396a"] ;
428 -> 429 ;
430 [label="gini = 0.0\nsamples = 1\nvalue = [0, 0, 0, 0, 0, 0, 0, 0, 0, 0, 0, 0, 0, 0\n0, 0, 0, 0, 1, 0, 0, 0, 0, 0, 0, 0]\nclass = 19", fillcolor="#9a39e5"] ;
428 -> 430 ;
431 [label="gini = 0.0\nsamples = 2\nvalue = [0, 0, 0, 0, 0, 0, 0, 4, 0, 0, 0, 0, 0, 0\n0, 0, 0, 0, 0, 0, 0, 0, 0, 0, 0, 0]\nclass = 8", fillcolor="#39e53c"] ;
421 -> 431 ;
432 [label="X[89] <= -0.95\ngini = 0.22\nsamples = 4\nvalue = [0, 0, 0, 0, 0, 0, 0, 0, 0, 0, 0, 0, 0, 0\n7, 0, 0, 0, 1, 0, 0, 0, 0, 0, 0, 0]\nclass = 15", fillcolor="#558be9"] ;
408 -> 432 ;
433 [label="gini = 0.0\nsamples = 3\nvalue = [0, 0, 0, 0, 0, 0, 0, 0, 0, 0, 0, 0, 0, 0\n7, 0, 0, 0, 0, 0, 0, 0, 0, 0, 0, 0]\nclass = 15", fillcolor="#3978e5"] ;
432 -> 433 ;
434 [label="gini = 0.0\nsamples = 1\nvalue = [0, 0, 0, 0, 0, 0, 0, 0, 0, 0, 0, 0, 0, 0\n0, 0, 0, 0, 1, 0, 0, 0, 0, 0, 0, 0]\nclass = 19", fillcolor="#9a39e5"] ;
432 -> 434 ;
435 [label="gini = 0.0\nsamples = 3\nvalue = [0, 0, 0, 0, 0, 0, 0, 0, 0, 0, 0, 0, 0, 0\n0, 0, 0, 0, 0, 0, 6, 0, 0, 0, 0, 0]\nclass = 21", fillcolor="#e539e2"] ;
407 -> 435 ;
436 [label="X[8] <= -0.23\ngini = 0.59\nsamples = 28\nvalue = [1, 0, 0, 0, 0, 0, 0, 23, 0, 0, 0, 0, 1, 0\n3, 1, 0, 0, 1, 0, 9, 0, 0, 0, 0, 0]\nclass = 8", fillcolor="#a3f3a4"] ;
406 -> 436 ;
437 [label="X[77] <= -0.71\ngini = 0.37\nsamples = 7\nvalue = [0, 0, 0, 0, 0, 0, 0, 0, 0, 0, 0, 0, 0, 0\n1, 0, 0, 0, 1, 0, 7, 0, 0, 0, 0, 0]\nclass = 21", fillcolor="#ec6ae9"] ;
436 -> 437 ;
438 [label="X[49] <= 0.67\ngini = 0.5\nsamples = 2\nvalue = [0, 0, 0, 0, 0, 0, 0, 0, 0, 0, 0, 0, 0, 0\n1, 0, 0, 0, 1, 0, 0, 0, 0, 0, 0, 0]\nclass = 15", fillcolor="#ffffff"] ;
437 -> 438 ;
439 [label="gini = 0.0\nsamples = 1\nvalue = [0, 0, 0, 0, 0, 0, 0, 0, 0, 0, 0, 0, 0, 0\n0, 0, 0, 0, 1, 0, 0, 0, 0, 0, 0, 0]\nclass = 19", fillcolor="#9a39e5"] ;
438 -> 439 ;
440 [label="gini = 0.0\nsamples = 1\nvalue = [0, 0, 0, 0, 0, 0, 0, 0, 0, 0, 0, 0, 0, 0\n1, 0, 0, 0, 0, 0, 0, 0, 0, 0, 0, 0]\nclass = 15", fillcolor="#3978e5"] ;
438 -> 440 ;
441 [label="gini = 0.0\nsamples = 5\nvalue = [0, 0, 0, 0, 0, 0, 0, 0, 0, 0, 0, 0, 0, 0\n0, 0, 0, 0, 0, 0, 7, 0, 0, 0, 0, 0]\nclass = 21", fillcolor="#e539e2"] ;
437 -> 441 ;
442 [label="X[52] <= -0.73\ngini = 0.4\nsamples = 21\nvalue = [1, 0, 0, 0, 0, 0, 0, 23, 0, 0, 0, 0, 1, 0\n2, 1, 0, 0, 0, 0, 2, 0, 0, 0, 0, 0]\nclass = 8", fillcolor="#6aec6d"] ;
436 -> 442 ;
443 [label="gini = 0.0\nsamples = 1\nvalue = [0, 0, 0, 0, 0, 0, 0, 0, 0, 0, 0, 0, 0, 0\n2, 0, 0, 0, 0, 0, 0, 0, 0, 0, 0, 0]\nclass = 15", fillcolor="#3978e5"] ;
442 -> 443 ;
444 [label="X[15] <= 0.32\ngini = 0.32\nsamples = 20\nvalue = [1, 0, 0, 0, 0, 0, 0, 23, 0, 0, 0, 0, 1, 0\n0, 1, 0, 0, 0, 0, 2, 0, 0, 0, 0, 0]\nclass = 8", fillcolor="#5fea62"] ;
442 -> 444 ;
445 [label="X[70] <= -0.18\ngini = 0.16\nsamples = 16\nvalue = [1, 0, 0, 0, 0, 0, 0, 22, 0, 0, 0, 0, 0, 0\n0, 1, 0, 0, 0, 0, 0, 0, 0, 0, 0, 0]\nclass = 8", fillcolor="#4ae74d"] ;
444 -> 445 ;
446 [label="X[3] <= -0.62\ngini = 0.08\nsamples = 15\nvalue = [0, 0, 0, 0, 0, 0, 0, 22, 0, 0, 0, 0, 0, 0\n0, 1, 0, 0, 0, 0, 0, 0, 0, 0, 0, 0]\nclass = 8", fillcolor="#42e645"] ;
445 -> 446 ;
447 [label="gini = 0.0\nsamples = 1\nvalue = [0, 0, 0, 0, 0, 0, 0, 0, 0, 0, 0, 0, 0, 0\n0, 1, 0, 0, 0, 0, 0, 0, 0, 0, 0, 0]\nclass = 16", fillcolor="#3950e5"] ;
446 -> 447 ;
448 [label="gini = 0.0\nsamples = 14\nvalue = [0, 0, 0, 0, 0, 0, 0, 22, 0, 0, 0, 0, 0, 0\n0, 0, 0, 0, 0, 0, 0, 0, 0, 0, 0, 0]\nclass = 8", fillcolor="#39e53c"] ;
446 -> 448 ;
449 [label="gini = 0.0\nsamples = 1\nvalue = [1, 0, 0, 0, 0, 0, 0, 0, 0, 0, 0, 0, 0, 0\n0, 0, 0, 0, 0, 0, 0, 0, 0, 0, 0, 0]\nclass = 1", fillcolor="#e58139"] ;
445 -> 449 ;
450 [label="X[71] <= 0.25\ngini = 0.62\nsamples = 4\nvalue = [0, 0, 0, 0, 0, 0, 0, 1, 0, 0, 0, 0, 1, 0\n0, 0, 0, 0, 0, 0, 2, 0, 0, 0, 0, 0]\nclass = 21", fillcolor="#f6bdf5"] ;
444 -> 450 ;
451 [label="gini = 0.0\nsamples = 2\nvalue = [0, 0, 0, 0, 0, 0, 0, 0, 0, 0, 0, 0, 0, 0\n0, 0, 0, 0, 0, 0, 2, 0, 0, 0, 0, 0]\nclass = 21", fillcolor="#e539e2"] ;
450 -> 451 ;
452 [label="X[59] <= -0.44\ngini = 0.5\nsamples = 2\nvalue = [0, 0, 0, 0, 0, 0, 0, 1, 0, 0, 0, 0, 1, 0\n0, 0, 0, 0, 0, 0, 0, 0, 0, 0, 0, 0]\nclass = 8", fillcolor="#ffffff"] ;
450 -> 452 ;
453 [label="gini = 0.0\nsamples = 1\nvalue = [0, 0, 0, 0, 0, 0, 0, 0, 0, 0, 0, 0, 1, 0\n0, 0, 0, 0, 0, 0, 0, 0, 0, 0, 0, 0]\nclass = 13", fillcolor="#39c5e5"] ;
452 -> 453 ;
454 [label="gini = 0.0\nsamples = 1\nvalue = [0, 0, 0, 0, 0, 0, 0, 1, 0, 0, 0, 0, 0, 0\n0, 0, 0, 0, 0, 0, 0, 0, 0, 0, 0, 0]\nclass = 8", fillcolor="#39e53c"] ;
452 -> 454 ;
455 [label="X[37] <= -0.13\ngini = 0.49\nsamples = 36\nvalue = [1, 5, 35, 0, 0, 0, 0, 1, 0, 0, 0, 0, 2, 0\n5, 0, 0, 0, 0, 0, 1, 0, 0, 0, 0, 0]\nclass = 3", fillcolor="#eede7b"] ;
363 -> 455 ;
456 [label="X[20] <= -0.3\ngini = 0.38\nsamples = 33\nvalue = [1, 5, 35, 0, 0, 0, 0, 0, 0, 0, 0, 0, 2, 0\n1, 0, 0, 0, 0, 0, 1, 0, 0, 0, 0, 0]\nclass = 3", fillcolor="#ecda6a"] ;
455 -> 456 ;
457 [label="gini = 0.0\nsamples = 3\nvalue = [0, 3, 0, 0, 0, 0, 0, 0, 0, 0, 0, 0, 0, 0\n0, 0, 0, 0, 0, 0, 0, 0, 0, 0, 0, 0]\nclass = 2", fillcolor="#e5a639"] ;
456 -> 457 ;
458 [label="X[17] <= 0.08\ngini = 0.3\nsamples = 30\nvalue = [1, 2, 35, 0, 0, 0, 0, 0, 0, 0, 0, 0, 2, 0\n1, 0, 0, 0, 0, 0, 1, 0, 0, 0, 0, 0]\nclass = 3", fillcolor="#ead75c"] ;
456 -> 458 ;
459 [label="X[20] <= 0.51\ngini = 0.15\nsamples = 26\nvalue = [1, 2, 35, 0, 0, 0, 0, 0, 0, 0, 0, 0, 0, 0\n0, 0, 0, 0, 0, 0, 0, 0, 0, 0, 0, 0]\nclass = 3", fillcolor="#e7d24a"] ;
458 -> 459 ;
460 [label="X[52] <= -0.77\ngini = 0.1\nsamples = 25\nvalue = [0, 2, 35, 0, 0, 0, 0, 0, 0, 0, 0, 0, 0, 0\n0, 0, 0, 0, 0, 0, 0, 0, 0, 0, 0, 0]\nclass = 3", fillcolor="#e6d144"] ;
459 -> 460 ;
461 [label="gini = 0.0\nsamples = 1\nvalue = [0, 1, 0, 0, 0, 0, 0, 0, 0, 0, 0, 0, 0, 0\n0, 0, 0, 0, 0, 0, 0, 0, 0, 0, 0, 0]\nclass = 2", fillcolor="#e5a639"] ;
460 -> 461 ;
462 [label="X[42] <= -0.34\ngini = 0.05\nsamples = 24\nvalue = [0, 1, 35, 0, 0, 0, 0, 0, 0, 0, 0, 0, 0, 0\n0, 0, 0, 0, 0, 0, 0, 0, 0, 0, 0, 0]\nclass = 3", fillcolor="#e6cf3f"] ;
460 -> 462 ;
463 [label="X[49] <= 0.25\ngini = 0.32\nsamples = 4\nvalue = [0, 1, 4, 0, 0, 0, 0, 0, 0, 0, 0, 0, 0, 0\n0, 0, 0, 0, 0, 0, 0, 0, 0, 0, 0, 0]\nclass = 3", fillcolor="#ecda6a"] ;
462 -> 463 ;
464 [label="gini = 0.0\nsamples = 1\nvalue = [0, 1, 0, 0, 0, 0, 0, 0, 0, 0, 0, 0, 0, 0\n0, 0, 0, 0, 0, 0, 0, 0, 0, 0, 0, 0]\nclass = 2", fillcolor="#e5a639"] ;
463 -> 464 ;
465 [label="gini = 0.0\nsamples = 3\nvalue = [0, 0, 4, 0, 0, 0, 0, 0, 0, 0, 0, 0, 0, 0\n0, 0, 0, 0, 0, 0, 0, 0, 0, 0, 0, 0]\nclass = 3", fillcolor="#e5ce39"] ;
463 -> 465 ;
466 [label="gini = 0.0\nsamples = 20\nvalue = [0, 0, 31, 0, 0, 0, 0, 0, 0, 0, 0, 0, 0, 0\n0, 0, 0, 0, 0, 0, 0, 0, 0, 0, 0, 0]\nclass = 3", fillcolor="#e5ce39"] ;
462 -> 466 ;
467 [label="gini = 0.0\nsamples = 1\nvalue = [1, 0, 0, 0, 0, 0, 0, 0, 0, 0, 0, 0, 0, 0\n0, 0, 0, 0, 0, 0, 0, 0, 0, 0, 0, 0]\nclass = 1", fillcolor="#e58139"] ;
459 -> 467 ;
468 [label="X[63] <= 0.47\ngini = 0.62\nsamples = 4\nvalue = [0, 0, 0, 0, 0, 0, 0, 0, 0, 0, 0, 0, 2, 0\n1, 0, 0, 0, 0, 0, 1, 0, 0, 0, 0, 0]\nclass = 13", fillcolor="#bdecf6"] ;
458 -> 468 ;
469 [label="gini = 0.0\nsamples = 2\nvalue = [0, 0, 0, 0, 0, 0, 0, 0, 0, 0, 0, 0, 2, 0\n0, 0, 0, 0, 0, 0, 0, 0, 0, 0, 0, 0]\nclass = 13", fillcolor="#39c5e5"] ;
468 -> 469 ;
470 [label="X[85] <= 0.51\ngini = 0.5\nsamples = 2\nvalue = [0, 0, 0, 0, 0, 0, 0, 0, 0, 0, 0, 0, 0, 0\n1, 0, 0, 0, 0, 0, 1, 0, 0, 0, 0, 0]\nclass = 15", fillcolor="#ffffff"] ;
468 -> 470 ;
471 [label="gini = 0.0\nsamples = 1\nvalue = [0, 0, 0, 0, 0, 0, 0, 0, 0, 0, 0, 0, 0, 0\n0, 0, 0, 0, 0, 0, 1, 0, 0, 0, 0, 0]\nclass = 21", fillcolor="#e539e2"] ;
470 -> 471 ;
472 [label="gini = 0.0\nsamples = 1\nvalue = [0, 0, 0, 0, 0, 0, 0, 0, 0, 0, 0, 0, 0, 0\n1, 0, 0, 0, 0, 0, 0, 0, 0, 0, 0, 0]\nclass = 15", fillcolor="#3978e5"] ;
470 -> 472 ;
473 [label="X[1] <= -0.48\ngini = 0.32\nsamples = 3\nvalue = [0, 0, 0, 0, 0, 0, 0, 1, 0, 0, 0, 0, 0, 0\n4, 0, 0, 0, 0, 0, 0, 0, 0, 0, 0, 0]\nclass = 15", fillcolor="#6a9aec"] ;
455 -> 473 ;
474 [label="gini = 0.0\nsamples = 2\nvalue = [0, 0, 0, 0, 0, 0, 0, 0, 0, 0, 0, 0, 0, 0\n4, 0, 0, 0, 0, 0, 0, 0, 0, 0, 0, 0]\nclass = 15", fillcolor="#3978e5"] ;
473 -> 474 ;
475 [label="gini = 0.0\nsamples = 1\nvalue = [0, 0, 0, 0, 0, 0, 0, 1, 0, 0, 0, 0, 0, 0\n0, 0, 0, 0, 0, 0, 0, 0, 0, 0, 0, 0]\nclass = 8", fillcolor="#39e53c"] ;
473 -> 475 ;
476 [label="X[68] <= 0.09\ngini = 0.76\nsamples = 51\nvalue = [13, 0, 0, 0, 0, 1, 0, 0, 0, 0, 0, 17, 0, 6\n12, 0, 0, 0, 0, 0, 0, 35, 0, 0, 4, 0]\nclass = 22", fillcolor="#f8cdee"] ;
284 -> 476 ;
477 [label="X[83] <= 0.31\ngini = 0.64\nsamples = 18\nvalue = [9, 0, 0, 0, 0, 0, 0, 0, 0, 0, 0, 15, 0, 1\n1, 0, 0, 0, 0, 0, 0, 4, 0, 0, 0, 0]\nclass = 12", fillcolor="#c6f8f5"] ;
476 -> 477 ;
478 [label="X[33] <= 0.84\ngini = 0.45\nsamples = 13\nvalue = [0, 0, 0, 0, 0, 0, 0, 0, 0, 0, 0, 15, 0, 1\n1, 0, 0, 0, 0, 0, 0, 4, 0, 0, 0, 0]\nclass = 12", fillcolor="#7feee8"] ;
477 -> 478 ;
479 [label="X[18] <= 0.98\ngini = 0.21\nsamples = 9\nvalue = [0, 0, 0, 0, 0, 0, 0, 0, 0, 0, 0, 15, 0, 0\n0, 0, 0, 0, 0, 0, 0, 2, 0, 0, 0, 0]\nclass = 12", fillcolor="#53e8e1"] ;
478 -> 479 ;
480 [label="gini = 0.0\nsamples = 8\nvalue = [0, 0, 0, 0, 0, 0, 0, 0, 0, 0, 0, 15, 0, 0\n0, 0, 0, 0, 0, 0, 0, 0, 0, 0, 0, 0]\nclass = 12", fillcolor="#39e5dc"] ;
479 -> 480 ;
481 [label="gini = 0.0\nsamples = 1\nvalue = [0, 0, 0, 0, 0, 0, 0, 0, 0, 0, 0, 0, 0, 0\n0, 0, 0, 0, 0, 0, 0, 2, 0, 0, 0, 0]\nclass = 22", fillcolor="#e539ba"] ;
479 -> 481 ;
482 [label="X[27] <= 0.37\ngini = 0.62\nsamples = 4\nvalue = [0, 0, 0, 0, 0, 0, 0, 0, 0, 0, 0, 0, 0, 1\n1, 0, 0, 0, 0, 0, 0, 2, 0, 0, 0, 0]\nclass = 22", fillcolor="#f6bde8"] ;
478 -> 482 ;
483 [label="X[51] <= -0.29\ngini = 0.5\nsamples = 2\nvalue = [0, 0, 0, 0, 0, 0, 0, 0, 0, 0, 0, 0, 0, 1\n1, 0, 0, 0, 0, 0, 0, 0, 0, 0, 0, 0]\nclass = 14", fillcolor="#ffffff"] ;
482 -> 483 ;
484 [label="gini = 0.0\nsamples = 1\nvalue = [0, 0, 0, 0, 0, 0, 0, 0, 0, 0, 0, 0, 0, 1\n0, 0, 0, 0, 0, 0, 0, 0, 0, 0, 0, 0]\nclass = 14", fillcolor="#399de5"] ;
483 -> 484 ;
485 [label="gini = 0.0\nsamples = 1\nvalue = [0, 0, 0, 0, 0, 0, 0, 0, 0, 0, 0, 0, 0, 0\n1, 0, 0, 0, 0, 0, 0, 0, 0, 0, 0, 0]\nclass = 15", fillcolor="#3978e5"] ;
483 -> 485 ;
486 [label="gini = 0.0\nsamples = 2\nvalue = [0, 0, 0, 0, 0, 0, 0, 0, 0, 0, 0, 0, 0, 0\n0, 0, 0, 0, 0, 0, 0, 2, 0, 0, 0, 0]\nclass = 22", fillcolor="#e539ba"] ;
482 -> 486 ;
487 [label="gini = 0.0\nsamples = 5\nvalue = [9, 0, 0, 0, 0, 0, 0, 0, 0, 0, 0, 0, 0, 0\n0, 0, 0, 0, 0, 0, 0, 0, 0, 0, 0, 0]\nclass = 1", fillcolor="#e58139"] ;
477 -> 487 ;
488 [label="X[92] <= 0.33\ngini = 0.66\nsamples = 33\nvalue = [4, 0, 0, 0, 0, 1, 0, 0, 0, 0, 0, 2, 0, 5\n11, 0, 0, 0, 0, 0, 0, 31, 0, 0, 4, 0]\nclass = 22", fillcolor="#f4abe2"] ;
476 -> 488 ;
489 [label="X[72] <= -0.47\ngini = 0.8\nsamples = 11\nvalue = [4, 0, 0, 0, 0, 1, 0, 0, 0, 0, 0, 1, 0, 4\n6, 0, 0, 0, 0, 0, 0, 1, 0, 0, 4, 0]\nclass = 15", fillcolor="#e8effc"] ;
488 -> 489 ;
490 [label="X[33] <= 0.07\ngini = 0.24\nsamples = 3\nvalue = [0, 0, 0, 0, 0, 0, 0, 0, 0, 0, 0, 1, 0, 0\n6, 0, 0, 0, 0, 0, 0, 0, 0, 0, 0, 0]\nclass = 15", fillcolor="#5a8fe9"] ;
489 -> 490 ;
491 [label="gini = 0.0\nsamples = 1\nvalue = [0, 0, 0, 0, 0, 0, 0, 0, 0, 0, 0, 1, 0, 0\n0, 0, 0, 0, 0, 0, 0, 0, 0, 0, 0, 0]\nclass = 12", fillcolor="#39e5dc"] ;
490 -> 491 ;
492 [label="gini = 0.0\nsamples = 2\nvalue = [0, 0, 0, 0, 0, 0, 0, 0, 0, 0, 0, 0, 0, 0\n6, 0, 0, 0, 0, 0, 0, 0, 0, 0, 0, 0]\nclass = 15", fillcolor="#3978e5"] ;
490 -> 492 ;
493 [label="X[3] <= -0.46\ngini = 0.74\nsamples = 8\nvalue = [4, 0, 0, 0, 0, 1, 0, 0, 0, 0, 0, 0, 0, 4\n0, 0, 0, 0, 0, 0, 0, 1, 0, 0, 4, 0]\nclass = 1", fillcolor="#ffffff"] ;
489 -> 493 ;
494 [label="gini = 0.0\nsamples = 2\nvalue = [0, 0, 0, 0, 0, 0, 0, 0, 0, 0, 0, 0, 0, 4\n0, 0, 0, 0, 0, 0, 0, 0, 0, 0, 0, 0]\nclass = 14", fillcolor="#399de5"] ;
493 -> 494 ;
495 [label="X[64] <= -0.16\ngini = 0.66\nsamples = 6\nvalue = [4, 0, 0, 0, 0, 1, 0, 0, 0, 0, 0, 0, 0, 0\n0, 0, 0, 0, 0, 0, 0, 1, 0, 0, 4, 0]\nclass = 1", fillcolor="#ffffff"] ;
493 -> 495 ;
496 [label="X[45] <= 0.39\ngini = 0.5\nsamples = 5\nvalue = [4, 0, 0, 0, 0, 1, 0, 0, 0, 0, 0, 0, 0, 0\n0, 0, 0, 0, 0, 0, 0, 1, 0, 0, 0, 0]\nclass = 1", fillcolor="#efb388"] ;
495 -> 496 ;
497 [label="gini = 0.0\nsamples = 3\nvalue = [4, 0, 0, 0, 0, 0, 0, 0, 0, 0, 0, 0, 0, 0\n0, 0, 0, 0, 0, 0, 0, 0, 0, 0, 0, 0]\nclass = 1", fillcolor="#e58139"] ;
496 -> 497 ;
498 [label="X[45] <= 0.57\ngini = 0.5\nsamples = 2\nvalue = [0, 0, 0, 0, 0, 1, 0, 0, 0, 0, 0, 0, 0, 0\n0, 0, 0, 0, 0, 0, 0, 1, 0, 0, 0, 0]\nclass = 6", fillcolor="#ffffff"] ;
496 -> 498 ;
499 [label="gini = 0.0\nsamples = 1\nvalue = [0, 0, 0, 0, 0, 0, 0, 0, 0, 0, 0, 0, 0, 0\n0, 0, 0, 0, 0, 0, 0, 1, 0, 0, 0, 0]\nclass = 22", fillcolor="#e539ba"] ;
498 -> 499 ;
500 [label="gini = 0.0\nsamples = 1\nvalue = [0, 0, 0, 0, 0, 1, 0, 0, 0, 0, 0, 0, 0, 0\n0, 0, 0, 0, 0, 0, 0, 0, 0, 0, 0, 0]\nclass = 6", fillcolor="#83e539"] ;
498 -> 500 ;
501 [label="gini = 0.0\nsamples = 1\nvalue = [0, 0, 0, 0, 0, 0, 0, 0, 0, 0, 0, 0, 0, 0\n0, 0, 0, 0, 0, 0, 0, 0, 0, 0, 4, 0]\nclass = 25", fillcolor="#e53941"] ;
495 -> 501 ;
502 [label="X[43] <= 0.16\ngini = 0.32\nsamples = 22\nvalue = [0, 0, 0, 0, 0, 0, 0, 0, 0, 0, 0, 1, 0, 1\n5, 0, 0, 0, 0, 0, 0, 30, 0, 0, 0, 0]\nclass = 22", fillcolor="#eb64c9"] ;
488 -> 502 ;
503 [label="X[26] <= 0.3\ngini = 0.56\nsamples = 10\nvalue = [0, 0, 0, 0, 0, 0, 0, 0, 0, 0, 0, 1, 0, 1\n5, 0, 0, 0, 0, 0, 0, 10, 0, 0, 0, 0]\nclass = 22", fillcolor="#f4ace2"] ;
502 -> 503 ;
504 [label="X[23] <= 0.24\ngini = 0.38\nsamples = 7\nvalue = [0, 0, 0, 0, 0, 0, 0, 0, 0, 0, 0, 1, 0, 0\n2, 0, 0, 0, 0, 0, 0, 10, 0, 0, 0, 0]\nclass = 22", fillcolor="#ec6fcd"] ;
503 -> 504 ;
505 [label="gini = 0.0\nsamples = 1\nvalue = [0, 0, 0, 0, 0, 0, 0, 0, 0, 0, 0, 0, 0, 0\n2, 0, 0, 0, 0, 0, 0, 0, 0, 0, 0, 0]\nclass = 15", fillcolor="#3978e5"] ;
504 -> 505 ;
506 [label="X[23] <= 0.88\ngini = 0.17\nsamples = 6\nvalue = [0, 0, 0, 0, 0, 0, 0, 0, 0, 0, 0, 1, 0, 0\n0, 0, 0, 0, 0, 0, 0, 10, 0, 0, 0, 0]\nclass = 22", fillcolor="#e84dc1"] ;
504 -> 506 ;
507 [label="gini = 0.0\nsamples = 5\nvalue = [0, 0, 0, 0, 0, 0, 0, 0, 0, 0, 0, 0, 0, 0\n0, 0, 0, 0, 0, 0, 0, 10, 0, 0, 0, 0]\nclass = 22", fillcolor="#e539ba"] ;
506 -> 507 ;
508 [label="gini = 0.0\nsamples = 1\nvalue = [0, 0, 0, 0, 0, 0, 0, 0, 0, 0, 0, 1, 0, 0\n0, 0, 0, 0, 0, 0, 0, 0, 0, 0, 0, 0]\nclass = 12", fillcolor="#39e5dc"] ;
506 -> 508 ;
509 [label="X[16] <= -0.13\ngini = 0.38\nsamples = 3\nvalue = [0, 0, 0, 0, 0, 0, 0, 0, 0, 0, 0, 0, 0, 1\n3, 0, 0, 0, 0, 0, 0, 0, 0, 0, 0, 0]\nclass = 15", fillcolor="#7ba5ee"] ;
503 -> 509 ;
510 [label="gini = 0.0\nsamples = 1\nvalue = [0, 0, 0, 0, 0, 0, 0, 0, 0, 0, 0, 0, 0, 1\n0, 0, 0, 0, 0, 0, 0, 0, 0, 0, 0, 0]\nclass = 14", fillcolor="#399de5"] ;
509 -> 510 ;
511 [label="gini = 0.0\nsamples = 2\nvalue = [0, 0, 0, 0, 0, 0, 0, 0, 0, 0, 0, 0, 0, 0\n3, 0, 0, 0, 0, 0, 0, 0, 0, 0, 0, 0]\nclass = 15", fillcolor="#3978e5"] ;
509 -> 511 ;
512 [label="gini = 0.0\nsamples = 12\nvalue = [0, 0, 0, 0, 0, 0, 0, 0, 0, 0, 0, 0, 0, 0\n0, 0, 0, 0, 0, 0, 0, 20, 0, 0, 0, 0]\nclass = 22", fillcolor="#e539ba"] ;
502 -> 512 ;
513 [label="X[22] <= 0.01\ngini = 0.83\nsamples = 375\nvalue = [64, 1, 4, 0, 3, 5, 3, 18, 0, 0, 0, 159, 6\n11, 83, 24, 0, 2, 2, 0, 74, 127, 0, 7, 2, 0]\nclass = 12", fillcolor="#f1fdfd"] ;
283 -> 513 ;
514 [label="X[24] <= 0.28\ngini = 0.82\nsamples = 111\nvalue = [12, 1, 4, 0, 3, 1, 1, 4, 0, 0, 0, 19, 1, 3\n12, 12, 0, 0, 0, 0, 58, 34, 0, 7, 0, 0]\nclass = 21", fillcolor="#faddfa"] ;
513 -> 514 ;
515 [label="X[80] <= 0.05\ngini = 0.71\nsamples = 78\nvalue = [0, 1, 1, 0, 0, 0, 0, 2, 0, 0, 0, 19, 1, 3\n4, 2, 0, 0, 0, 0, 54, 32, 0, 4, 0, 0]\nclass = 21", fillcolor="#f9cff8"] ;
514 -> 515 ;
516 [label="X[74] <= 0.05\ngini = 0.37\nsamples = 10\nvalue = [0, 0, 0, 0, 0, 0, 0, 0, 0, 0, 0, 2, 0, 2\n0, 0, 0, 0, 0, 0, 0, 14, 0, 0, 0, 0]\nclass = 22", fillcolor="#ec6acb"] ;
515 -> 516 ;
517 [label="X[9] <= 0.7\ngini = 0.5\nsamples = 2\nvalue = [0, 0, 0, 0, 0, 0, 0, 0, 0, 0, 0, 2, 0, 2\n0, 0, 0, 0, 0, 0, 0, 0, 0, 0, 0, 0]\nclass = 12", fillcolor="#ffffff"] ;
516 -> 517 ;
518 [label="gini = 0.0\nsamples = 1\nvalue = [0, 0, 0, 0, 0, 0, 0, 0, 0, 0, 0, 0, 0, 2\n0, 0, 0, 0, 0, 0, 0, 0, 0, 0, 0, 0]\nclass = 14", fillcolor="#399de5"] ;
517 -> 518 ;
519 [label="gini = 0.0\nsamples = 1\nvalue = [0, 0, 0, 0, 0, 0, 0, 0, 0, 0, 0, 2, 0, 0\n0, 0, 0, 0, 0, 0, 0, 0, 0, 0, 0, 0]\nclass = 12", fillcolor="#39e5dc"] ;
517 -> 519 ;
520 [label="gini = 0.0\nsamples = 8\nvalue = [0, 0, 0, 0, 0, 0, 0, 0, 0, 0, 0, 0, 0, 0\n0, 0, 0, 0, 0, 0, 0, 14, 0, 0, 0, 0]\nclass = 22", fillcolor="#e539ba"] ;
516 -> 520 ;
521 [label="X[25] <= 0.89\ngini = 0.68\nsamples = 68\nvalue = [0, 1, 1, 0, 0, 0, 0, 2, 0, 0, 0, 17, 1, 1\n4, 2, 0, 0, 0, 0, 54, 18, 0, 4, 0, 0]\nclass = 21", fillcolor="#f4adf3"] ;
515 -> 521 ;
522 [label="X[55] <= 0.92\ngini = 0.6\nsamples = 59\nvalue = [0, 1, 1, 0, 0, 0, 0, 0, 0, 0, 0, 13, 1, 1\n4, 2, 0, 0, 0, 0, 54, 9, 0, 4, 0, 0]\nclass = 21", fillcolor="#f196f0"] ;
521 -> 522 ;
523 [label="X[41] <= -1.0\ngini = 0.55\nsamples = 54\nvalue = [0, 1, 1, 0, 0, 0, 0, 0, 0, 0, 0, 9, 1, 1\n3, 2, 0, 0, 0, 0, 54, 7, 0, 4, 0, 0]\nclass = 21", fillcolor="#ef87ed"] ;
522 -> 523 ;
524 [label="X[42] <= -0.43\ngini = 0.48\nsamples = 49\nvalue = [0, 0, 1, 0, 0, 0, 0, 0, 0, 0, 0, 9, 1, 1\n2, 2, 0, 0, 0, 0, 54, 7, 0, 0, 0, 0]\nclass = 21", fillcolor="#ee7cec"] ;
523 -> 524 ;
525 [label="X[5] <= -0.45\ngini = 0.66\nsamples = 8\nvalue = [0, 0, 0, 0, 0, 0, 0, 0, 0, 0, 0, 5, 0, 0\n0, 2, 0, 0, 0, 0, 1, 2, 0, 0, 0, 0]\nclass = 12", fillcolor="#b5f5f2"] ;
524 -> 525 ;
526 [label="X[2] <= -0.25\ngini = 0.44\nsamples = 2\nvalue = [0, 0, 0, 0, 0, 0, 0, 0, 0, 0, 0, 0, 0, 0\n0, 2, 0, 0, 0, 0, 1, 0, 0, 0, 0, 0]\nclass = 16", fillcolor="#9ca8f2"] ;
525 -> 526 ;
527 [label="gini = 0.0\nsamples = 1\nvalue = [0, 0, 0, 0, 0, 0, 0, 0, 0, 0, 0, 0, 0, 0\n0, 0, 0, 0, 0, 0, 1, 0, 0, 0, 0, 0]\nclass = 21", fillcolor="#e539e2"] ;
526 -> 527 ;
528 [label="gini = 0.0\nsamples = 1\nvalue = [0, 0, 0, 0, 0, 0, 0, 0, 0, 0, 0, 0, 0, 0\n0, 2, 0, 0, 0, 0, 0, 0, 0, 0, 0, 0]\nclass = 16", fillcolor="#3950e5"] ;
526 -> 528 ;
529 [label="X[54] <= 0.33\ngini = 0.41\nsamples = 6\nvalue = [0, 0, 0, 0, 0, 0, 0, 0, 0, 0, 0, 5, 0, 0\n0, 0, 0, 0, 0, 0, 0, 2, 0, 0, 0, 0]\nclass = 12", fillcolor="#88efea"] ;
525 -> 529 ;
530 [label="gini = 0.0\nsamples = 2\nvalue = [0, 0, 0, 0, 0, 0, 0, 0, 0, 0, 0, 0, 0, 0\n0, 0, 0, 0, 0, 0, 0, 2, 0, 0, 0, 0]\nclass = 22", fillcolor="#e539ba"] ;
529 -> 530 ;
531 [label="gini = 0.0\nsamples = 4\nvalue = [0, 0, 0, 0, 0, 0, 0, 0, 0, 0, 0, 5, 0, 0\n0, 0, 0, 0, 0, 0, 0, 0, 0, 0, 0, 0]\nclass = 12", fillcolor="#39e5dc"] ;
529 -> 531 ;
532 [label="X[70] <= -0.29\ngini = 0.36\nsamples = 41\nvalue = [0, 0, 1, 0, 0, 0, 0, 0, 0, 0, 0, 4, 1, 1\n2, 0, 0, 0, 0, 0, 53, 5, 0, 0, 0, 0]\nclass = 21", fillcolor="#eb66e9"] ;
524 -> 532 ;
533 [label="X[23] <= 0.24\ngini = 0.28\nsamples = 37\nvalue = [0, 0, 0, 0, 0, 0, 0, 0, 0, 0, 0, 4, 1, 0\n0, 0, 0, 0, 0, 0, 53, 5, 0, 0, 0, 0]\nclass = 21", fillcolor="#e95be7"] ;
532 -> 533 ;
534 [label="X[12] <= -0.02\ngini = 0.24\nsamples = 35\nvalue = [0, 0, 0, 0, 0, 0, 0, 0, 0, 0, 0, 2, 1, 0\n0, 0, 0, 0, 0, 0, 53, 5, 0, 0, 0, 0]\nclass = 21", fillcolor="#e955e6"] ;
533 -> 534 ;
535 [label="X[32] <= -0.26\ngini = 0.08\nsamples = 27\nvalue = [0, 0, 0, 0, 0, 0, 0, 0, 0, 0, 0, 1, 1, 0\n0, 0, 0, 0, 0, 0, 49, 0, 0, 0, 0, 0]\nclass = 21", fillcolor="#e641e3"] ;
534 -> 535 ;
536 [label="gini = 0.0\nsamples = 1\nvalue = [0, 0, 0, 0, 0, 0, 0, 0, 0, 0, 0, 1, 0, 0\n0, 0, 0, 0, 0, 0, 0, 0, 0, 0, 0, 0]\nclass = 12", fillcolor="#39e5dc"] ;
535 -> 536 ;
537 [label="X[99] <= -0.82\ngini = 0.04\nsamples = 26\nvalue = [0, 0, 0, 0, 0, 0, 0, 0, 0, 0, 0, 0, 1, 0\n0, 0, 0, 0, 0, 0, 49, 0, 0, 0, 0, 0]\nclass = 21", fillcolor="#e63de3"] ;
535 -> 537 ;
538 [label="X[74] <= 0.21\ngini = 0.44\nsamples = 2\nvalue = [0, 0, 0, 0, 0, 0, 0, 0, 0, 0, 0, 0, 1, 0\n0, 0, 0, 0, 0, 0, 2, 0, 0, 0, 0, 0]\nclass = 21", fillcolor="#f29cf0"] ;
537 -> 538 ;
539 [label="gini = 0.0\nsamples = 1\nvalue = [0, 0, 0, 0, 0, 0, 0, 0, 0, 0, 0, 0, 0, 0\n0, 0, 0, 0, 0, 0, 2, 0, 0, 0, 0, 0]\nclass = 21", fillcolor="#e539e2"] ;
538 -> 539 ;
540 [label="gini = 0.0\nsamples = 1\nvalue = [0, 0, 0, 0, 0, 0, 0, 0, 0, 0, 0, 0, 1, 0\n0, 0, 0, 0, 0, 0, 0, 0, 0, 0, 0, 0]\nclass = 13", fillcolor="#39c5e5"] ;
538 -> 540 ;
541 [label="gini = 0.0\nsamples = 24\nvalue = [0, 0, 0, 0, 0, 0, 0, 0, 0, 0, 0, 0, 0, 0\n0, 0, 0, 0, 0, 0, 47, 0, 0, 0, 0, 0]\nclass = 21", fillcolor="#e539e2"] ;
537 -> 541 ;
542 [label="X[15] <= 0.05\ngini = 0.58\nsamples = 8\nvalue = [0, 0, 0, 0, 0, 0, 0, 0, 0, 0, 0, 1, 0, 0\n0, 0, 0, 0, 0, 0, 4, 5, 0, 0, 0, 0]\nclass = 22", fillcolor="#fbdef4"] ;
534 -> 542 ;
543 [label="X[14] <= 0.67\ngini = 0.45\nsamples = 6\nvalue = [0, 0, 0, 0, 0, 0, 0, 0, 0, 0, 0, 1, 0, 0\n0, 0, 0, 0, 0, 0, 1, 5, 0, 0, 0, 0]\nclass = 22", fillcolor="#ee7bd1"] ;
542 -> 543 ;
544 [label="X[23] <= -0.23\ngini = 0.28\nsamples = 5\nvalue = [0, 0, 0, 0, 0, 0, 0, 0, 0, 0, 0, 0, 0, 0\n0, 0, 0, 0, 0, 0, 1, 5, 0, 0, 0, 0]\nclass = 22", fillcolor="#ea61c8"] ;
543 -> 544 ;
545 [label="gini = 0.0\nsamples = 1\nvalue = [0, 0, 0, 0, 0, 0, 0, 0, 0, 0, 0, 0, 0, 0\n0, 0, 0, 0, 0, 0, 1, 0, 0, 0, 0, 0]\nclass = 21", fillcolor="#e539e2"] ;
544 -> 545 ;
546 [label="gini = 0.0\nsamples = 4\nvalue = [0, 0, 0, 0, 0, 0, 0, 0, 0, 0, 0, 0, 0, 0\n0, 0, 0, 0, 0, 0, 0, 5, 0, 0, 0, 0]\nclass = 22", fillcolor="#e539ba"] ;
544 -> 546 ;
