digraph Tree {
node [shape=box, style="filled, rounded", color="black", fontname="helvetica"] ;
edge [fontname="helvetica"] ;
0 [label="X[10] <= -2.02\ngini = 0.96\nsamples = 3680\nvalue = [261, 228, 240, 225, 221, 215, 216, 225, 205, 236\n211, 238, 231, 255, 218, 202, 185, 226, 230, 211\n210, 248, 209, 241, 226, 234]\nclass = 1", fillcolor="#ffffff"] ;
1 [label="X[3] <= 0.38\ngini = 0.78\nsamples = 207\nvalue = [0, 26, 2, 139, 16, 0, 1, 6, 29, 2, 7, 0, 3\n15, 13, 10, 0, 7, 3, 0, 0, 6, 26, 11, 0, 0]\nclass = 4", fillcolor="#eff5b5"] ;
0 -> 1 [labeldistance=2.5, labelangle=45, headlabel="True"] ;
2 [label="X[4] <= -3.64\ngini = 0.9\nsamples = 98\nvalue = [0, 8, 2, 21, 13, 0, 0, 3, 17, 0, 7, 0, 1, 15\n9, 5, 0, 7, 0, 0, 0, 6, 24, 10, 0, 0]\nclass = 23", fillcolor="#fefafc"] ;
1 -> 2 ;
3 [label="X[52] <= -0.3\ngini = 0.38\nsamples = 13\nvalue = [0, 0, 0, 0, 0, 0, 0, 0, 15, 0, 0, 0, 0, 5\n0, 0, 0, 0, 0, 0, 0, 0, 0, 0, 0, 0]\nclass = 9", fillcolor="#7bee98"] ;
2 -> 3 ;
4 [label="gini = 0.0\nsamples = 4\nvalue = [0, 0, 0, 0, 0, 0, 0, 0, 0, 0, 0, 0, 0, 5\n0, 0, 0, 0, 0, 0, 0, 0, 0, 0, 0, 0]\nclass = 14", fillcolor="#399de5"] ;
3 -> 4 ;
5 [label="gini = 0.0\nsamples = 9\nvalue = [0, 0, 0, 0, 0, 0, 0, 0, 15, 0, 0, 0, 0, 0\n0, 0, 0, 0, 0, 0, 0, 0, 0, 0, 0, 0]\nclass = 9", fillcolor="#39e564"] ;
3 -> 5 ;
6 [label="X[4] <= 4.78\ngini = 0.9\nsamples = 85\nvalue = [0, 8, 2, 21, 13, 0, 0, 3, 2, 0, 7, 0, 1, 10\n9, 5, 0, 7, 0, 0, 0, 6, 24, 10, 0, 0]\nclass = 23", fillcolor="#fef9fc"] ;
2 -> 6 ;
7 [label="X[5] <= 0.39\ngini = 0.89\nsamples = 80\nvalue = [0, 8, 2, 21, 13, 0, 0, 3, 2, 0, 7, 0, 1, 10\n9, 5, 0, 0, 0, 0, 0, 6, 24, 10, 0, 0]\nclass = 23", fillcolor="#fef9fc"] ;
6 -> 7 ;
8 [label="X[87] <= -0.17\ngini = 0.8\nsamples = 39\nvalue = [0, 8, 1, 21, 11, 0, 0, 3, 0, 0, 0, 0, 1, 0\n7, 0, 0, 0, 0, 0, 0, 0, 0, 10, 0, 0]\nclass = 4", fillcolor="#f7fad8"] ;
7 -> 8 ;
9 [label="X[85] <= -0.56\ngini = 0.49\nsamples = 15\nvalue = [0, 1, 0, 15, 4, 0, 0, 0, 0, 0, 0, 0, 0, 0\n2, 0, 0, 0, 0, 0, 0, 0, 0, 0, 0, 0]\nclass = 4", fillcolor="#e5ef86"] ;
8 -> 9 ;
10 [label="gini = 0.0\nsamples = 3\nvalue = [0, 0, 0, 0, 3, 0, 0, 0, 0, 0, 0, 0, 0, 0\n0, 0, 0, 0, 0, 0, 0, 0, 0, 0, 0, 0]\nclass = 5", fillcolor="#ace539"] ;
9 -> 10 ;
11 [label="X[29] <= 0.08\ngini = 0.36\nsamples = 12\nvalue = [0, 1, 0, 15, 1, 0, 0, 0, 0, 0, 0, 0, 0, 0\n2, 0, 0, 0, 0, 0, 0, 0, 0, 0, 0, 0]\nclass = 4", fillcolor="#deeb68"] ;
9 -> 11 ;
12 [label="X[94] <= -0.06\ngini = 0.62\nsamples = 3\nvalue = [0, 1, 0, 0, 1, 0, 0, 0, 0, 0, 0, 0, 0, 0\n2, 0, 0, 0, 0, 0, 0, 0, 0, 0, 0, 0]\nclass = 15", fillcolor="#bdd2f6"] ;
11 -> 12 ;
13 [label="X[33] <= 0.57\ngini = 0.5\nsamples = 2\nvalue = [0, 1, 0, 0, 1, 0, 0, 0, 0, 0, 0, 0, 0, 0\n0, 0, 0, 0, 0, 0, 0, 0, 0, 0, 0, 0]\nclass = 2", fillcolor="#ffffff"] ;
12 -> 13 ;
14 [label="gini = 0.0\nsamples = 1\nvalue = [0, 1, 0, 0, 0, 0, 0, 0, 0, 0, 0, 0, 0, 0\n0, 0, 0, 0, 0, 0, 0, 0, 0, 0, 0, 0]\nclass = 2", fillcolor="#e5a639"] ;
13 -> 14 ;
15 [label="gini = 0.0\nsamples = 1\nvalue = [0, 0, 0, 0, 1, 0, 0, 0, 0, 0, 0, 0, 0, 0\n0, 0, 0, 0, 0, 0, 0, 0, 0, 0, 0, 0]\nclass = 5", fillcolor="#ace539"] ;
13 -> 15 ;
16 [label="gini = 0.0\nsamples = 1\nvalue = [0, 0, 0, 0, 0, 0, 0, 0, 0, 0, 0, 0, 0, 0\n2, 0, 0, 0, 0, 0, 0, 0, 0, 0, 0, 0]\nclass = 15", fillcolor="#3978e5"] ;
12 -> 16 ;
17 [label="gini = 0.0\nsamples = 9\nvalue = [0, 0, 0, 15, 0, 0, 0, 0, 0, 0, 0, 0, 0, 0\n0, 0, 0, 0, 0, 0, 0, 0, 0, 0, 0, 0]\nclass = 4", fillcolor="#d4e539"] ;
11 -> 17 ;
18 [label="X[14] <= 0.27\ngini = 0.83\nsamples = 24\nvalue = [0, 7, 1, 6, 7, 0, 0, 3, 0, 0, 0, 0, 1, 0\n5, 0, 0, 0, 0, 0, 0, 0, 0, 10, 0, 0]\nclass = 24", fillcolor="#fdedf1"] ;
8 -> 18 ;
19 [label="X[86] <= -0.65\ngini = 0.37\nsamples = 7\nvalue = [0, 0, 0, 0, 7, 0, 0, 0, 0, 0, 0, 0, 1, 0\n0, 0, 0, 0, 0, 0, 0, 0, 0, 1, 0, 0]\nclass = 5", fillcolor="#c1ec6a"] ;
18 -> 19 ;
20 [label="gini = 0.0\nsamples = 1\nvalue = [0, 0, 0, 0, 0, 0, 0, 0, 0, 0, 0, 0, 0, 0\n0, 0, 0, 0, 0, 0, 0, 0, 0, 1, 0, 0]\nclass = 24", fillcolor="#e5396a"] ;
19 -> 20 ;
21 [label="X[99] <= 0.25\ngini = 0.22\nsamples = 6\nvalue = [0, 0, 0, 0, 7, 0, 0, 0, 0, 0, 0, 0, 1, 0\n0, 0, 0, 0, 0, 0, 0, 0, 0, 0, 0, 0]\nclass = 5", fillcolor="#b8e955"] ;
19 -> 21 ;
22 [label="gini = 0.0\nsamples = 5\nvalue = [0, 0, 0, 0, 7, 0, 0, 0, 0, 0, 0, 0, 0, 0\n0, 0, 0, 0, 0, 0, 0, 0, 0, 0, 0, 0]\nclass = 5", fillcolor="#ace539"] ;
21 -> 22 ;
23 [label="gini = 0.0\nsamples = 1\nvalue = [0, 0, 0, 0, 0, 0, 0, 0, 0, 0, 0, 0, 1, 0\n0, 0, 0, 0, 0, 0, 0, 0, 0, 0, 0, 0]\nclass = 13", fillcolor="#39c5e5"] ;
21 -> 23 ;
24 [label="X[19] <= 1.17\ngini = 0.79\nsamples = 17\nvalue = [0, 7, 1, 6, 0, 0, 0, 3, 0, 0, 0, 0, 0, 0\n5, 0, 0, 0, 0, 0, 0, 0, 0, 9, 0, 0]\nclass = 24", fillcolor="#fdeef3"] ;
18 -> 24 ;
25 [label="X[29] <= 0.32\ngini = 0.74\nsamples = 13\nvalue = [0, 7, 1, 0, 0, 0, 0, 3, 0, 0, 0, 0, 0, 0\n5, 0, 0, 0, 0, 0, 0, 0, 0, 9, 0, 0]\nclass = 24", fillcolor="#fce9ee"] ;
24 -> 25 ;
26 [label="X[85] <= -0.17\ngini = 0.49\nsamples = 9\nvalue = [0, 7, 0, 0, 0, 0, 0, 0, 0, 0, 0, 0, 0, 0\n0, 0, 0, 0, 0, 0, 0, 0, 0, 9, 0, 0]\nclass = 24", fillcolor="#f9d3de"] ;
25 -> 26 ;
27 [label="X[25] <= 0.69\ngini = 0.35\nsamples = 6\nvalue = [0, 7, 0, 0, 0, 0, 0, 0, 0, 0, 0, 0, 0, 0\n0, 0, 0, 0, 0, 0, 0, 0, 0, 2, 0, 0]\nclass = 2", fillcolor="#ecbf72"] ;
26 -> 27 ;
28 [label="gini = 0.0\nsamples = 5\nvalue = [0, 7, 0, 0, 0, 0, 0, 0, 0, 0, 0, 0, 0, 0\n0, 0, 0, 0, 0, 0, 0, 0, 0, 0, 0, 0]\nclass = 2", fillcolor="#e5a639"] ;
27 -> 28 ;
29 [label="gini = 0.0\nsamples = 1\nvalue = [0, 0, 0, 0, 0, 0, 0, 0, 0, 0, 0, 0, 0, 0\n0, 0, 0, 0, 0, 0, 0, 0, 0, 2, 0, 0]\nclass = 24", fillcolor="#e5396a"] ;
27 -> 29 ;
30 [label="gini = 0.0\nsamples = 3\nvalue = [0, 0, 0, 0, 0, 0, 0, 0, 0, 0, 0, 0, 0, 0\n0, 0, 0, 0, 0, 0, 0, 0, 0, 7, 0, 0]\nclass = 24", fillcolor="#e5396a"] ;
26 -> 30 ;
31 [label="X[59] <= 0.05\ngini = 0.57\nsamples = 4\nvalue = [0, 0, 1, 0, 0, 0, 0, 3, 0, 0, 0, 0, 0, 0\n5, 0, 0, 0, 0, 0, 0, 0, 0, 0, 0, 0]\nclass = 15", fillcolor="#bdd2f6"] ;
25 -> 31 ;
32 [label="gini = 0.0\nsamples = 2\nvalue = [0, 0, 0, 0, 0, 0, 0, 0, 0, 0, 0, 0, 0, 0\n5, 0, 0, 0, 0, 0, 0, 0, 0, 0, 0, 0]\nclass = 15", fillcolor="#3978e5"] ;
31 -> 32 ;
33 [label="X[16] <= 0.35\ngini = 0.38\nsamples = 2\nvalue = [0, 0, 1, 0, 0, 0, 0, 3, 0, 0, 0, 0, 0, 0\n0, 0, 0, 0, 0, 0, 0, 0, 0, 0, 0, 0]\nclass = 8", fillcolor="#7bee7d"] ;
31 -> 33 ;
34 [label="gini = 0.0\nsamples = 1\nvalue = [0, 0, 0, 0, 0, 0, 0, 3, 0, 0, 0, 0, 0, 0\n0, 0, 0, 0, 0, 0, 0, 0, 0, 0, 0, 0]\nclass = 8", fillcolor="#39e53c"] ;
33 -> 34 ;
35 [label="gini = 0.0\nsamples = 1\nvalue = [0, 0, 1, 0, 0, 0, 0, 0, 0, 0, 0, 0, 0, 0\n0, 0, 0, 0, 0, 0, 0, 0, 0, 0, 0, 0]\nclass = 3", fillcolor="#e5ce39"] ;
33 -> 35 ;
36 [label="gini = 0.0\nsamples = 4\nvalue = [0, 0, 0, 6, 0, 0, 0, 0, 0, 0, 0, 0, 0, 0\n0, 0, 0, 0, 0, 0, 0, 0, 0, 0, 0, 0]\nclass = 4", fillcolor="#d4e539"] ;
24 -> 36 ;
37 [label="X[17] <= 0.16\ngini = 0.77\nsamples = 41\nvalue = [0, 0, 1, 0, 2, 0, 0, 0, 2, 0, 7, 0, 0, 10\n2, 5, 0, 0, 0, 0, 0, 6, 24, 0, 0, 0]\nclass = 23", fillcolor="#f8c6e0"] ;
7 -> 37 ;
38 [label="X[13] <= 0.72\ngini = 0.72\nsamples = 18\nvalue = [0, 0, 1, 0, 0, 0, 0, 0, 1, 0, 0, 0, 0, 10\n2, 5, 0, 0, 0, 0, 0, 4, 0, 0, 0, 0]\nclass = 14", fillcolor="#c8e4f8"] ;
37 -> 38 ;
39 [label="X[24] <= 0.59\ngini = 0.73\nsamples = 10\nvalue = [0, 0, 1, 0, 0, 0, 0, 0, 1, 0, 0, 0, 0, 1\n1, 5, 0, 0, 0, 0, 0, 4, 0, 0, 0, 0]\nclass = 16", fillcolor="#e9ecfc"] ;
38 -> 39 ;
40 [label="X[51] <= -0.32\ngini = 0.69\nsamples = 6\nvalue = [0, 0, 1, 0, 0, 0, 0, 0, 1, 0, 0, 0, 0, 1\n1, 0, 0, 0, 0, 0, 0, 4, 0, 0, 0, 0]\nclass = 22", fillcolor="#f4aae1"] ;
39 -> 40 ;
41 [label="X[96] <= -0.62\ngini = 0.75\nsamples = 4\nvalue = [0, 0, 1, 0, 0, 0, 0, 0, 1, 0, 0, 0, 0, 1\n1, 0, 0, 0, 0, 0, 0, 0, 0, 0, 0, 0]\nclass = 3", fillcolor="#ffffff"] ;
40 -> 41 ;
42 [label="gini = 0.0\nsamples = 1\nvalue = [0, 0, 1, 0, 0, 0, 0, 0, 0, 0, 0, 0, 0, 0\n0, 0, 0, 0, 0, 0, 0, 0, 0, 0, 0, 0]\nclass = 3", fillcolor="#e5ce39"] ;
41 -> 42 ;
43 [label="X[39] <= -0.29\ngini = 0.67\nsamples = 3\nvalue = [0, 0, 0, 0, 0, 0, 0, 0, 1, 0, 0, 0, 0, 1\n1, 0, 0, 0, 0, 0, 0, 0, 0, 0, 0, 0]\nclass = 9", fillcolor="#ffffff"] ;
41 -> 43 ;
44 [label="gini = 0.0\nsamples = 1\nvalue = [0, 0, 0, 0, 0, 0, 0, 0, 0, 0, 0, 0, 0, 0\n1, 0, 0, 0, 0, 0, 0, 0, 0, 0, 0, 0]\nclass = 15", fillcolor="#3978e5"] ;
43 -> 44 ;
45 [label="X[26] <= 0.34\ngini = 0.5\nsamples = 2\nvalue = [0, 0, 0, 0, 0, 0, 0, 0, 1, 0, 0, 0, 0, 1\n0, 0, 0, 0, 0, 0, 0, 0, 0, 0, 0, 0]\nclass = 9", fillcolor="#ffffff"] ;
43 -> 45 ;
46 [label="gini = 0.0\nsamples = 1\nvalue = [0, 0, 0, 0, 0, 0, 0, 0, 0, 0, 0, 0, 0, 1\n0, 0, 0, 0, 0, 0, 0, 0, 0, 0, 0, 0]\nclass = 14", fillcolor="#399de5"] ;
45 -> 46 ;
47 [label="gini = 0.0\nsamples = 1\nvalue = [0, 0, 0, 0, 0, 0, 0, 0, 1, 0, 0, 0, 0, 0\n0, 0, 0, 0, 0, 0, 0, 0, 0, 0, 0, 0]\nclass = 9", fillcolor="#39e564"] ;
45 -> 47 ;
48 [label="gini = 0.0\nsamples = 2\nvalue = [0, 0, 0, 0, 0, 0, 0, 0, 0, 0, 0, 0, 0, 0\n0, 0, 0, 0, 0, 0, 0, 4, 0, 0, 0, 0]\nclass = 22", fillcolor="#e539ba"] ;
40 -> 48 ;
49 [label="gini = 0.0\nsamples = 4\nvalue = [0, 0, 0, 0, 0, 0, 0, 0, 0, 0, 0, 0, 0, 0\n0, 5, 0, 0, 0, 0, 0, 0, 0, 0, 0, 0]\nclass = 16", fillcolor="#3950e5"] ;
39 -> 49 ;
50 [label="X[34] <= 0.01\ngini = 0.18\nsamples = 8\nvalue = [0, 0, 0, 0, 0, 0, 0, 0, 0, 0, 0, 0, 0, 9\n1, 0, 0, 0, 0, 0, 0, 0, 0, 0, 0, 0]\nclass = 14", fillcolor="#4fa8e8"] ;
38 -> 50 ;
51 [label="gini = 0.0\nsamples = 1\nvalue = [0, 0, 0, 0, 0, 0, 0, 0, 0, 0, 0, 0, 0, 0\n1, 0, 0, 0, 0, 0, 0, 0, 0, 0, 0, 0]\nclass = 15", fillcolor="#3978e5"] ;
50 -> 51 ;
52 [label="gini = 0.0\nsamples = 7\nvalue = [0, 0, 0, 0, 0, 0, 0, 0, 0, 0, 0, 0, 0, 9\n0, 0, 0, 0, 0, 0, 0, 0, 0, 0, 0, 0]\nclass = 14", fillcolor="#399de5"] ;
50 -> 52 ;
53 [label="X[21] <= 0.88\ngini = 0.51\nsamples = 23\nvalue = [0, 0, 0, 0, 2, 0, 0, 0, 1, 0, 7, 0, 0, 0\n0, 0, 0, 0, 0, 0, 0, 2, 24, 0, 0, 0]\nclass = 23", fillcolor="#f08bbf"] ;
37 -> 53 ;
54 [label="X[0] <= 3.8\ngini = 0.32\nsamples = 17\nvalue = [0, 0, 0, 0, 2, 0, 0, 0, 1, 0, 0, 0, 0, 0\n0, 0, 0, 0, 0, 0, 0, 2, 22, 0, 0, 0]\nclass = 23", fillcolor="#ea61a8"] ;
53 -> 54 ;
55 [label="X[69] <= -0.43\ngini = 0.64\nsamples = 3\nvalue = [0, 0, 0, 0, 2, 0, 0, 0, 1, 0, 0, 0, 0, 0\n0, 0, 0, 0, 0, 0, 0, 2, 0, 0, 0, 0]\nclass = 5", fillcolor="#ffffff"] ;
54 -> 55 ;
56 [label="gini = 0.0\nsamples = 1\nvalue = [0, 0, 0, 0, 2, 0, 0, 0, 0, 0, 0, 0, 0, 0\n0, 0, 0, 0, 0, 0, 0, 0, 0, 0, 0, 0]\nclass = 5", fillcolor="#ace539"] ;
55 -> 56 ;
57 [label="X[30] <= -0.31\ngini = 0.44\nsamples = 2\nvalue = [0, 0, 0, 0, 0, 0, 0, 0, 1, 0, 0, 0, 0, 0\n0, 0, 0, 0, 0, 0, 0, 2, 0, 0, 0, 0]\nclass = 22", fillcolor="#f29cdc"] ;
55 -> 57 ;
58 [label="gini = 0.0\nsamples = 1\nvalue = [0, 0, 0, 0, 0, 0, 0, 0, 1, 0, 0, 0, 0, 0\n0, 0, 0, 0, 0, 0, 0, 0, 0, 0, 0, 0]\nclass = 9", fillcolor="#39e564"] ;
57 -> 58 ;
59 [label="gini = 0.0\nsamples = 1\nvalue = [0, 0, 0, 0, 0, 0, 0, 0, 0, 0, 0, 0, 0, 0\n0, 0, 0, 0, 0, 0, 0, 2, 0, 0, 0, 0]\nclass = 22", fillcolor="#e539ba"] ;
57 -> 59 ;
60 [label="gini = 0.0\nsamples = 14\nvalue = [0, 0, 0, 0, 0, 0, 0, 0, 0, 0, 0, 0, 0, 0\n0, 0, 0, 0, 0, 0, 0, 0, 22, 0, 0, 0]\nclass = 23", fillcolor="#e53992"] ;
54 -> 60 ;
61 [label="X[90] <= -0.22\ngini = 0.35\nsamples = 6\nvalue = [0, 0, 0, 0, 0, 0, 0, 0, 0, 0, 7, 0, 0, 0\n0, 0, 0, 0, 0, 0, 0, 0, 2, 0, 0, 0]\nclass = 11", fillcolor="#72ecc9"] ;
53 -> 61 ;
62 [label="gini = 0.0\nsamples = 1\nvalue = [0, 0, 0, 0, 0, 0, 0, 0, 0, 0, 0, 0, 0, 0\n0, 0, 0, 0, 0, 0, 0, 0, 2, 0, 0, 0]\nclass = 23", fillcolor="#e53992"] ;
61 -> 62 ;
63 [label="gini = 0.0\nsamples = 5\nvalue = [0, 0, 0, 0, 0, 0, 0, 0, 0, 0, 7, 0, 0, 0\n0, 0, 0, 0, 0, 0, 0, 0, 0, 0, 0, 0]\nclass = 11", fillcolor="#39e5b4"] ;
61 -> 63 ;
64 [label="gini = 0.0\nsamples = 5\nvalue = [0, 0, 0, 0, 0, 0, 0, 0, 0, 0, 0, 0, 0, 0\n0, 0, 0, 7, 0, 0, 0, 0, 0, 0, 0, 0]\nclass = 18", fillcolor="#7239e5"] ;
6 -> 64 ;
65 [label="X[6] <= -1.95\ngini = 0.52\nsamples = 109\nvalue = [0, 18, 0, 118, 3, 0, 1, 3, 12, 2, 0, 0, 2, 0\n4, 5, 0, 0, 3, 0, 0, 0, 2, 1, 0, 0]\nclass = 4", fillcolor="#e3ee80"] ;
1 -> 65 ;
66 [label="gini = 0.0\nsamples = 11\nvalue = [0, 18, 0, 0, 0, 0, 0, 0, 0, 0, 0, 0, 0, 0\n0, 0, 0, 0, 0, 0, 0, 0, 0, 0, 0, 0]\nclass = 2", fillcolor="#e5a639"] ;
65 -> 66 ;
67 [label="X[24] <= 1.84\ngini = 0.42\nsamples = 98\nvalue = [0, 0, 0, 118, 3, 0, 1, 3, 12, 2, 0, 0, 2, 0\n4, 5, 0, 0, 3, 0, 0, 0, 2, 1, 0, 0]\nclass = 4", fillcolor="#dfec6d"] ;
65 -> 67 ;
68 [label="X[0] <= 0.65\ngini = 0.37\nsamples = 93\nvalue = [0, 0, 0, 118, 1, 0, 1, 3, 12, 2, 0, 0, 2, 0\n4, 1, 0, 0, 3, 0, 0, 0, 2, 1, 0, 0]\nclass = 4", fillcolor="#deeb67"] ;
67 -> 68 ;
69 [label="X[4] <= -1.99\ngini = 0.74\nsamples = 15\nvalue = [0, 0, 0, 0, 0, 0, 0, 3, 10, 0, 0, 0, 2, 0\n4, 0, 0, 0, 3, 0, 0, 0, 0, 1, 0, 0]\nclass = 9", fillcolor="#c0f7ce"] ;
68 -> 69 ;
70 [label="gini = 0.0\nsamples = 5\nvalue = [0, 0, 0, 0, 0, 0, 0, 0, 10, 0, 0, 0, 0, 0\n0, 0, 0, 0, 0, 0, 0, 0, 0, 0, 0, 0]\nclass = 9", fillcolor="#39e564"] ;
69 -> 70 ;
71 [label="X[48] <= 0.01\ngini = 0.77\nsamples = 10\nvalue = [0, 0, 0, 0, 0, 0, 0, 3, 0, 0, 0, 0, 2, 0\n4, 0, 0, 0, 3, 0, 0, 0, 0, 1, 0, 0]\nclass = 15", fillcolor="#ebf2fc"] ;
69 -> 71 ;
72 [label="X[39] <= -0.09\ngini = 0.57\nsamples = 6\nvalue = [0, 0, 0, 0, 0, 0, 0, 0, 0, 0, 0, 0, 2, 0\n4, 0, 0, 0, 0, 0, 0, 0, 0, 1, 0, 0]\nclass = 15", fillcolor="#b0c9f5"] ;
71 -> 72 ;
73 [label="X[93] <= -0.13\ngini = 0.44\nsamples = 3\nvalue = [0, 0, 0, 0, 0, 0, 0, 0, 0, 0, 0, 0, 2, 0\n0, 0, 0, 0, 0, 0, 0, 0, 0, 1, 0, 0]\nclass = 13", fillcolor="#9ce2f2"] ;
72 -> 73 ;
74 [label="gini = 0.0\nsamples = 2\nvalue = [0, 0, 0, 0, 0, 0, 0, 0, 0, 0, 0, 0, 2, 0\n0, 0, 0, 0, 0, 0, 0, 0, 0, 0, 0, 0]\nclass = 13", fillcolor="#39c5e5"] ;
73 -> 74 ;
75 [label="gini = 0.0\nsamples = 1\nvalue = [0, 0, 0, 0, 0, 0, 0, 0, 0, 0, 0, 0, 0, 0\n0, 0, 0, 0, 0, 0, 0, 0, 0, 1, 0, 0]\nclass = 24", fillcolor="#e5396a"] ;
73 -> 75 ;
76 [label="gini = 0.0\nsamples = 3\nvalue = [0, 0, 0, 0, 0, 0, 0, 0, 0, 0, 0, 0, 0, 0\n4, 0, 0, 0, 0, 0, 0, 0, 0, 0, 0, 0]\nclass = 15", fillcolor="#3978e5"] ;
72 -> 76 ;
77 [label="X[97] <= 0.19\ngini = 0.5\nsamples = 4\nvalue = [0, 0, 0, 0, 0, 0, 0, 3, 0, 0, 0, 0, 0, 0\n0, 0, 0, 0, 3, 0, 0, 0, 0, 0, 0, 0]\nclass = 8", fillcolor="#ffffff"] ;
71 -> 77 ;
78 [label="gini = 0.0\nsamples = 2\nvalue = [0, 0, 0, 0, 0, 0, 0, 0, 0, 0, 0, 0, 0, 0\n0, 0, 0, 0, 3, 0, 0, 0, 0, 0, 0, 0]\nclass = 19", fillcolor="#9a39e5"] ;
77 -> 78 ;
79 [label="gini = 0.0\nsamples = 2\nvalue = [0, 0, 0, 0, 0, 0, 0, 3, 0, 0, 0, 0, 0, 0\n0, 0, 0, 0, 0, 0, 0, 0, 0, 0, 0, 0]\nclass = 8", fillcolor="#39e53c"] ;
77 -> 79 ;
80 [label="X[81] <= 0.82\ngini = 0.14\nsamples = 78\nvalue = [0, 0, 0, 118, 1, 0, 1, 0, 2, 2, 0, 0, 0, 0\n0, 1, 0, 0, 0, 0, 0, 0, 2, 0, 0, 0]\nclass = 4", fillcolor="#d7e747"] ;
68 -> 80 ;
81 [label="X[91] <= -0.54\ngini = 0.09\nsamples = 76\nvalue = [0, 0, 0, 118, 0, 0, 1, 0, 0, 2, 0, 0, 0, 0\n0, 1, 0, 0, 0, 0, 0, 0, 2, 0, 0, 0]\nclass = 4", fillcolor="#d6e643"] ;
80 -> 81 ;
82 [label="gini = 0.0\nsamples = 1\nvalue = [0, 0, 0, 0, 0, 0, 0, 0, 0, 2, 0, 0, 0, 0\n0, 0, 0, 0, 0, 0, 0, 0, 0, 0, 0, 0]\nclass = 10", fillcolor="#39e58c"] ;
81 -> 82 ;
83 [label="X[60] <= 0.72\ngini = 0.06\nsamples = 75\nvalue = [0, 0, 0, 118, 0, 0, 1, 0, 0, 0, 0, 0, 0, 0\n0, 1, 0, 0, 0, 0, 0, 0, 2, 0, 0, 0]\nclass = 4", fillcolor="#d5e640"] ;
81 -> 83 ;
84 [label="X[14] <= -1.23\ngini = 0.03\nsamples = 72\nvalue = [0, 0, 0, 117, 0, 0, 1, 0, 0, 0, 0, 0, 0, 0\n0, 1, 0, 0, 0, 0, 0, 0, 0, 0, 0, 0]\nclass = 4", fillcolor="#d5e53c"] ;
83 -> 84 ;
85 [label="gini = 0.0\nsamples = 1\nvalue = [0, 0, 0, 0, 0, 0, 0, 0, 0, 0, 0, 0, 0, 0\n0, 1, 0, 0, 0, 0, 0, 0, 0, 0, 0, 0]\nclass = 16", fillcolor="#3950e5"] ;
84 -> 85 ;
86 [label="X[12] <= 0.7\ngini = 0.02\nsamples = 71\nvalue = [0, 0, 0, 117, 0, 0, 1, 0, 0, 0, 0, 0, 0, 0\n0, 0, 0, 0, 0, 0, 0, 0, 0, 0, 0, 0]\nclass = 4", fillcolor="#d4e53b"] ;
84 -> 86 ;
87 [label="gini = 0.0\nsamples = 69\nvalue = [0, 0, 0, 114, 0, 0, 0, 0, 0, 0, 0, 0, 0, 0\n0, 0, 0, 0, 0, 0, 0, 0, 0, 0, 0, 0]\nclass = 4", fillcolor="#d4e539"] ;
86 -> 87 ;
88 [label="X[96] <= -0.2\ngini = 0.38\nsamples = 2\nvalue = [0, 0, 0, 3, 0, 0, 1, 0, 0, 0, 0, 0, 0, 0\n0, 0, 0, 0, 0, 0, 0, 0, 0, 0, 0, 0]\nclass = 4", fillcolor="#e2ee7b"] ;
86 -> 88 ;
89 [label="gini = 0.0\nsamples = 1\nvalue = [0, 0, 0, 3, 0, 0, 0, 0, 0, 0, 0, 0, 0, 0\n0, 0, 0, 0, 0, 0, 0, 0, 0, 0, 0, 0]\nclass = 4", fillcolor="#d4e539"] ;
88 -> 89 ;
90 [label="gini = 0.0\nsamples = 1\nvalue = [0, 0, 0, 0, 0, 0, 1, 0, 0, 0, 0, 0, 0, 0\n0, 0, 0, 0, 0, 0, 0, 0, 0, 0, 0, 0]\nclass = 7", fillcolor="#5be539"] ;
88 -> 90 ;
91 [label="X[61] <= -0.41\ngini = 0.44\nsamples = 3\nvalue = [0, 0, 0, 1, 0, 0, 0, 0, 0, 0, 0, 0, 0, 0\n0, 0, 0, 0, 0, 0, 0, 0, 2, 0, 0, 0]\nclass = 23", fillcolor="#f29cc8"] ;
83 -> 91 ;
92 [label="gini = 0.0\nsamples = 1\nvalue = [0, 0, 0, 1, 0, 0, 0, 0, 0, 0, 0, 0, 0, 0\n0, 0, 0, 0, 0, 0, 0, 0, 0, 0, 0, 0]\nclass = 4", fillcolor="#d4e539"] ;
91 -> 92 ;
93 [label="gini = 0.0\nsamples = 2\nvalue = [0, 0, 0, 0, 0, 0, 0, 0, 0, 0, 0, 0, 0, 0\n0, 0, 0, 0, 0, 0, 0, 0, 2, 0, 0, 0]\nclass = 23", fillcolor="#e53992"] ;
91 -> 93 ;
94 [label="X[86] <= -0.45\ngini = 0.44\nsamples = 2\nvalue = [0, 0, 0, 0, 1, 0, 0, 0, 2, 0, 0, 0, 0, 0\n0, 0, 0, 0, 0, 0, 0, 0, 0, 0, 0, 0]\nclass = 9", fillcolor="#9cf2b2"] ;
80 -> 94 ;
95 [label="gini = 0.0\nsamples = 1\nvalue = [0, 0, 0, 0, 1, 0, 0, 0, 0, 0, 0, 0, 0, 0\n0, 0, 0, 0, 0, 0, 0, 0, 0, 0, 0, 0]\nclass = 5", fillcolor="#ace539"] ;
94 -> 95 ;
96 [label="gini = 0.0\nsamples = 1\nvalue = [0, 0, 0, 0, 0, 0, 0, 0, 2, 0, 0, 0, 0, 0\n0, 0, 0, 0, 0, 0, 0, 0, 0, 0, 0, 0]\nclass = 9", fillcolor="#39e564"] ;
94 -> 96 ;
97 [label="X[50] <= -0.33\ngini = 0.44\nsamples = 5\nvalue = [0, 0, 0, 0, 2, 0, 0, 0, 0, 0, 0, 0, 0, 0\n0, 4, 0, 0, 0, 0, 0, 0, 0, 0, 0, 0]\nclass = 16", fillcolor="#9ca8f2"] ;
67 -> 97 ;
98 [label="gini = 0.0\nsamples = 1\nvalue = [0, 0, 0, 0, 2, 0, 0, 0, 0, 0, 0, 0, 0, 0\n0, 0, 0, 0, 0, 0, 0, 0, 0, 0, 0, 0]\nclass = 5", fillcolor="#ace539"] ;
97 -> 98 ;
99 [label="gini = 0.0\nsamples = 4\nvalue = [0, 0, 0, 0, 0, 0, 0, 0, 0, 0, 0, 0, 0, 0\n0, 4, 0, 0, 0, 0, 0, 0, 0, 0, 0, 0]\nclass = 16", fillcolor="#3950e5"] ;
97 -> 99 ;
100 [label="X[10] <= 3.43\ngini = 0.96\nsamples = 3473\nvalue = [261, 202, 238, 86, 205, 215, 215, 219, 176, 234\n204, 238, 228, 240, 205, 192, 185, 219, 227, 211\n210, 242, 183, 230, 226, 234]\nclass = 1", fillcolor="#fffffe"] ;
0 -> 100 [labeldistance=2.5, labelangle=-45, headlabel="False"] ;
101 [label="X[9] <= 2.29\ngini = 0.96\nsamples = 3435\nvalue = [261, 202, 238, 86, 204, 215, 215, 218, 176, 234\n204, 237, 228, 240, 205, 143, 185, 219, 227, 210\n210, 242, 183, 230, 226, 234]\nclass = 1", fillcolor="#fffffe"] ;
100 -> 101 ;
102 [label="X[1] <= -2.68\ngini = 0.96\nsamples = 3223\nvalue = [259, 201, 238, 85, 201, 207, 213, 204, 175, 112\n196, 228, 213, 240, 205, 138, 172, 219, 213, 205\n195, 210, 178, 218, 222, 200]\nclass = 1", fillcolor="#fffffe"] ;
101 -> 102 ;
103 [label="X[24] <= 0.14\ngini = 0.88\nsamples = 676\nvalue = [92, 90, 108, 0, 5, 6, 0, 6, 0, 0, 163, 10, 8\n0, 8, 1, 164, 0, 1, 4, 8, 11, 126, 22, 181, 39]\nclass = 25", fillcolor="#fffbfb"] ;
102 -> 103 ;
104 [label="X[21] <= 0.41\ngini = 0.86\nsamples = 402\nvalue = [81, 54, 102, 0, 1, 6, 0, 4, 0, 0, 140, 7, 6\n0, 3, 0, 35, 0, 1, 4, 7, 10, 103, 14, 41, 9]\nclass = 11", fillcolor="#f1fdfa"] ;
103 -> 104 ;
105 [label="X[43] <= 0.51\ngini = 0.86\nsamples = 260\nvalue = [73, 47, 70, 0, 1, 3, 0, 4, 0, 0, 18, 5, 6, 0\n2, 0, 32, 0, 1, 2, 7, 10, 93, 12, 20, 3]\nclass = 23", fillcolor="#fdf3f9"] ;
104 -> 105 ;
106 [label="X[18] <= 0.74\ngini = 0.86\nsamples = 197\nvalue = [69, 35, 67, 0, 1, 3, 0, 4, 0, 0, 18, 5, 6, 0\n2, 0, 5, 0, 1, 2, 7, 10, 49, 12, 12, 2]\nclass = 1", fillcolor="#fffefd"] ;
105 -> 106 ;
107 [label="X[14] <= 0.52\ngini = 0.86\nsamples = 142\nvalue = [34, 34, 39, 0, 1, 3, 0, 4, 0, 0, 1, 4, 5, 0\n1, 0, 5, 0, 1, 0, 7, 10, 46, 12, 6, 2]\nclass = 23", fillcolor="#fef7fb"] ;
106 -> 107 ;
108 [label="X[0] <= 3.26\ngini = 0.83\nsamples = 104\nvalue = [26, 32, 12, 0, 1, 3, 0, 2, 0, 0, 1, 2, 4, 0\n0, 0, 1, 0, 1, 0, 7, 10, 44, 2, 5, 0]\nclass = 23", fillcolor="#fcebf4"] ;
107 -> 108 ;
109 [label="X[2] <= -0.69\ngini = 0.82\nsamples = 69\nvalue = [26, 32, 12, 0, 1, 2, 0, 2, 0, 0, 0, 2, 4, 0\n0, 0, 0, 0, 1, 0, 7, 10, 0, 2, 5, 0]\nclass = 2", fillcolor="#fdf8f0"] ;
108 -> 109 ;
110 [label="X[87] <= -0.14\ngini = 0.74\nsamples = 27\nvalue = [20, 0, 1, 0, 1, 2, 0, 2, 0, 0, 0, 1, 3, 0\n0, 0, 0, 0, 0, 0, 2, 10, 0, 0, 3, 0]\nclass = 1", fillcolor="#f8dbc6"] ;
109 -> 110 ;
111 [label="X[69] <= -0.51\ngini = 0.4\nsamples = 13\nvalue = [19, 0, 0, 0, 0, 0, 0, 0, 0, 0, 0, 1, 1, 0\n0, 0, 0, 0, 0, 0, 0, 3, 0, 0, 1, 0]\nclass = 1", fillcolor="#eca36f"] ;
110 -> 111 ;
112 [label="X[16] <= -0.83\ngini = 0.38\nsamples = 2\nvalue = [0, 0, 0, 0, 0, 0, 0, 0, 0, 0, 0, 0, 1, 0\n0, 0, 0, 0, 0, 0, 0, 3, 0, 0, 0, 0]\nclass = 22", fillcolor="#ee7bd1"] ;
111 -> 112 ;
113 [label="gini = 0.0\nsamples = 1\nvalue = [0, 0, 0, 0, 0, 0, 0, 0, 0, 0, 0, 0, 0, 0\n0, 0, 0, 0, 0, 0, 0, 3, 0, 0, 0, 0]\nclass = 22", fillcolor="#e539ba"] ;
112 -> 113 ;
114 [label="gini = 0.0\nsamples = 1\nvalue = [0, 0, 0, 0, 0, 0, 0, 0, 0, 0, 0, 0, 1, 0\n0, 0, 0, 0, 0, 0, 0, 0, 0, 0, 0, 0]\nclass = 13", fillcolor="#39c5e5"] ;
112 -> 114 ;
115 [label="X[0] <= -2.58\ngini = 0.18\nsamples = 11\nvalue = [19, 0, 0, 0, 0, 0, 0, 0, 0, 0, 0, 1, 0, 0\n0, 0, 0, 0, 0, 0, 0, 0, 0, 0, 1, 0]\nclass = 1", fillcolor="#e88e4d"] ;
111 -> 115 ;
116 [label="X[92] <= 0.03\ngini = 0.5\nsamples = 2\nvalue = [0, 0, 0, 0, 0, 0, 0, 0, 0, 0, 0, 1, 0, 0\n0, 0, 0, 0, 0, 0, 0, 0, 0, 0, 1, 0]\nclass = 12", fillcolor="#ffffff"] ;
115 -> 116 ;
117 [label="gini = 0.0\nsamples = 1\nvalue = [0, 0, 0, 0, 0, 0, 0, 0, 0, 0, 0, 0, 0, 0\n0, 0, 0, 0, 0, 0, 0, 0, 0, 0, 1, 0]\nclass = 25", fillcolor="#e53941"] ;
116 -> 117 ;
118 [label="gini = 0.0\nsamples = 1\nvalue = [0, 0, 0, 0, 0, 0, 0, 0, 0, 0, 0, 1, 0, 0\n0, 0, 0, 0, 0, 0, 0, 0, 0, 0, 0, 0]\nclass = 12", fillcolor="#39e5dc"] ;
116 -> 118 ;
119 [label="gini = 0.0\nsamples = 9\nvalue = [19, 0, 0, 0, 0, 0, 0, 0, 0, 0, 0, 0, 0, 0\n0, 0, 0, 0, 0, 0, 0, 0, 0, 0, 0, 0]\nclass = 1", fillcolor="#e58139"] ;
115 -> 119 ;
120 [label="X[30] <= 0.01\ngini = 0.82\nsamples = 14\nvalue = [1, 0, 1, 0, 1, 2, 0, 2, 0, 0, 0, 0, 2, 0\n0, 0, 0, 0, 0, 0, 2, 7, 0, 0, 2, 0]\nclass = 22", fillcolor="#f8c8ec"] ;
110 -> 120 ;
121 [label="X[3] <= -1.76\ngini = 0.61\nsamples = 7\nvalue = [1, 0, 0, 0, 1, 1, 0, 0, 0, 0, 0, 0, 0, 0\n0, 0, 0, 0, 0, 0, 0, 7, 0, 0, 2, 0]\nclass = 22", fillcolor="#f29cdc"] ;
120 -> 121 ;
122 [label="gini = 0.0\nsamples = 3\nvalue = [0, 0, 0, 0, 0, 0, 0, 0, 0, 0, 0, 0, 0, 0\n0, 0, 0, 0, 0, 0, 0, 7, 0, 0, 0, 0]\nclass = 22", fillcolor="#e539ba"] ;
121 -> 122 ;
123 [label="X[82] <= -0.17\ngini = 0.72\nsamples = 4\nvalue = [1, 0, 0, 0, 1, 1, 0, 0, 0, 0, 0, 0, 0, 0\n0, 0, 0, 0, 0, 0, 0, 0, 0, 0, 2, 0]\nclass = 25", fillcolor="#f8ced0"] ;
121 -> 123 ;
124 [label="gini = 0.0\nsamples = 1\nvalue = [0, 0, 0, 0, 0, 0, 0, 0, 0, 0, 0, 0, 0, 0\n0, 0, 0, 0, 0, 0, 0, 0, 0, 0, 2, 0]\nclass = 25", fillcolor="#e53941"] ;
123 -> 124 ;
125 [label="X[53] <= 0.18\ngini = 0.67\nsamples = 3\nvalue = [1, 0, 0, 0, 1, 1, 0, 0, 0, 0, 0, 0, 0, 0\n0, 0, 0, 0, 0, 0, 0, 0, 0, 0, 0, 0]\nclass = 1", fillcolor="#ffffff"] ;
123 -> 125 ;
126 [label="gini = 0.0\nsamples = 1\nvalue = [1, 0, 0, 0, 0, 0, 0, 0, 0, 0, 0, 0, 0, 0\n0, 0, 0, 0, 0, 0, 0, 0, 0, 0, 0, 0]\nclass = 1", fillcolor="#e58139"] ;
125 -> 126 ;
127 [label="X[20] <= -0.12\ngini = 0.5\nsamples = 2\nvalue = [0, 0, 0, 0, 1, 1, 0, 0, 0, 0, 0, 0, 0, 0\n0, 0, 0, 0, 0, 0, 0, 0, 0, 0, 0, 0]\nclass = 5", fillcolor="#ffffff"] ;
125 -> 127 ;
128 [label="gini = 0.0\nsamples = 1\nvalue = [0, 0, 0, 0, 0, 1, 0, 0, 0, 0, 0, 0, 0, 0\n0, 0, 0, 0, 0, 0, 0, 0, 0, 0, 0, 0]\nclass = 6", fillcolor="#83e539"] ;
127 -> 128 ;
129 [label="gini = 0.0\nsamples = 1\nvalue = [0, 0, 0, 0, 1, 0, 0, 0, 0, 0, 0, 0, 0, 0\n0, 0, 0, 0, 0, 0, 0, 0, 0, 0, 0, 0]\nclass = 5", fillcolor="#ace539"] ;
127 -> 129 ;
130 [label="X[5] <= -1.07\ngini = 0.78\nsamples = 7\nvalue = [0, 0, 1, 0, 0, 1, 0, 2, 0, 0, 0, 0, 2, 0\n0, 0, 0, 0, 0, 0, 2, 0, 0, 0, 0, 0]\nclass = 8", fillcolor="#ffffff"] ;
120 -> 130 ;
131 [label="gini = 0.0\nsamples = 1\nvalue = [0, 0, 0, 0, 0, 0, 0, 0, 0, 0, 0, 0, 2, 0\n0, 0, 0, 0, 0, 0, 0, 0, 0, 0, 0, 0]\nclass = 13", fillcolor="#39c5e5"] ;
130 -> 131 ;
132 [label="X[4] <= 0.36\ngini = 0.72\nsamples = 6\nvalue = [0, 0, 1, 0, 0, 1, 0, 2, 0, 0, 0, 0, 0, 0\n0, 0, 0, 0, 0, 0, 2, 0, 0, 0, 0, 0]\nclass = 8", fillcolor="#ffffff"] ;
130 -> 132 ;
133 [label="X[39] <= -0.3\ngini = 0.62\nsamples = 4\nvalue = [0, 0, 1, 0, 0, 1, 0, 0, 0, 0, 0, 0, 0, 0\n0, 0, 0, 0, 0, 0, 2, 0, 0, 0, 0, 0]\nclass = 21", fillcolor="#f6bdf5"] ;
132 -> 133 ;
134 [label="X[28] <= 0.5\ngini = 0.5\nsamples = 2\nvalue = [0, 0, 1, 0, 0, 1, 0, 0, 0, 0, 0, 0, 0, 0\n0, 0, 0, 0, 0, 0, 0, 0, 0, 0, 0, 0]\nclass = 3", fillcolor="#ffffff"] ;
133 -> 134 ;
135 [label="gini = 0.0\nsamples = 1\nvalue = [0, 0, 0, 0, 0, 1, 0, 0, 0, 0, 0, 0, 0, 0\n0, 0, 0, 0, 0, 0, 0, 0, 0, 0, 0, 0]\nclass = 6", fillcolor="#83e539"] ;
134 -> 135 ;
136 [label="gini = 0.0\nsamples = 1\nvalue = [0, 0, 1, 0, 0, 0, 0, 0, 0, 0, 0, 0, 0, 0\n0, 0, 0, 0, 0, 0, 0, 0, 0, 0, 0, 0]\nclass = 3", fillcolor="#e5ce39"] ;
134 -> 136 ;
137 [label="gini = 0.0\nsamples = 2\nvalue = [0, 0, 0, 0, 0, 0, 0, 0, 0, 0, 0, 0, 0, 0\n0, 0, 0, 0, 0, 0, 2, 0, 0, 0, 0, 0]\nclass = 21", fillcolor="#e539e2"] ;
133 -> 137 ;
138 [label="gini = 0.0\nsamples = 2\nvalue = [0, 0, 0, 0, 0, 0, 0, 2, 0, 0, 0, 0, 0, 0\n0, 0, 0, 0, 0, 0, 0, 0, 0, 0, 0, 0]\nclass = 8", fillcolor="#39e53c"] ;
132 -> 138 ;
139 [label="X[60] <= 0.16\ngini = 0.67\nsamples = 42\nvalue = [6, 32, 11, 0, 0, 0, 0, 0, 0, 0, 0, 1, 1, 0\n0, 0, 0, 0, 1, 0, 5, 0, 0, 2, 2, 0]\nclass = 2", fillcolor="#f4daac"] ;
109 -> 139 ;
140 [label="X[65] <= -0.57\ngini = 0.53\nsamples = 34\nvalue = [3, 32, 3, 0, 0, 0, 0, 0, 0, 0, 0, 1, 1, 0\n0, 0, 0, 0, 1, 0, 5, 0, 0, 2, 0, 0]\nclass = 2", fillcolor="#efc783"] ;
139 -> 140 ;
141 [label="gini = 0.0\nsamples = 2\nvalue = [0, 0, 3, 0, 0, 0, 0, 0, 0, 0, 0, 0, 0, 0\n0, 0, 0, 0, 0, 0, 0, 0, 0, 0, 0, 0]\nclass = 3", fillcolor="#e5ce39"] ;
140 -> 141 ;
142 [label="X[72] <= 0.29\ngini = 0.47\nsamples = 32\nvalue = [3, 32, 0, 0, 0, 0, 0, 0, 0, 0, 0, 1, 1, 0\n0, 0, 0, 0, 1, 0, 5, 0, 0, 2, 0, 0]\nclass = 2", fillcolor="#edc379"] ;
140 -> 142 ;
143 [label="X[64] <= -0.06\ngini = 0.4\nsamples = 30\nvalue = [1, 32, 0, 0, 0, 0, 0, 0, 0, 0, 0, 1, 0, 0\n0, 0, 0, 0, 1, 0, 5, 0, 0, 2, 0, 0]\nclass = 2", fillcolor="#ecbe6f"] ;
142 -> 143 ;
144 [label="X[7] <= -1.02\ngini = 0.13\nsamples = 20\nvalue = [0, 27, 0, 0, 0, 0, 0, 0, 0, 0, 0, 1, 0, 0\n0, 0, 0, 0, 1, 0, 0, 0, 0, 0, 0, 0]\nclass = 2", fillcolor="#e7ac47"] ;
143 -> 144 ;
145 [label="X[86] <= -0.06\ngini = 0.5\nsamples = 2\nvalue = [0, 0, 0, 0, 0, 0, 0, 0, 0, 0, 0, 1, 0, 0\n0, 0, 0, 0, 1, 0, 0, 0, 0, 0, 0, 0]\nclass = 12", fillcolor="#ffffff"] ;
144 -> 145 ;
146 [label="gini = 0.0\nsamples = 1\nvalue = [0, 0, 0, 0, 0, 0, 0, 0, 0, 0, 0, 1, 0, 0\n0, 0, 0, 0, 0, 0, 0, 0, 0, 0, 0, 0]\nclass = 12", fillcolor="#39e5dc"] ;
145 -> 146 ;
147 [label="gini = 0.0\nsamples = 1\nvalue = [0, 0, 0, 0, 0, 0, 0, 0, 0, 0, 0, 0, 0, 0\n0, 0, 0, 0, 1, 0, 0, 0, 0, 0, 0, 0]\nclass = 19", fillcolor="#9a39e5"] ;
145 -> 147 ;
148 [label="gini = 0.0\nsamples = 18\nvalue = [0, 27, 0, 0, 0, 0, 0, 0, 0, 0, 0, 0, 0, 0\n0, 0, 0, 0, 0, 0, 0, 0, 0, 0, 0, 0]\nclass = 2", fillcolor="#e5a639"] ;
144 -> 148 ;
149 [label="X[92] <= 0.09\ngini = 0.67\nsamples = 10\nvalue = [1, 5, 0, 0, 0, 0, 0, 0, 0, 0, 0, 0, 0, 0\n0, 0, 0, 0, 0, 0, 5, 0, 0, 2, 0, 0]\nclass = 2", fillcolor="#ffffff"] ;
143 -> 149 ;
150 [label="X[13] <= -0.45\ngini = 0.28\nsamples = 5\nvalue = [1, 0, 0, 0, 0, 0, 0, 0, 0, 0, 0, 0, 0, 0\n0, 0, 0, 0, 0, 0, 5, 0, 0, 0, 0, 0]\nclass = 21", fillcolor="#ea61e8"] ;
149 -> 150 ;
151 [label="gini = 0.0\nsamples = 1\nvalue = [1, 0, 0, 0, 0, 0, 0, 0, 0, 0, 0, 0, 0, 0\n0, 0, 0, 0, 0, 0, 0, 0, 0, 0, 0, 0]\nclass = 1", fillcolor="#e58139"] ;
150 -> 151 ;
152 [label="gini = 0.0\nsamples = 4\nvalue = [0, 0, 0, 0, 0, 0, 0, 0, 0, 0, 0, 0, 0, 0\n0, 0, 0, 0, 0, 0, 5, 0, 0, 0, 0, 0]\nclass = 21", fillcolor="#e539e2"] ;
150 -> 152 ;
153 [label="X[7] <= 1.11\ngini = 0.41\nsamples = 5\nvalue = [0, 5, 0, 0, 0, 0, 0, 0, 0, 0, 0, 0, 0, 0\n0, 0, 0, 0, 0, 0, 0, 0, 0, 2, 0, 0]\nclass = 2", fillcolor="#efca88"] ;
149 -> 153 ;
154 [label="gini = 0.0\nsamples = 2\nvalue = [0, 4, 0, 0, 0, 0, 0, 0, 0, 0, 0, 0, 0, 0\n0, 0, 0, 0, 0, 0, 0, 0, 0, 0, 0, 0]\nclass = 2", fillcolor="#e5a639"] ;
153 -> 154 ;
155 [label="X[27] <= 0.87\ngini = 0.44\nsamples = 3\nvalue = [0, 1, 0, 0, 0, 0, 0, 0, 0, 0, 0, 0, 0, 0\n0, 0, 0, 0, 0, 0, 0, 0, 0, 2, 0, 0]\nclass = 24", fillcolor="#f29cb4"] ;
153 -> 155 ;
156 [label="gini = 0.0\nsamples = 2\nvalue = [0, 0, 0, 0, 0, 0, 0, 0, 0, 0, 0, 0, 0, 0\n0, 0, 0, 0, 0, 0, 0, 0, 0, 2, 0, 0]\nclass = 24", fillcolor="#e5396a"] ;
155 -> 156 ;
157 [label="gini = 0.0\nsamples = 1\nvalue = [0, 1, 0, 0, 0, 0, 0, 0, 0, 0, 0, 0, 0, 0\n0, 0, 0, 0, 0, 0, 0, 0, 0, 0, 0, 0]\nclass = 2", fillcolor="#e5a639"] ;
155 -> 157 ;
158 [label="X[27] <= 0.27\ngini = 0.44\nsamples = 2\nvalue = [2, 0, 0, 0, 0, 0, 0, 0, 0, 0, 0, 0, 1, 0\n0, 0, 0, 0, 0, 0, 0, 0, 0, 0, 0, 0]\nclass = 1", fillcolor="#f2c09c"] ;
142 -> 158 ;
159 [label="gini = 0.0\nsamples = 1\nvalue = [0, 0, 0, 0, 0, 0, 0, 0, 0, 0, 0, 0, 1, 0\n0, 0, 0, 0, 0, 0, 0, 0, 0, 0, 0, 0]\nclass = 13", fillcolor="#39c5e5"] ;
158 -> 159 ;
160 [label="gini = 0.0\nsamples = 1\nvalue = [2, 0, 0, 0, 0, 0, 0, 0, 0, 0, 0, 0, 0, 0\n0, 0, 0, 0, 0, 0, 0, 0, 0, 0, 0, 0]\nclass = 1", fillcolor="#e58139"] ;
158 -> 160 ;
161 [label="X[97] <= -0.28\ngini = 0.54\nsamples = 8\nvalue = [3, 0, 8, 0, 0, 0, 0, 0, 0, 0, 0, 0, 0, 0\n0, 0, 0, 0, 0, 0, 0, 0, 0, 0, 2, 0]\nclass = 3", fillcolor="#f2e69c"] ;
139 -> 161 ;
162 [label="X[59] <= -0.06\ngini = 0.5\nsamples = 2\nvalue = [2, 0, 0, 0, 0, 0, 0, 0, 0, 0, 0, 0, 0, 0\n0, 0, 0, 0, 0, 0, 0, 0, 0, 0, 2, 0]\nclass = 1", fillcolor="#ffffff"] ;
161 -> 162 ;
163 [label="gini = 0.0\nsamples = 1\nvalue = [2, 0, 0, 0, 0, 0, 0, 0, 0, 0, 0, 0, 0, 0\n0, 0, 0, 0, 0, 0, 0, 0, 0, 0, 0, 0]\nclass = 1", fillcolor="#e58139"] ;
162 -> 163 ;
164 [label="gini = 0.0\nsamples = 1\nvalue = [0, 0, 0, 0, 0, 0, 0, 0, 0, 0, 0, 0, 0, 0\n0, 0, 0, 0, 0, 0, 0, 0, 0, 0, 2, 0]\nclass = 25", fillcolor="#e53941"] ;
162 -> 164 ;
165 [label="X[65] <= -0.3\ngini = 0.2\nsamples = 6\nvalue = [1, 0, 8, 0, 0, 0, 0, 0, 0, 0, 0, 0, 0, 0\n0, 0, 0, 0, 0, 0, 0, 0, 0, 0, 0, 0]\nclass = 3", fillcolor="#e8d452"] ;
161 -> 165 ;
166 [label="gini = 0.0\nsamples = 1\nvalue = [1, 0, 0, 0, 0, 0, 0, 0, 0, 0, 0, 0, 0, 0\n0, 0, 0, 0, 0, 0, 0, 0, 0, 0, 0, 0]\nclass = 1", fillcolor="#e58139"] ;
165 -> 166 ;
167 [label="gini = 0.0\nsamples = 5\nvalue = [0, 0, 8, 0, 0, 0, 0, 0, 0, 0, 0, 0, 0, 0\n0, 0, 0, 0, 0, 0, 0, 0, 0, 0, 0, 0]\nclass = 3", fillcolor="#e5ce39"] ;
165 -> 167 ;
168 [label="X[21] <= 0.35\ngini = 0.12\nsamples = 35\nvalue = [0, 0, 0, 0, 0, 1, 0, 0, 0, 0, 1, 0, 0, 0\n0, 0, 1, 0, 0, 0, 0, 0, 44, 0, 0, 0]\nclass = 23", fillcolor="#e74699"] ;
108 -> 168 ;
169 [label="X[8] <= 2.66\ngini = 0.09\nsamples = 33\nvalue = [0, 0, 0, 0, 0, 1, 0, 0, 0, 0, 0, 0, 0, 0\n0, 0, 1, 0, 0, 0, 0, 0, 43, 0, 0, 0]\nclass = 23", fillcolor="#e64297"] ;
168 -> 169 ;
170 [label="X[85] <= 0.57\ngini = 0.04\nsamples = 32\nvalue = [0, 0, 0, 0, 0, 0, 0, 0, 0, 0, 0, 0, 0, 0\n0, 0, 1, 0, 0, 0, 0, 0, 43, 0, 0, 0]\nclass = 23", fillcolor="#e63e95"] ;
169 -> 170 ;
171 [label="gini = 0.0\nsamples = 30\nvalue = [0, 0, 0, 0, 0, 0, 0, 0, 0, 0, 0, 0, 0, 0\n0, 0, 0, 0, 0, 0, 0, 0, 42, 0, 0, 0]\nclass = 23", fillcolor="#e53992"] ;
170 -> 171 ;
172 [label="X[95] <= -0.15\ngini = 0.5\nsamples = 2\nvalue = [0, 0, 0, 0, 0, 0, 0, 0, 0, 0, 0, 0, 0, 0\n0, 0, 1, 0, 0, 0, 0, 0, 1, 0, 0, 0]\nclass = 17", fillcolor="#ffffff"] ;
170 -> 172 ;
173 [label="gini = 0.0\nsamples = 1\nvalue = [0, 0, 0, 0, 0, 0, 0, 0, 0, 0, 0, 0, 0, 0\n0, 0, 1, 0, 0, 0, 0, 0, 0, 0, 0, 0]\nclass = 17", fillcolor="#4a39e5"] ;
172 -> 173 ;
174 [label="gini = 0.0\nsamples = 1\nvalue = [0, 0, 0, 0, 0, 0, 0, 0, 0, 0, 0, 0, 0, 0\n0, 0, 0, 0, 0, 0, 0, 0, 1, 0, 0, 0]\nclass = 23", fillcolor="#e53992"] ;
172 -> 174 ;
175 [label="gini = 0.0\nsamples = 1\nvalue = [0, 0, 0, 0, 0, 1, 0, 0, 0, 0, 0, 0, 0, 0\n0, 0, 0, 0, 0, 0, 0, 0, 0, 0, 0, 0]\nclass = 6", fillcolor="#83e539"] ;
169 -> 175 ;
176 [label="X[87] <= -0.05\ngini = 0.5\nsamples = 2\nvalue = [0, 0, 0, 0, 0, 0, 0, 0, 0, 0, 1, 0, 0, 0\n0, 0, 0, 0, 0, 0, 0, 0, 1, 0, 0, 0]\nclass = 11", fillcolor="#ffffff"] ;
168 -> 176 ;
177 [label="gini = 0.0\nsamples = 1\nvalue = [0, 0, 0, 0, 0, 0, 0, 0, 0, 0, 1, 0, 0, 0\n0, 0, 0, 0, 0, 0, 0, 0, 0, 0, 0, 0]\nclass = 11", fillcolor="#39e5b4"] ;
176 -> 177 ;
178 [label="gini = 0.0\nsamples = 1\nvalue = [0, 0, 0, 0, 0, 0, 0, 0, 0, 0, 0, 0, 0, 0\n0, 0, 0, 0, 0, 0, 0, 0, 1, 0, 0, 0]\nclass = 23", fillcolor="#e53992"] ;
176 -> 178 ;
179 [label="X[7] <= 0.64\ngini = 0.76\nsamples = 38\nvalue = [8, 2, 27, 0, 0, 0, 0, 2, 0, 0, 0, 2, 1, 0\n1, 0, 4, 0, 0, 0, 0, 0, 2, 10, 1, 2]\nclass = 3", fillcolor="#f6efbe"] ;
107 -> 179 ;
180 [label="X[8] <= 0.52\ngini = 0.86\nsamples = 25\nvalue = [8, 2, 3, 0, 0, 0, 0, 2, 0, 0, 0, 2, 0, 0\n1, 0, 4, 0, 0, 0, 0, 0, 2, 7, 1, 2]\nclass = 1", fillcolor="#fefaf8"] ;
179 -> 180 ;
181 [label="X[42] <= 1.03\ngini = 0.83\nsamples = 17\nvalue = [0, 1, 3, 0, 0, 0, 0, 2, 0, 0, 0, 0, 0, 0\n1, 0, 4, 0, 0, 0, 0, 0, 2, 7, 1, 2]\nclass = 24", fillcolor="#fbe0e7"] ;
180 -> 181 ;
182 [label="X[7] <= 0.09\ngini = 0.8\nsamples = 14\nvalue = [0, 1, 3, 0, 0, 0, 0, 2, 0, 0, 0, 0, 0, 0\n1, 0, 0, 0, 0, 0, 0, 0, 2, 7, 1, 2]\nclass = 24", fillcolor="#f8ceda"] ;
181 -> 182 ;
183 [label="X[63] <= 0.14\ngini = 0.83\nsamples = 9\nvalue = [0, 1, 3, 0, 0, 0, 0, 2, 0, 0, 0, 0, 0, 0\n1, 0, 0, 0, 0, 0, 0, 0, 1, 0, 1, 2]\nclass = 3", fillcolor="#fcfae9"] ;
182 -> 183 ;
184 [label="X[67] <= -0.53\ngini = 0.81\nsamples = 7\nvalue = [0, 1, 0, 0, 0, 0, 0, 2, 0, 0, 0, 0, 0, 0\n1, 0, 0, 0, 0, 0, 0, 0, 1, 0, 1, 2]\nclass = 8", fillcolor="#ffffff"] ;
183 -> 184 ;
185 [label="gini = 0.0\nsamples = 1\nvalue = [0, 0, 0, 0, 0, 0, 0, 0, 0, 0, 0, 0, 0, 0\n0, 0, 0, 0, 0, 0, 0, 0, 0, 0, 0, 2]\nclass = 26", fillcolor="#e55839"] ;
184 -> 185 ;
186 [label="X[88] <= 0.15\ngini = 0.78\nsamples = 6\nvalue = [0, 1, 0, 0, 0, 0, 0, 2, 0, 0, 0, 0, 0, 0\n1, 0, 0, 0, 0, 0, 0, 0, 1, 0, 1, 0]\nclass = 8", fillcolor="#d7fad8"] ;
184 -> 186 ;
187 [label="X[41] <= -0.98\ngini = 0.75\nsamples = 4\nvalue = [0, 1, 0, 0, 0, 0, 0, 0, 0, 0, 0, 0, 0, 0\n1, 0, 0, 0, 0, 0, 0, 0, 1, 0, 1, 0]\nclass = 2", fillcolor="#ffffff"] ;
186 -> 187 ;
188 [label="gini = 0.0\nsamples = 1\nvalue = [0, 1, 0, 0, 0, 0, 0, 0, 0, 0, 0, 0, 0, 0\n0, 0, 0, 0, 0, 0, 0, 0, 0, 0, 0, 0]\nclass = 2", fillcolor="#e5a639"] ;
187 -> 188 ;
189 [label="X[16] <= 0.12\ngini = 0.67\nsamples = 3\nvalue = [0, 0, 0, 0, 0, 0, 0, 0, 0, 0, 0, 0, 0, 0\n1, 0, 0, 0, 0, 0, 0, 0, 1, 0, 1, 0]\nclass = 15", fillcolor="#ffffff"] ;
187 -> 189 ;
190 [label="gini = 0.0\nsamples = 1\nvalue = [0, 0, 0, 0, 0, 0, 0, 0, 0, 0, 0, 0, 0, 0\n0, 0, 0, 0, 0, 0, 0, 0, 0, 0, 1, 0]\nclass = 25", fillcolor="#e53941"] ;
189 -> 190 ;
191 [label="X[91] <= 0.3\ngini = 0.5\nsamples = 2\nvalue = [0, 0, 0, 0, 0, 0, 0, 0, 0, 0, 0, 0, 0, 0\n1, 0, 0, 0, 0, 0, 0, 0, 1, 0, 0, 0]\nclass = 15", fillcolor="#ffffff"] ;
189 -> 191 ;
192 [label="gini = 0.0\nsamples = 1\nvalue = [0, 0, 0, 0, 0, 0, 0, 0, 0, 0, 0, 0, 0, 0\n0, 0, 0, 0, 0, 0, 0, 0, 1, 0, 0, 0]\nclass = 23", fillcolor="#e53992"] ;
191 -> 192 ;
193 [label="gini = 0.0\nsamples = 1\nvalue = [0, 0, 0, 0, 0, 0, 0, 0, 0, 0, 0, 0, 0, 0\n1, 0, 0, 0, 0, 0, 0, 0, 0, 0, 0, 0]\nclass = 15", fillcolor="#3978e5"] ;
191 -> 193 ;
194 [label="gini = 0.0\nsamples = 2\nvalue = [0, 0, 0, 0, 0, 0, 0, 2, 0, 0, 0, 0, 0, 0\n0, 0, 0, 0, 0, 0, 0, 0, 0, 0, 0, 0]\nclass = 8", fillcolor="#39e53c"] ;
186 -> 194 ;
195 [label="gini = 0.0\nsamples = 2\nvalue = [0, 0, 3, 0, 0, 0, 0, 0, 0, 0, 0, 0, 0, 0\n0, 0, 0, 0, 0, 0, 0, 0, 0, 0, 0, 0]\nclass = 3", fillcolor="#e5ce39"] ;
183 -> 195 ;
196 [label="X[92] <= 0.23\ngini = 0.22\nsamples = 5\nvalue = [0, 0, 0, 0, 0, 0, 0, 0, 0, 0, 0, 0, 0, 0\n0, 0, 0, 0, 0, 0, 0, 0, 1, 7, 0, 0]\nclass = 24", fillcolor="#e9557f"] ;
182 -> 196 ;
197 [label="gini = 0.0\nsamples = 4\nvalue = [0, 0, 0, 0, 0, 0, 0, 0, 0, 0, 0, 0, 0, 0\n0, 0, 0, 0, 0, 0, 0, 0, 0, 7, 0, 0]\nclass = 24", fillcolor="#e5396a"] ;
196 -> 197 ;
198 [label="gini = 0.0\nsamples = 1\nvalue = [0, 0, 0, 0, 0, 0, 0, 0, 0, 0, 0, 0, 0, 0\n0, 0, 0, 0, 0, 0, 0, 0, 1, 0, 0, 0]\nclass = 23", fillcolor="#e53992"] ;
196 -> 198 ;
199 [label="gini = 0.0\nsamples = 3\nvalue = [0, 0, 0, 0, 0, 0, 0, 0, 0, 0, 0, 0, 0, 0\n0, 0, 4, 0, 0, 0, 0, 0, 0, 0, 0, 0]\nclass = 17", fillcolor="#4a39e5"] ;
181 -> 199 ;
200 [label="X[80] <= -0.32\ngini = 0.43\nsamples = 8\nvalue = [8, 1, 0, 0, 0, 0, 0, 0, 0, 0, 0, 2, 0, 0\n0, 0, 0, 0, 0, 0, 0, 0, 0, 0, 0, 0]\nclass = 1", fillcolor="#eeab7b"] ;
180 -> 200 ;
201 [label="X[2] <= 0.8\ngini = 0.44\nsamples = 2\nvalue = [0, 1, 0, 0, 0, 0, 0, 0, 0, 0, 0, 2, 0, 0\n0, 0, 0, 0, 0, 0, 0, 0, 0, 0, 0, 0]\nclass = 12", fillcolor="#9cf2ee"] ;
200 -> 201 ;
202 [label="gini = 0.0\nsamples = 1\nvalue = [0, 0, 0, 0, 0, 0, 0, 0, 0, 0, 0, 2, 0, 0\n0, 0, 0, 0, 0, 0, 0, 0, 0, 0, 0, 0]\nclass = 12", fillcolor="#39e5dc"] ;
201 -> 202 ;
203 [label="gini = 0.0\nsamples = 1\nvalue = [0, 1, 0, 0, 0, 0, 0, 0, 0, 0, 0, 0, 0, 0\n0, 0, 0, 0, 0, 0, 0, 0, 0, 0, 0, 0]\nclass = 2", fillcolor="#e5a639"] ;
201 -> 203 ;
204 [label="gini = 0.0\nsamples = 6\nvalue = [8, 0, 0, 0, 0, 0, 0, 0, 0, 0, 0, 0, 0, 0\n0, 0, 0, 0, 0, 0, 0, 0, 0, 0, 0, 0]\nclass = 1", fillcolor="#e58139"] ;
200 -> 204 ;
205 [label="X[74] <= -0.59\ngini = 0.25\nsamples = 13\nvalue = [0, 0, 24, 0, 0, 0, 0, 0, 0, 0, 0, 0, 1, 0\n0, 0, 0, 0, 0, 0, 0, 0, 0, 3, 0, 0]\nclass = 3", fillcolor="#e9d659"] ;
179 -> 205 ;
206 [label="gini = 0.0\nsamples = 1\nvalue = [0, 0, 0, 0, 0, 0, 0, 0, 0, 0, 0, 0, 0, 0\n0, 0, 0, 0, 0, 0, 0, 0, 0, 3, 0, 0]\nclass = 24", fillcolor="#e5396a"] ;
205 -> 206 ;
207 [label="X[65] <= 0.35\ngini = 0.08\nsamples = 12\nvalue = [0, 0, 24, 0, 0, 0, 0, 0, 0, 0, 0, 0, 1, 0\n0, 0, 0, 0, 0, 0, 0, 0, 0, 0, 0, 0]\nclass = 3", fillcolor="#e6d041"] ;
205 -> 207 ;
208 [label="gini = 0.0\nsamples = 11\nvalue = [0, 0, 24, 0, 0, 0, 0, 0, 0, 0, 0, 0, 0, 0\n0, 0, 0, 0, 0, 0, 0, 0, 0, 0, 0, 0]\nclass = 3", fillcolor="#e5ce39"] ;
207 -> 208 ;
209 [label="gini = 0.0\nsamples = 1\nvalue = [0, 0, 0, 0, 0, 0, 0, 0, 0, 0, 0, 0, 1, 0\n0, 0, 0, 0, 0, 0, 0, 0, 0, 0, 0, 0]\nclass = 13", fillcolor="#39c5e5"] ;
207 -> 209 ;
210 [label="X[45] <= 0.03\ngini = 0.74\nsamples = 55\nvalue = [35, 1, 28, 0, 0, 0, 0, 0, 0, 0, 17, 1, 1, 0\n1, 0, 0, 0, 0, 2, 0, 0, 3, 0, 6, 0]\nclass = 1", fillcolor="#fcf2ea"] ;
106 -> 210 ;
211 [label="X[3] <= -1.13\ngini = 0.61\nsamples = 31\nvalue = [32, 0, 5, 0, 0, 0, 0, 0, 0, 0, 15, 0, 1, 0\n0, 0, 0, 0, 0, 2, 0, 0, 0, 0, 2, 0]\nclass = 1", fillcolor="#f4ccaf"] ;
210 -> 211 ;
212 [label="X[25] <= -1.2\ngini = 0.15\nsamples = 14\nvalue = [23, 0, 0, 0, 0, 0, 0, 0, 0, 0, 0, 0, 0, 0\n0, 0, 0, 0, 0, 0, 0, 0, 0, 0, 2, 0]\nclass = 1", fillcolor="#e78c4a"] ;
211 -> 212 ;
213 [label="gini = 0.0\nsamples = 1\nvalue = [0, 0, 0, 0, 0, 0, 0, 0, 0, 0, 0, 0, 0, 0\n0, 0, 0, 0, 0, 0, 0, 0, 0, 0, 2, 0]\nclass = 25", fillcolor="#e53941"] ;
212 -> 213 ;
214 [label="gini = 0.0\nsamples = 13\nvalue = [23, 0, 0, 0, 0, 0, 0, 0, 0, 0, 0, 0, 0, 0\n0, 0, 0, 0, 0, 0, 0, 0, 0, 0, 0, 0]\nclass = 1", fillcolor="#e58139"] ;
212 -> 214 ;
215 [label="X[18] <= 1.25\ngini = 0.67\nsamples = 17\nvalue = [9, 0, 5, 0, 0, 0, 0, 0, 0, 0, 15, 0, 1, 0\n0, 0, 0, 0, 0, 2, 0, 0, 0, 0, 0, 0]\nclass = 11", fillcolor="#cbf8eb"] ;
211 -> 215 ;
216 [label="X[12] <= -0.21\ngini = 0.7\nsamples = 10\nvalue = [8, 0, 5, 0, 0, 0, 0, 0, 0, 0, 2, 0, 1, 0\n0, 0, 0, 0, 0, 2, 0, 0, 0, 0, 0, 0]\nclass = 1", fillcolor="#f9e2d1"] ;
215 -> 216 ;
217 [label="gini = 0.0\nsamples = 4\nvalue = [8, 0, 0, 0, 0, 0, 0, 0, 0, 0, 0, 0, 0, 0\n0, 0, 0, 0, 0, 0, 0, 0, 0, 0, 0, 0]\nclass = 1", fillcolor="#e58139"] ;
216 -> 217 ;
218 [label="X[62] <= -0.11\ngini = 0.66\nsamples = 6\nvalue = [0, 0, 5, 0, 0, 0, 0, 0, 0, 0, 2, 0, 1, 0\n0, 0, 0, 0, 0, 2, 0, 0, 0, 0, 0, 0]\nclass = 3", fillcolor="#f5edb5"] ;
216 -> 218 ;
219 [label="X[50] <= 0.11\ngini = 0.64\nsamples = 3\nvalue = [0, 0, 0, 0, 0, 0, 0, 0, 0, 0, 2, 0, 1, 0\n0, 0, 0, 0, 0, 2, 0, 0, 0, 0, 0, 0]\nclass = 11", fillcolor="#ffffff"] ;
218 -> 219 ;
220 [label="gini = 0.0\nsamples = 1\nvalue = [0, 0, 0, 0, 0, 0, 0, 0, 0, 0, 0, 0, 0, 0\n0, 0, 0, 0, 0, 2, 0, 0, 0, 0, 0, 0]\nclass = 20", fillcolor="#c339e5"] ;
219 -> 220 ;
221 [label="X[91] <= -0.01\ngini = 0.44\nsamples = 2\nvalue = [0, 0, 0, 0, 0, 0, 0, 0, 0, 0, 2, 0, 1, 0\n0, 0, 0, 0, 0, 0, 0, 0, 0, 0, 0, 0]\nclass = 11", fillcolor="#9cf2da"] ;
219 -> 221 ;
222 [label="gini = 0.0\nsamples = 1\nvalue = [0, 0, 0, 0, 0, 0, 0, 0, 0, 0, 0, 0, 1, 0\n0, 0, 0, 0, 0, 0, 0, 0, 0, 0, 0, 0]\nclass = 13", fillcolor="#39c5e5"] ;
221 -> 222 ;
223 [label="gini = 0.0\nsamples = 1\nvalue = [0, 0, 0, 0, 0, 0, 0, 0, 0, 0, 2, 0, 0, 0\n0, 0, 0, 0, 0, 0, 0, 0, 0, 0, 0, 0]\nclass = 11", fillcolor="#39e5b4"] ;
221 -> 223 ;
224 [label="gini = 0.0\nsamples = 3\nvalue = [0, 0, 5, 0, 0, 0, 0, 0, 0, 0, 0, 0, 0, 0\n0, 0, 0, 0, 0, 0, 0, 0, 0, 0, 0, 0]\nclass = 3", fillcolor="#e5ce39"] ;
218 -> 224 ;
225 [label="X[6] <= -0.4\ngini = 0.13\nsamples = 7\nvalue = [1, 0, 0, 0, 0, 0, 0, 0, 0, 0, 13, 0, 0, 0\n0, 0, 0, 0, 0, 0, 0, 0, 0, 0, 0, 0]\nclass = 11", fillcolor="#48e7ba"] ;
215 -> 225 ;
226 [label="gini = 0.0\nsamples = 1\nvalue = [1, 0, 0, 0, 0, 0, 0, 0, 0, 0, 0, 0, 0, 0\n0, 0, 0, 0, 0, 0, 0, 0, 0, 0, 0, 0]\nclass = 1", fillcolor="#e58139"] ;
225 -> 226 ;
227 [label="gini = 0.0\nsamples = 6\nvalue = [0, 0, 0, 0, 0, 0, 0, 0, 0, 0, 13, 0, 0, 0\n0, 0, 0, 0, 0, 0, 0, 0, 0, 0, 0, 0]\nclass = 11", fillcolor="#39e5b4"] ;
225 -> 227 ;
228 [label="X[4] <= 0.78\ngini = 0.61\nsamples = 24\nvalue = [3, 1, 23, 0, 0, 0, 0, 0, 0, 0, 2, 1, 0, 0\n1, 0, 0, 0, 0, 0, 0, 0, 3, 0, 4, 0]\nclass = 3", fillcolor="#f0e490"] ;
210 -> 228 ;
229 [label="X[46] <= -0.04\ngini = 0.15\nsamples = 13\nvalue = [1, 1, 23, 0, 0, 0, 0, 0, 0, 0, 0, 0, 0, 0\n0, 0, 0, 0, 0, 0, 0, 0, 0, 0, 0, 0]\nclass = 3", fillcolor="#e7d249"] ;
228 -> 229 ;
230 [label="X[6] <= -2.11\ngini = 0.5\nsamples = 2\nvalue = [1, 1, 0, 0, 0, 0, 0, 0, 0, 0, 0, 0, 0, 0\n0, 0, 0, 0, 0, 0, 0, 0, 0, 0, 0, 0]\nclass = 1", fillcolor="#ffffff"] ;
229 -> 230 ;
231 [label="gini = 0.0\nsamples = 1\nvalue = [0, 1, 0, 0, 0, 0, 0, 0, 0, 0, 0, 0, 0, 0\n0, 0, 0, 0, 0, 0, 0, 0, 0, 0, 0, 0]\nclass = 2", fillcolor="#e5a639"] ;
230 -> 231 ;
232 [label="gini = 0.0\nsamples = 1\nvalue = [1, 0, 0, 0, 0, 0, 0, 0, 0, 0, 0, 0, 0, 0\n0, 0, 0, 0, 0, 0, 0, 0, 0, 0, 0, 0]\nclass = 1", fillcolor="#e58139"] ;
230 -> 232 ;
233 [label="gini = 0.0\nsamples = 11\nvalue = [0, 0, 23, 0, 0, 0, 0, 0, 0, 0, 0, 0, 0, 0\n0, 0, 0, 0, 0, 0, 0, 0, 0, 0, 0, 0]\nclass = 3", fillcolor="#e5ce39"] ;
229 -> 233 ;
234 [label="X[52] <= -0.15\ngini = 0.79\nsamples = 11\nvalue = [2, 0, 0, 0, 0, 0, 0, 0, 0, 0, 2, 1, 0, 0\n1, 0, 0, 0, 0, 0, 0, 0, 3, 0, 4, 0]\nclass = 25", fillcolor="#fcebec"] ;
228 -> 234 ;
235 [label="X[34] <= -0.76\ngini = 0.38\nsamples = 3\nvalue = [1, 0, 0, 0, 0, 0, 0, 0, 0, 0, 0, 0, 0, 0\n0, 0, 0, 0, 0, 0, 0, 0, 3, 0, 0, 0]\nclass = 23", fillcolor="#ee7bb6"] ;
234 -> 235 ;
236 [label="gini = 0.0\nsamples = 1\nvalue = [1, 0, 0, 0, 0, 0, 0, 0, 0, 0, 0, 0, 0, 0\n0, 0, 0, 0, 0, 0, 0, 0, 0, 0, 0, 0]\nclass = 1", fillcolor="#e58139"] ;
235 -> 236 ;
237 [label="gini = 0.0\nsamples = 2\nvalue = [0, 0, 0, 0, 0, 0, 0, 0, 0, 0, 0, 0, 0, 0\n0, 0, 0, 0, 0, 0, 0, 0, 3, 0, 0, 0]\nclass = 23", fillcolor="#e53992"] ;
235 -> 237 ;
238 [label="X[83] <= 0.14\ngini = 0.72\nsamples = 8\nvalue = [1, 0, 0, 0, 0, 0, 0, 0, 0, 0, 2, 1, 0, 0\n1, 0, 0, 0, 0, 0, 0, 0, 0, 0, 4, 0]\nclass = 25", fillcolor="#f8c6c9"] ;
234 -> 238 ;
239 [label="X[0] <= 1.82\ngini = 0.72\nsamples = 5\nvalue = [1, 0, 0, 0, 0, 0, 0, 0, 0, 0, 2, 1, 0, 0\n1, 0, 0, 0, 0, 0, 0, 0, 0, 0, 0, 0]\nclass = 11", fillcolor="#cef8ec"] ;
238 -> 239 ;
240 [label="X[27] <= -0.25\ngini = 0.67\nsamples = 3\nvalue = [1, 0, 0, 0, 0, 0, 0, 0, 0, 0, 0, 1, 0, 0\n1, 0, 0, 0, 0, 0, 0, 0, 0, 0, 0, 0]\nclass = 1", fillcolor="#ffffff"] ;
239 -> 240 ;
241 [label="gini = 0.0\nsamples = 1\nvalue = [0, 0, 0, 0, 0, 0, 0, 0, 0, 0, 0, 0, 0, 0\n1, 0, 0, 0, 0, 0, 0, 0, 0, 0, 0, 0]\nclass = 15", fillcolor="#3978e5"] ;
240 -> 241 ;
242 [label="X[88] <= 0.12\ngini = 0.5\nsamples = 2\nvalue = [1, 0, 0, 0, 0, 0, 0, 0, 0, 0, 0, 1, 0, 0\n0, 0, 0, 0, 0, 0, 0, 0, 0, 0, 0, 0]\nclass = 1", fillcolor="#ffffff"] ;
240 -> 242 ;
243 [label="gini = 0.0\nsamples = 1\nvalue = [1, 0, 0, 0, 0, 0, 0, 0, 0, 0, 0, 0, 0, 0\n0, 0, 0, 0, 0, 0, 0, 0, 0, 0, 0, 0]\nclass = 1", fillcolor="#e58139"] ;
242 -> 243 ;
244 [label="gini = 0.0\nsamples = 1\nvalue = [0, 0, 0, 0, 0, 0, 0, 0, 0, 0, 0, 1, 0, 0\n0, 0, 0, 0, 0, 0, 0, 0, 0, 0, 0, 0]\nclass = 12", fillcolor="#39e5dc"] ;
242 -> 244 ;
245 [label="gini = 0.0\nsamples = 2\nvalue = [0, 0, 0, 0, 0, 0, 0, 0, 0, 0, 2, 0, 0, 0\n0, 0, 0, 0, 0, 0, 0, 0, 0, 0, 0, 0]\nclass = 11", fillcolor="#39e5b4"] ;
239 -> 245 ;
246 [label="gini = 0.0\nsamples = 3\nvalue = [0, 0, 0, 0, 0, 0, 0, 0, 0, 0, 0, 0, 0, 0\n0, 0, 0, 0, 0, 0, 0, 0, 0, 0, 4, 0]\nclass = 25", fillcolor="#e53941"] ;
238 -> 246 ;
247 [label="X[46] <= 0.47\ngini = 0.7\nsamples = 63\nvalue = [4, 12, 3, 0, 0, 0, 0, 0, 0, 0, 0, 0, 0, 0\n0, 0, 27, 0, 0, 0, 0, 0, 44, 0, 8, 1]\nclass = 23", fillcolor="#f9d0e5"] ;
105 -> 247 ;
248 [label="X[3] <= 2.63\ngini = 0.6\nsamples = 43\nvalue = [4, 12, 3, 0, 0, 0, 0, 0, 0, 0, 0, 0, 0, 0\n0, 0, 6, 0, 0, 0, 0, 0, 42, 0, 2, 1]\nclass = 23", fillcolor="#f299c7"] ;
247 -> 248 ;
249 [label="X[14] <= 0.56\ngini = 0.47\nsamples = 38\nvalue = [4, 1, 3, 0, 0, 0, 0, 0, 0, 0, 0, 0, 0, 0\n0, 0, 6, 0, 0, 0, 0, 0, 42, 0, 2, 1]\nclass = 23", fillcolor="#ed79b5"] ;
248 -> 249 ;
250 [label="X[17] <= -1.93\ngini = 0.29\nsamples = 31\nvalue = [1, 1, 2, 0, 0, 0, 0, 0, 0, 0, 0, 0, 0, 0\n0, 0, 4, 0, 0, 0, 0, 0, 42, 0, 0, 0]\nclass = 23", fillcolor="#ea5ba5"] ;
249 -> 250 ;
251 [label="gini = 0.0\nsamples = 1\nvalue = [0, 0, 0, 0, 0, 0, 0, 0, 0, 0, 0, 0, 0, 0\n0, 0, 2, 0, 0, 0, 0, 0, 0, 0, 0, 0]\nclass = 17", fillcolor="#4a39e5"] ;
250 -> 251 ;
252 [label="X[28] <= 0.5\ngini = 0.23\nsamples = 30\nvalue = [1, 1, 2, 0, 0, 0, 0, 0, 0, 0, 0, 0, 0, 0\n0, 0, 2, 0, 0, 0, 0, 0, 42, 0, 0, 0]\nclass = 23", fillcolor="#e853a0"] ;
250 -> 252 ;
253 [label="X[45] <= 0.72\ngini = 0.13\nsamples = 27\nvalue = [0, 1, 1, 0, 0, 0, 0, 0, 0, 0, 0, 0, 0, 0\n0, 0, 1, 0, 0, 0, 0, 0, 42, 0, 0, 0]\nclass = 23", fillcolor="#e74699"] ;
252 -> 253 ;
254 [label="X[2] <= 2.81\ngini = 0.09\nsamples = 26\nvalue = [0, 0, 1, 0, 0, 0, 0, 0, 0, 0, 0, 0, 0, 0\n0, 0, 1, 0, 0, 0, 0, 0, 42, 0, 0, 0]\nclass = 23", fillcolor="#e64297"] ;
253 -> 254 ;
255 [label="X[26] <= 0.68\ngini = 0.05\nsamples = 25\nvalue = [0, 0, 0, 0, 0, 0, 0, 0, 0, 0, 0, 0, 0, 0\n0, 0, 1, 0, 0, 0, 0, 0, 42, 0, 0, 0]\nclass = 23", fillcolor="#e63e95"] ;
254 -> 255 ;
256 [label="gini = 0.0\nsamples = 24\nvalue = [0, 0, 0, 0, 0, 0, 0, 0, 0, 0, 0, 0, 0, 0\n0, 0, 0, 0, 0, 0, 0, 0, 42, 0, 0, 0]\nclass = 23", fillcolor="#e53992"] ;
255 -> 256 ;
257 [label="gini = 0.0\nsamples = 1\nvalue = [0, 0, 0, 0, 0, 0, 0, 0, 0, 0, 0, 0, 0, 0\n0, 0, 1, 0, 0, 0, 0, 0, 0, 0, 0, 0]\nclass = 17", fillcolor="#4a39e5"] ;
255 -> 257 ;
258 [label="gini = 0.0\nsamples = 1\nvalue = [0, 0, 1, 0, 0, 0, 0, 0, 0, 0, 0, 0, 0, 0\n0, 0, 0, 0, 0, 0, 0, 0, 0, 0, 0, 0]\nclass = 3", fillcolor="#e5ce39"] ;
254 -> 258 ;
259 [label="gini = 0.0\nsamples = 1\nvalue = [0, 1, 0, 0, 0, 0, 0, 0, 0, 0, 0, 0, 0, 0\n0, 0, 0, 0, 0, 0, 0, 0, 0, 0, 0, 0]\nclass = 2", fillcolor="#e5a639"] ;
253 -> 259 ;
260 [label="X[12] <= -0.08\ngini = 0.67\nsamples = 3\nvalue = [1, 0, 1, 0, 0, 0, 0, 0, 0, 0, 0, 0, 0, 0\n0, 0, 1, 0, 0, 0, 0, 0, 0, 0, 0, 0]\nclass = 1", fillcolor="#ffffff"] ;
252 -> 260 ;
261 [label="gini = 0.0\nsamples = 1\nvalue = [1, 0, 0, 0, 0, 0, 0, 0, 0, 0, 0, 0, 0, 0\n0, 0, 0, 0, 0, 0, 0, 0, 0, 0, 0, 0]\nclass = 1", fillcolor="#e58139"] ;
260 -> 261 ;
262 [label="X[84] <= 0.22\ngini = 0.5\nsamples = 2\nvalue = [0, 0, 1, 0, 0, 0, 0, 0, 0, 0, 0, 0, 0, 0\n0, 0, 1, 0, 0, 0, 0, 0, 0, 0, 0, 0]\nclass = 3", fillcolor="#ffffff"] ;
260 -> 262 ;
263 [label="gini = 0.0\nsamples = 1\nvalue = [0, 0, 1, 0, 0, 0, 0, 0, 0, 0, 0, 0, 0, 0\n0, 0, 0, 0, 0, 0, 0, 0, 0, 0, 0, 0]\nclass = 3", fillcolor="#e5ce39"] ;
262 -> 263 ;
264 [label="gini = 0.0\nsamples = 1\nvalue = [0, 0, 0, 0, 0, 0, 0, 0, 0, 0, 0, 0, 0, 0\n0, 0, 1, 0, 0, 0, 0, 0, 0, 0, 0, 0]\nclass = 17", fillcolor="#4a39e5"] ;
262 -> 264 ;
265 [label="X[24] <= -0.67\ngini = 0.77\nsamples = 7\nvalue = [3, 0, 1, 0, 0, 0, 0, 0, 0, 0, 0, 0, 0, 0\n0, 0, 2, 0, 0, 0, 0, 0, 0, 0, 2, 1]\nclass = 1", fillcolor="#fbede3"] ;
249 -> 265 ;
266 [label="gini = 0.0\nsamples = 3\nvalue = [3, 0, 0, 0, 0, 0, 0, 0, 0, 0, 0, 0, 0, 0\n0, 0, 0, 0, 0, 0, 0, 0, 0, 0, 0, 0]\nclass = 1", fillcolor="#e58139"] ;
265 -> 266 ;
267 [label="X[29] <= 1.38\ngini = 0.72\nsamples = 4\nvalue = [0, 0, 1, 0, 0, 0, 0, 0, 0, 0, 0, 0, 0, 0\n0, 0, 2, 0, 0, 0, 0, 0, 0, 0, 2, 1]\nclass = 17", fillcolor="#ffffff"] ;
265 -> 267 ;
268 [label="X[14] <= 0.77\ngini = 0.62\nsamples = 3\nvalue = [0, 0, 1, 0, 0, 0, 0, 0, 0, 0, 0, 0, 0, 0\n0, 0, 2, 0, 0, 0, 0, 0, 0, 0, 0, 1]\nclass = 17", fillcolor="#c3bdf6"] ;
267 -> 268 ;
269 [label="gini = 0.0\nsamples = 1\nvalue = [0, 0, 0, 0, 0, 0, 0, 0, 0, 0, 0, 0, 0, 0\n0, 0, 2, 0, 0, 0, 0, 0, 0, 0, 0, 0]\nclass = 17", fillcolor="#4a39e5"] ;
268 -> 269 ;
270 [label="X[83] <= 0.18\ngini = 0.5\nsamples = 2\nvalue = [0, 0, 1, 0, 0, 0, 0, 0, 0, 0, 0, 0, 0, 0\n0, 0, 0, 0, 0, 0, 0, 0, 0, 0, 0, 1]\nclass = 3", fillcolor="#ffffff"] ;
268 -> 270 ;
271 [label="gini = 0.0\nsamples = 1\nvalue = [0, 0, 1, 0, 0, 0, 0, 0, 0, 0, 0, 0, 0, 0\n0, 0, 0, 0, 0, 0, 0, 0, 0, 0, 0, 0]\nclass = 3", fillcolor="#e5ce39"] ;
270 -> 271 ;
272 [label="gini = 0.0\nsamples = 1\nvalue = [0, 0, 0, 0, 0, 0, 0, 0, 0, 0, 0, 0, 0, 0\n0, 0, 0, 0, 0, 0, 0, 0, 0, 0, 0, 1]\nclass = 26", fillcolor="#e55839"] ;
270 -> 272 ;
273 [label="gini = 0.0\nsamples = 1\nvalue = [0, 0, 0, 0, 0, 0, 0, 0, 0, 0, 0, 0, 0, 0\n0, 0, 0, 0, 0, 0, 0, 0, 0, 0, 2, 0]\nclass = 25", fillcolor="#e53941"] ;
267 -> 273 ;
274 [label="gini = 0.0\nsamples = 5\nvalue = [0, 11, 0, 0, 0, 0, 0, 0, 0, 0, 0, 0, 0, 0\n0, 0, 0, 0, 0, 0, 0, 0, 0, 0, 0, 0]\nclass = 2", fillcolor="#e5a639"] ;
248 -> 274 ;
275 [label="X[22] <= -0.28\ngini = 0.43\nsamples = 20\nvalue = [0, 0, 0, 0, 0, 0, 0, 0, 0, 0, 0, 0, 0, 0\n0, 0, 21, 0, 0, 0, 0, 0, 2, 0, 6, 0]\nclass = 17", fillcolor="#897eee"] ;
247 -> 275 ;
276 [label="X[37] <= 0.52\ngini = 0.41\nsamples = 4\nvalue = [0, 0, 0, 0, 0, 0, 0, 0, 0, 0, 0, 0, 0, 0\n0, 0, 0, 0, 0, 0, 0, 0, 2, 0, 5, 0]\nclass = 25", fillcolor="#ef888d"] ;
275 -> 276 ;
277 [label="gini = 0.0\nsamples = 3\nvalue = [0, 0, 0, 0, 0, 0, 0, 0, 0, 0, 0, 0, 0, 0\n0, 0, 0, 0, 0, 0, 0, 0, 0, 0, 5, 0]\nclass = 25", fillcolor="#e53941"] ;
276 -> 277 ;
278 [label="gini = 0.0\nsamples = 1\nvalue = [0, 0, 0, 0, 0, 0, 0, 0, 0, 0, 0, 0, 0, 0\n0, 0, 0, 0, 0, 0, 0, 0, 2, 0, 0, 0]\nclass = 23", fillcolor="#e53992"] ;
276 -> 278 ;
279 [label="X[72] <= -0.62\ngini = 0.09\nsamples = 16\nvalue = [0, 0, 0, 0, 0, 0, 0, 0, 0, 0, 0, 0, 0, 0\n0, 0, 21, 0, 0, 0, 0, 0, 0, 0, 1, 0]\nclass = 17", fillcolor="#5342e6"] ;
275 -> 279 ;
280 [label="gini = 0.0\nsamples = 1\nvalue = [0, 0, 0, 0, 0, 0, 0, 0, 0, 0, 0, 0, 0, 0\n0, 0, 0, 0, 0, 0, 0, 0, 0, 0, 1, 0]\nclass = 25", fillcolor="#e53941"] ;
279 -> 280 ;
281 [label="gini = 0.0\nsamples = 15\nvalue = [0, 0, 0, 0, 0, 0, 0, 0, 0, 0, 0, 0, 0, 0\n0, 0, 21, 0, 0, 0, 0, 0, 0, 0, 0, 0]\nclass = 17", fillcolor="#4a39e5"] ;
279 -> 281 ;
282 [label="X[5] <= 0.89\ngini = 0.65\nsamples = 142\nvalue = [8, 7, 32, 0, 0, 3, 0, 0, 0, 0, 122, 2, 0, 0\n1, 0, 3, 0, 0, 2, 0, 0, 10, 2, 21, 6]\nclass = 11", fillcolor="#a0f2db"] ;
104 -> 282 ;
283 [label="X[55] <= 0.4\ngini = 0.77\nsamples = 53\nvalue = [8, 6, 32, 0, 0, 3, 0, 0, 0, 0, 1, 2, 0, 0\n1, 0, 0, 0, 0, 0, 0, 0, 2, 2, 21, 6]\nclass = 3", fillcolor="#faf6dc"] ;
282 -> 283 ;
284 [label="X[20] <= 0.82\ngini = 0.7\nsamples = 41\nvalue = [3, 3, 32, 0, 0, 3, 0, 0, 0, 0, 1, 2, 0, 0\n1, 0, 0, 0, 0, 0, 0, 0, 0, 2, 10, 6]\nclass = 3", fillcolor="#f4ebad"] ;
283 -> 284 ;
285 [label="X[5] <= 0.42\ngini = 0.82\nsamples = 30\nvalue = [3, 3, 13, 0, 0, 3, 0, 0, 0, 0, 1, 2, 0, 0\n1, 0, 0, 0, 0, 0, 0, 0, 0, 2, 10, 6]\nclass = 3", fillcolor="#fdfbee"] ;
284 -> 285 ;
286 [label="X[0] <= 3.58\ngini = 0.81\nsamples = 26\nvalue = [3, 3, 13, 0, 0, 3, 0, 0, 0, 0, 0, 2, 0, 0\n1, 0, 0, 0, 0, 0, 0, 0, 0, 2, 4, 6]\nclass = 3", fillcolor="#f9f4d2"] ;
285 -> 286 ;
287 [label="X[11] <= 1.15\ngini = 0.77\nsamples = 23\nvalue = [3, 3, 13, 0, 0, 3, 0, 0, 0, 0, 0, 2, 0, 0\n1, 0, 0, 0, 0, 0, 0, 0, 0, 2, 4, 0]\nclass = 3", fillcolor="#f6efbd"] ;
286 -> 287 ;
288 [label="X[11] <= 0.1\ngini = 0.61\nsamples = 17\nvalue = [1, 0, 13, 0, 0, 3, 0, 0, 0, 0, 0, 2, 0, 0\n1, 0, 0, 0, 0, 0, 0, 0, 0, 2, 0, 0]\nclass = 3", fillcolor="#f1e597"] ;
287 -> 288 ;
289 [label="X[27] <= 0.05\ngini = 0.81\nsamples = 9\nvalue = [1, 0, 2, 0, 0, 3, 0, 0, 0, 0, 0, 2, 0, 0\n1, 0, 0, 0, 0, 0, 0, 0, 0, 2, 0, 0]\nclass = 6", fillcolor="#f1fce9"] ;
288 -> 289 ;
290 [label="X[40] <= 0.45\ngini = 0.48\nsamples = 4\nvalue = [0, 0, 0, 0, 0, 3, 0, 0, 0, 0, 0, 0, 0, 0\n0, 0, 0, 0, 0, 0, 0, 0, 0, 2, 0, 0]\nclass = 6", fillcolor="#d6f6bd"] ;
289 -> 290 ;
291 [label="gini = 0.0\nsamples = 2\nvalue = [0, 0, 0, 0, 0, 3, 0, 0, 0, 0, 0, 0, 0, 0\n0, 0, 0, 0, 0, 0, 0, 0, 0, 0, 0, 0]\nclass = 6", fillcolor="#83e539"] ;
290 -> 291 ;
292 [label="gini = 0.0\nsamples = 2\nvalue = [0, 0, 0, 0, 0, 0, 0, 0, 0, 0, 0, 0, 0, 0\n0, 0, 0, 0, 0, 0, 0, 0, 0, 2, 0, 0]\nclass = 24", fillcolor="#e5396a"] ;
290 -> 292 ;
293 [label="X[3] <= -0.41\ngini = 0.72\nsamples = 5\nvalue = [1, 0, 2, 0, 0, 0, 0, 0, 0, 0, 0, 2, 0, 0\n1, 0, 0, 0, 0, 0, 0, 0, 0, 0, 0, 0]\nclass = 3", fillcolor="#ffffff"] ;
289 -> 293 ;
294 [label="gini = 0.0\nsamples = 1\nvalue = [0, 0, 0, 0, 0, 0, 0, 0, 0, 0, 0, 2, 0, 0\n0, 0, 0, 0, 0, 0, 0, 0, 0, 0, 0, 0]\nclass = 12", fillcolor="#39e5dc"] ;
293 -> 294 ;
295 [label="X[39] <= 0.7\ngini = 0.62\nsamples = 4\nvalue = [1, 0, 2, 0, 0, 0, 0, 0, 0, 0, 0, 0, 0, 0\n1, 0, 0, 0, 0, 0, 0, 0, 0, 0, 0, 0]\nclass = 3", fillcolor="#f6efbd"] ;
293 -> 295 ;
296 [label="gini = 0.0\nsamples = 2\nvalue = [0, 0, 2, 0, 0, 0, 0, 0, 0, 0, 0, 0, 0, 0\n0, 0, 0, 0, 0, 0, 0, 0, 0, 0, 0, 0]\nclass = 3", fillcolor="#e5ce39"] ;
295 -> 296 ;
297 [label="X[46] <= 0.15\ngini = 0.5\nsamples = 2\nvalue = [1, 0, 0, 0, 0, 0, 0, 0, 0, 0, 0, 0, 0, 0\n1, 0, 0, 0, 0, 0, 0, 0, 0, 0, 0, 0]\nclass = 1", fillcolor="#ffffff"] ;
295 -> 297 ;
298 [label="gini = 0.0\nsamples = 1\nvalue = [0, 0, 0, 0, 0, 0, 0, 0, 0, 0, 0, 0, 0, 0\n1, 0, 0, 0, 0, 0, 0, 0, 0, 0, 0, 0]\nclass = 15", fillcolor="#3978e5"] ;
297 -> 298 ;
299 [label="gini = 0.0\nsamples = 1\nvalue = [1, 0, 0, 0, 0, 0, 0, 0, 0, 0, 0, 0, 0, 0\n0, 0, 0, 0, 0, 0, 0, 0, 0, 0, 0, 0]\nclass = 1", fillcolor="#e58139"] ;
297 -> 299 ;
300 [label="gini = 0.0\nsamples = 8\nvalue = [0, 0, 11, 0, 0, 0, 0, 0, 0, 0, 0, 0, 0, 0\n0, 0, 0, 0, 0, 0, 0, 0, 0, 0, 0, 0]\nclass = 3", fillcolor="#e5ce39"] ;
288 -> 300 ;
301 [label="X[66] <= -0.23\ngini = 0.64\nsamples = 6\nvalue = [2, 3, 0, 0, 0, 0, 0, 0, 0, 0, 0, 0, 0, 0\n0, 0, 0, 0, 0, 0, 0, 0, 0, 0, 4, 0]\nclass = 25", fillcolor="#fbdedf"] ;
287 -> 301 ;
302 [label="gini = 0.0\nsamples = 2\nvalue = [0, 0, 0, 0, 0, 0, 0, 0, 0, 0, 0, 0, 0, 0\n0, 0, 0, 0, 0, 0, 0, 0, 0, 0, 4, 0]\nclass = 25", fillcolor="#e53941"] ;
301 -> 302 ;
303 [label="X[4] <= -0.44\ngini = 0.48\nsamples = 4\nvalue = [2, 3, 0, 0, 0, 0, 0, 0, 0, 0, 0, 0, 0, 0\n0, 0, 0, 0, 0, 0, 0, 0, 0, 0, 0, 0]\nclass = 2", fillcolor="#f6e1bd"] ;
301 -> 303 ;
304 [label="gini = 0.0\nsamples = 2\nvalue = [0, 3, 0, 0, 0, 0, 0, 0, 0, 0, 0, 0, 0, 0\n0, 0, 0, 0, 0, 0, 0, 0, 0, 0, 0, 0]\nclass = 2", fillcolor="#e5a639"] ;
303 -> 304 ;
305 [label="gini = 0.0\nsamples = 2\nvalue = [2, 0, 0, 0, 0, 0, 0, 0, 0, 0, 0, 0, 0, 0\n0, 0, 0, 0, 0, 0, 0, 0, 0, 0, 0, 0]\nclass = 1", fillcolor="#e58139"] ;
303 -> 305 ;
306 [label="gini = 0.0\nsamples = 3\nvalue = [0, 0, 0, 0, 0, 0, 0, 0, 0, 0, 0, 0, 0, 0\n0, 0, 0, 0, 0, 0, 0, 0, 0, 0, 0, 6]\nclass = 26", fillcolor="#e55839"] ;
286 -> 306 ;
307 [label="X[75] <= 0.18\ngini = 0.24\nsamples = 4\nvalue = [0, 0, 0, 0, 0, 0, 0, 0, 0, 0, 1, 0, 0, 0\n0, 0, 0, 0, 0, 0, 0, 0, 0, 0, 6, 0]\nclass = 25", fillcolor="#e95a61"] ;
285 -> 307 ;
308 [label="gini = 0.0\nsamples = 1\nvalue = [0, 0, 0, 0, 0, 0, 0, 0, 0, 0, 1, 0, 0, 0\n0, 0, 0, 0, 0, 0, 0, 0, 0, 0, 0, 0]\nclass = 11", fillcolor="#39e5b4"] ;
307 -> 308 ;
309 [label="gini = 0.0\nsamples = 3\nvalue = [0, 0, 0, 0, 0, 0, 0, 0, 0, 0, 0, 0, 0, 0\n0, 0, 0, 0, 0, 0, 0, 0, 0, 0, 6, 0]\nclass = 25", fillcolor="#e53941"] ;
307 -> 309 ;
310 [label="gini = 0.0\nsamples = 11\nvalue = [0, 0, 19, 0, 0, 0, 0, 0, 0, 0, 0, 0, 0, 0\n0, 0, 0, 0, 0, 0, 0, 0, 0, 0, 0, 0]\nclass = 3", fillcolor="#e5ce39"] ;
284 -> 310 ;
311 [label="X[58] <= 0.13\ngini = 0.64\nsamples = 12\nvalue = [5, 3, 0, 0, 0, 0, 0, 0, 0, 0, 0, 0, 0, 0\n0, 0, 0, 0, 0, 0, 0, 0, 2, 0, 11, 0]\nclass = 25", fillcolor="#f5b5b8"] ;
283 -> 311 ;
312 [label="X[7] <= -0.3\ngini = 0.57\nsamples = 5\nvalue = [5, 3, 0, 0, 0, 0, 0, 0, 0, 0, 0, 0, 0, 0\n0, 0, 0, 0, 0, 0, 0, 0, 1, 0, 0, 0]\nclass = 1", fillcolor="#f6d5bd"] ;
311 -> 312 ;
313 [label="gini = 0.0\nsamples = 3\nvalue = [5, 0, 0, 0, 0, 0, 0, 0, 0, 0, 0, 0, 0, 0\n0, 0, 0, 0, 0, 0, 0, 0, 0, 0, 0, 0]\nclass = 1", fillcolor="#e58139"] ;
312 -> 313 ;
314 [label="X[81] <= 0.19\ngini = 0.38\nsamples = 2\nvalue = [0, 3, 0, 0, 0, 0, 0, 0, 0, 0, 0, 0, 0, 0\n0, 0, 0, 0, 0, 0, 0, 0, 1, 0, 0, 0]\nclass = 2", fillcolor="#eec47b"] ;
312 -> 314 ;
315 [label="gini = 0.0\nsamples = 1\nvalue = [0, 3, 0, 0, 0, 0, 0, 0, 0, 0, 0, 0, 0, 0\n0, 0, 0, 0, 0, 0, 0, 0, 0, 0, 0, 0]\nclass = 2", fillcolor="#e5a639"] ;
314 -> 315 ;
316 [label="gini = 0.0\nsamples = 1\nvalue = [0, 0, 0, 0, 0, 0, 0, 0, 0, 0, 0, 0, 0, 0\n0, 0, 0, 0, 0, 0, 0, 0, 1, 0, 0, 0]\nclass = 23", fillcolor="#e53992"] ;
314 -> 316 ;
317 [label="X[30] <= 0.16\ngini = 0.15\nsamples = 7\nvalue = [0, 0, 0, 0, 0, 0, 0, 0, 0, 0, 0, 0, 0, 0\n0, 0, 0, 0, 0, 0, 0, 0, 1, 0, 11, 0]\nclass = 25", fillcolor="#e74b52"] ;
311 -> 317 ;
318 [label="gini = 0.0\nsamples = 5\nvalue = [0, 0, 0, 0, 0, 0, 0, 0, 0, 0, 0, 0, 0, 0\n0, 0, 0, 0, 0, 0, 0, 0, 0, 0, 10, 0]\nclass = 25", fillcolor="#e53941"] ;
317 -> 318 ;
319 [label="X[48] <= -0.29\ngini = 0.5\nsamples = 2\nvalue = [0, 0, 0, 0, 0, 0, 0, 0, 0, 0, 0, 0, 0, 0\n0, 0, 0, 0, 0, 0, 0, 0, 1, 0, 1, 0]\nclass = 23", fillcolor="#ffffff"] ;
317 -> 319 ;
320 [label="gini = 0.0\nsamples = 1\nvalue = [0, 0, 0, 0, 0, 0, 0, 0, 0, 0, 0, 0, 0, 0\n0, 0, 0, 0, 0, 0, 0, 0, 1, 0, 0, 0]\nclass = 23", fillcolor="#e53992"] ;
319 -> 320 ;
321 [label="gini = 0.0\nsamples = 1\nvalue = [0, 0, 0, 0, 0, 0, 0, 0, 0, 0, 0, 0, 0, 0\n0, 0, 0, 0, 0, 0, 0, 0, 0, 0, 1, 0]\nclass = 25", fillcolor="#e53941"] ;
319 -> 321 ;
322 [label="X[27] <= 1.02\ngini = 0.19\nsamples = 89\nvalue = [0, 1, 0, 0, 0, 0, 0, 0, 0, 0, 121, 0, 0, 0\n0, 0, 3, 0, 0, 2, 0, 0, 8, 0, 0, 0]\nclass = 11", fillcolor="#4fe8bc"] ;
282 -> 322 ;
323 [label="X[27] <= -1.39\ngini = 0.16\nsamples = 87\nvalue = [0, 0, 0, 0, 0, 0, 0, 0, 0, 0, 121, 0, 0, 0\n0, 0, 3, 0, 0, 0, 0, 0, 8, 0, 0, 0]\nclass = 11", fillcolor="#4be7bb"] ;
322 -> 323 ;
324 [label="X[82] <= 0.38\ngini = 0.38\nsamples = 2\nvalue = [0, 0, 0, 0, 0, 0, 0, 0, 0, 0, 1, 0, 0, 0\n0, 0, 0, 0, 0, 0, 0, 0, 3, 0, 0, 0]\nclass = 23", fillcolor="#ee7bb6"] ;
323 -> 324 ;
325 [label="gini = 0.0\nsamples = 1\nvalue = [0, 0, 0, 0, 0, 0, 0, 0, 0, 0, 0, 0, 0, 0\n0, 0, 0, 0, 0, 0, 0, 0, 3, 0, 0, 0]\nclass = 23", fillcolor="#e53992"] ;
324 -> 325 ;
326 [label="gini = 0.0\nsamples = 1\nvalue = [0, 0, 0, 0, 0, 0, 0, 0, 0, 0, 1, 0, 0, 0\n0, 0, 0, 0, 0, 0, 0, 0, 0, 0, 0, 0]\nclass = 11", fillcolor="#39e5b4"] ;
324 -> 326 ;
327 [label="X[35] <= -1.0\ngini = 0.12\nsamples = 85\nvalue = [0, 0, 0, 0, 0, 0, 0, 0, 0, 0, 120, 0, 0, 0\n0, 0, 3, 0, 0, 0, 0, 0, 5, 0, 0, 0]\nclass = 11", fillcolor="#46e7b9"] ;
323 -> 327 ;
328 [label="gini = 0.0\nsamples = 1\nvalue = [0, 0, 0, 0, 0, 0, 0, 0, 0, 0, 0, 0, 0, 0\n0, 0, 0, 0, 0, 0, 0, 0, 2, 0, 0, 0]\nclass = 23", fillcolor="#e53992"] ;
327 -> 328 ;
329 [label="X[92] <= 0.64\ngini = 0.09\nsamples = 84\nvalue = [0, 0, 0, 0, 0, 0, 0, 0, 0, 0, 120, 0, 0, 0\n0, 0, 3, 0, 0, 0, 0, 0, 3, 0, 0, 0]\nclass = 11", fillcolor="#43e6b8"] ;
327 -> 329 ;
330 [label="X[78] <= -0.71\ngini = 0.08\nsamples = 83\nvalue = [0, 0, 0, 0, 0, 0, 0, 0, 0, 0, 120, 0, 0, 0\n0, 0, 2, 0, 0, 0, 0, 0, 3, 0, 0, 0]\nclass = 11", fillcolor="#41e6b7"] ;
329 -> 330 ;
331 [label="X[92] <= -0.22\ngini = 0.5\nsamples = 2\nvalue = [0, 0, 0, 0, 0, 0, 0, 0, 0, 0, 1, 0, 0, 0\n0, 0, 0, 0, 0, 0, 0, 0, 1, 0, 0, 0]\nclass = 11", fillcolor="#ffffff"] ;
330 -> 331 ;
332 [label="gini = 0.0\nsamples = 1\nvalue = [0, 0, 0, 0, 0, 0, 0, 0, 0, 0, 0, 0, 0, 0\n0, 0, 0, 0, 0, 0, 0, 0, 1, 0, 0, 0]\nclass = 23", fillcolor="#e53992"] ;
331 -> 332 ;
333 [label="gini = 0.0\nsamples = 1\nvalue = [0, 0, 0, 0, 0, 0, 0, 0, 0, 0, 1, 0, 0, 0\n0, 0, 0, 0, 0, 0, 0, 0, 0, 0, 0, 0]\nclass = 11", fillcolor="#39e5b4"] ;
331 -> 333 ;
334 [label="X[84] <= 0.68\ngini = 0.06\nsamples = 81\nvalue = [0, 0, 0, 0, 0, 0, 0, 0, 0, 0, 119, 0, 0, 0\n0, 0, 2, 0, 0, 0, 0, 0, 2, 0, 0, 0]\nclass = 11", fillcolor="#40e6b6"] ;
330 -> 334 ;
335 [label="X[18] <= -2.07\ngini = 0.05\nsamples = 80\nvalue = [0, 0, 0, 0, 0, 0, 0, 0, 0, 0, 119, 0, 0, 0\n0, 0, 2, 0, 0, 0, 0, 0, 1, 0, 0, 0]\nclass = 11", fillcolor="#3ee6b6"] ;
334 -> 335 ;
336 [label="gini = 0.0\nsamples = 1\nvalue = [0, 0, 0, 0, 0, 0, 0, 0, 0, 0, 0, 0, 0, 0\n0, 0, 1, 0, 0, 0, 0, 0, 0, 0, 0, 0]\nclass = 17", fillcolor="#4a39e5"] ;
335 -> 336 ;
337 [label="X[78] <= -0.42\ngini = 0.03\nsamples = 79\nvalue = [0, 0, 0, 0, 0, 0, 0, 0, 0, 0, 119, 0, 0, 0\n0, 0, 1, 0, 0, 0, 0, 0, 1, 0, 0, 0]\nclass = 11", fillcolor="#3ce5b5"] ;
335 -> 337 ;
338 [label="X[21] <= 1.21\ngini = 0.38\nsamples = 4\nvalue = [0, 0, 0, 0, 0, 0, 0, 0, 0, 0, 3, 0, 0, 0\n0, 0, 1, 0, 0, 0, 0, 0, 0, 0, 0, 0]\nclass = 11", fillcolor="#7beecd"] ;
337 -> 338 ;
339 [label="gini = 0.0\nsamples = 1\nvalue = [0, 0, 0, 0, 0, 0, 0, 0, 0, 0, 0, 0, 0, 0\n0, 0, 1, 0, 0, 0, 0, 0, 0, 0, 0, 0]\nclass = 17", fillcolor="#4a39e5"] ;
338 -> 339 ;
340 [label="gini = 0.0\nsamples = 3\nvalue = [0, 0, 0, 0, 0, 0, 0, 0, 0, 0, 3, 0, 0, 0\n0, 0, 0, 0, 0, 0, 0, 0, 0, 0, 0, 0]\nclass = 11", fillcolor="#39e5b4"] ;
338 -> 340 ;
341 [label="X[6] <= 0.46\ngini = 0.02\nsamples = 75\nvalue = [0, 0, 0, 0, 0, 0, 0, 0, 0, 0, 116, 0, 0, 0\n0, 0, 0, 0, 0, 0, 0, 0, 1, 0, 0, 0]\nclass = 11", fillcolor="#3be5b5"] ;
337 -> 341 ;
342 [label="X[2] <= -1.65\ngini = 0.24\nsamples = 4\nvalue = [0, 0, 0, 0, 0, 0, 0, 0, 0, 0, 6, 0, 0, 0\n0, 0, 0, 0, 0, 0, 0, 0, 1, 0, 0, 0]\nclass = 11", fillcolor="#5ae9c1"] ;
341 -> 342 ;
343 [label="gini = 0.0\nsamples = 3\nvalue = [0, 0, 0, 0, 0, 0, 0, 0, 0, 0, 6, 0, 0, 0\n0, 0, 0, 0, 0, 0, 0, 0, 0, 0, 0, 0]\nclass = 11", fillcolor="#39e5b4"] ;
342 -> 343 ;
344 [label="gini = 0.0\nsamples = 1\nvalue = [0, 0, 0, 0, 0, 0, 0, 0, 0, 0, 0, 0, 0, 0\n0, 0, 0, 0, 0, 0, 0, 0, 1, 0, 0, 0]\nclass = 23", fillcolor="#e53992"] ;
342 -> 344 ;
345 [label="gini = 0.0\nsamples = 71\nvalue = [0, 0, 0, 0, 0, 0, 0, 0, 0, 0, 110, 0, 0, 0\n0, 0, 0, 0, 0, 0, 0, 0, 0, 0, 0, 0]\nclass = 11", fillcolor="#39e5b4"] ;
341 -> 345 ;
346 [label="gini = 0.0\nsamples = 1\nvalue = [0, 0, 0, 0, 0, 0, 0, 0, 0, 0, 0, 0, 0, 0\n0, 0, 0, 0, 0, 0, 0, 0, 1, 0, 0, 0]\nclass = 23", fillcolor="#e53992"] ;
334 -> 346 ;
347 [label="gini = 0.0\nsamples = 1\nvalue = [0, 0, 0, 0, 0, 0, 0, 0, 0, 0, 0, 0, 0, 0\n0, 0, 1, 0, 0, 0, 0, 0, 0, 0, 0, 0]\nclass = 17", fillcolor="#4a39e5"] ;
329 -> 347 ;
348 [label="X[71] <= 0.01\ngini = 0.44\nsamples = 2\nvalue = [0, 1, 0, 0, 0, 0, 0, 0, 0, 0, 0, 0, 0, 0\n0, 0, 0, 0, 0, 2, 0, 0, 0, 0, 0, 0]\nclass = 20", fillcolor="#e19cf2"] ;
322 -> 348 ;
349 [label="gini = 0.0\nsamples = 1\nvalue = [0, 1, 0, 0, 0, 0, 0, 0, 0, 0, 0, 0, 0, 0\n0, 0, 0, 0, 0, 0, 0, 0, 0, 0, 0, 0]\nclass = 2", fillcolor="#e5a639"] ;
348 -> 349 ;
350 [label="gini = 0.0\nsamples = 1\nvalue = [0, 0, 0, 0, 0, 0, 0, 0, 0, 0, 0, 0, 0, 0\n0, 0, 0, 0, 0, 2, 0, 0, 0, 0, 0, 0]\nclass = 20", fillcolor="#c339e5"] ;
348 -> 350 ;
351 [label="X[6] <= -0.82\ngini = 0.78\nsamples = 274\nvalue = [11, 36, 6, 0, 4, 0, 0, 2, 0, 0, 23, 3, 2, 0\n5, 1, 129, 0, 0, 0, 1, 1, 23, 8, 140, 30]\nclass = 25", fillcolor="#fef8f8"] ;
103 -> 351 ;
352 [label="X[2] <= 0.99\ngini = 0.77\nsamples = 62\nvalue = [10, 36, 5, 0, 4, 0, 0, 2, 0, 0, 0, 1, 2, 0\n1, 0, 1, 0, 0, 0, 1, 1, 0, 8, 0, 30]\nclass = 2", fillcolor="#fdf8ee"] ;
351 -> 352 ;
353 [label="X[61] <= 0.11\ngini = 0.77\nsamples = 46\nvalue = [10, 14, 3, 0, 4, 0, 0, 2, 0, 0, 0, 1, 1, 0\n1, 0, 1, 0, 0, 0, 1, 1, 0, 4, 0, 30]\nclass = 26", fillcolor="#f8d2c9"] ;
352 -> 353 ;
354 [label="X[4] <= 0.74\ngini = 0.67\nsamples = 31\nvalue = [9, 4, 3, 0, 3, 0, 0, 0, 0, 0, 0, 1, 0, 0\n0, 0, 0, 0, 0, 0, 1, 1, 0, 2, 0, 27]\nclass = 26", fillcolor="#f4b7aa"] ;
353 -> 354 ;
355 [label="X[66] <= -0.06\ngini = 0.8\nsamples = 17\nvalue = [9, 4, 3, 0, 3, 0, 0, 0, 0, 0, 0, 0, 0, 0\n0, 0, 0, 0, 0, 0, 1, 1, 0, 2, 0, 2]\nclass = 1", fillcolor="#f9e1d0"] ;
354 -> 355 ;
356 [label="X[48] <= -0.23\ngini = 0.77\nsamples = 6\nvalue = [0, 0, 1, 0, 3, 0, 0, 0, 0, 0, 0, 0, 0, 0\n0, 0, 0, 0, 0, 0, 1, 0, 0, 2, 0, 2]\nclass = 5", fillcolor="#f3fbe3"] ;
355 -> 356 ;
357 [label="X[14] <= -0.99\ngini = 0.38\nsamples = 3\nvalue = [0, 0, 0, 0, 3, 0, 0, 0, 0, 0, 0, 0, 0, 0\n0, 0, 0, 0, 0, 0, 1, 0, 0, 0, 0, 0]\nclass = 5", fillcolor="#c8ee7b"] ;
356 -> 357 ;
358 [label="gini = 0.0\nsamples = 2\nvalue = [0, 0, 0, 0, 3, 0, 0, 0, 0, 0, 0, 0, 0, 0\n0, 0, 0, 0, 0, 0, 0, 0, 0, 0, 0, 0]\nclass = 5", fillcolor="#ace539"] ;
357 -> 358 ;
359 [label="gini = 0.0\nsamples = 1\nvalue = [0, 0, 0, 0, 0, 0, 0, 0, 0, 0, 0, 0, 0, 0\n0, 0, 0, 0, 0, 0, 1, 0, 0, 0, 0, 0]\nclass = 21", fillcolor="#e539e2"] ;
357 -> 359 ;
360 [label="X[68] <= -0.16\ngini = 0.64\nsamples = 3\nvalue = [0, 0, 1, 0, 0, 0, 0, 0, 0, 0, 0, 0, 0, 0\n0, 0, 0, 0, 0, 0, 0, 0, 0, 2, 0, 2]\nclass = 24", fillcolor="#ffffff"] ;
356 -> 360 ;
361 [label="gini = 0.0\nsamples = 1\nvalue = [0, 0, 0, 0, 0, 0, 0, 0, 0, 0, 0, 0, 0, 0\n0, 0, 0, 0, 0, 0, 0, 0, 0, 0, 0, 2]\nclass = 26", fillcolor="#e55839"] ;
360 -> 361 ;
362 [label="X[79] <= -0.08\ngini = 0.44\nsamples = 2\nvalue = [0, 0, 1, 0, 0, 0, 0, 0, 0, 0, 0, 0, 0, 0\n0, 0, 0, 0, 0, 0, 0, 0, 0, 2, 0, 0]\nclass = 24", fillcolor="#f29cb4"] ;
360 -> 362 ;
363 [label="gini = 0.0\nsamples = 1\nvalue = [0, 0, 1, 0, 0, 0, 0, 0, 0, 0, 0, 0, 0, 0\n0, 0, 0, 0, 0, 0, 0, 0, 0, 0, 0, 0]\nclass = 3", fillcolor="#e5ce39"] ;
362 -> 363 ;
364 [label="gini = 0.0\nsamples = 1\nvalue = [0, 0, 0, 0, 0, 0, 0, 0, 0, 0, 0, 0, 0, 0\n0, 0, 0, 0, 0, 0, 0, 0, 0, 2, 0, 0]\nclass = 24", fillcolor="#e5396a"] ;
362 -> 364 ;
365 [label="X[52] <= 0.07\ngini = 0.6\nsamples = 11\nvalue = [9, 4, 2, 0, 0, 0, 0, 0, 0, 0, 0, 0, 0, 0\n0, 0, 0, 0, 0, 0, 0, 1, 0, 0, 0, 0]\nclass = 1", fillcolor="#f4caac"] ;
355 -> 365 ;
366 [label="X[18] <= -0.08\ngini = 0.2\nsamples = 6\nvalue = [8, 0, 0, 0, 0, 0, 0, 0, 0, 0, 0, 0, 0, 0\n0, 0, 0, 0, 0, 0, 0, 1, 0, 0, 0, 0]\nclass = 1", fillcolor="#e89152"] ;
365 -> 366 ;
367 [label="gini = 0.0\nsamples = 1\nvalue = [0, 0, 0, 0, 0, 0, 0, 0, 0, 0, 0, 0, 0, 0\n0, 0, 0, 0, 0, 0, 0, 1, 0, 0, 0, 0]\nclass = 22", fillcolor="#e539ba"] ;
366 -> 367 ;
368 [label="gini = 0.0\nsamples = 5\nvalue = [8, 0, 0, 0, 0, 0, 0, 0, 0, 0, 0, 0, 0, 0\n0, 0, 0, 0, 0, 0, 0, 0, 0, 0, 0, 0]\nclass = 1", fillcolor="#e58139"] ;
366 -> 368 ;
369 [label="X[81] <= -0.17\ngini = 0.57\nsamples = 5\nvalue = [1, 4, 2, 0, 0, 0, 0, 0, 0, 0, 0, 0, 0, 0\n0, 0, 0, 0, 0, 0, 0, 0, 0, 0, 0, 0]\nclass = 2", fillcolor="#f5dbb0"] ;
365 -> 369 ;
370 [label="X[19] <= 0.32\ngini = 0.44\nsamples = 2\nvalue = [1, 0, 2, 0, 0, 0, 0, 0, 0, 0, 0, 0, 0, 0\n0, 0, 0, 0, 0, 0, 0, 0, 0, 0, 0, 0]\nclass = 3", fillcolor="#f2e69c"] ;
369 -> 370 ;
371 [label="gini = 0.0\nsamples = 1\nvalue = [0, 0, 2, 0, 0, 0, 0, 0, 0, 0, 0, 0, 0, 0\n0, 0, 0, 0, 0, 0, 0, 0, 0, 0, 0, 0]\nclass = 3", fillcolor="#e5ce39"] ;
370 -> 371 ;
372 [label="gini = 0.0\nsamples = 1\nvalue = [1, 0, 0, 0, 0, 0, 0, 0, 0, 0, 0, 0, 0, 0\n0, 0, 0, 0, 0, 0, 0, 0, 0, 0, 0, 0]\nclass = 1", fillcolor="#e58139"] ;
370 -> 372 ;
373 [label="gini = 0.0\nsamples = 3\nvalue = [0, 4, 0, 0, 0, 0, 0, 0, 0, 0, 0, 0, 0, 0\n0, 0, 0, 0, 0, 0, 0, 0, 0, 0, 0, 0]\nclass = 2", fillcolor="#e5a639"] ;
369 -> 373 ;
374 [label="X[31] <= 0.7\ngini = 0.07\nsamples = 14\nvalue = [0, 0, 0, 0, 0, 0, 0, 0, 0, 0, 0, 1, 0, 0\n0, 0, 0, 0, 0, 0, 0, 0, 0, 0, 0, 25]\nclass = 26", fillcolor="#e65f41"] ;
354 -> 374 ;
375 [label="gini = 0.0\nsamples = 13\nvalue = [0, 0, 0, 0, 0, 0, 0, 0, 0, 0, 0, 0, 0, 0\n0, 0, 0, 0, 0, 0, 0, 0, 0, 0, 0, 25]\nclass = 26", fillcolor="#e55839"] ;
374 -> 375 ;
376 [label="gini = 0.0\nsamples = 1\nvalue = [0, 0, 0, 0, 0, 0, 0, 0, 0, 0, 0, 1, 0, 0\n0, 0, 0, 0, 0, 0, 0, 0, 0, 0, 0, 0]\nclass = 12", fillcolor="#39e5dc"] ;
374 -> 376 ;
377 [label="X[5] <= -2.19\ngini = 0.75\nsamples = 15\nvalue = [1, 10, 0, 0, 1, 0, 0, 2, 0, 0, 0, 0, 1, 0\n1, 0, 1, 0, 0, 0, 0, 0, 0, 2, 0, 3]\nclass = 2", fillcolor="#f5deb6"] ;
353 -> 377 ;
378 [label="gini = 0.0\nsamples = 2\nvalue = [0, 0, 0, 0, 0, 0, 0, 0, 0, 0, 0, 0, 0, 0\n0, 0, 0, 0, 0, 0, 0, 0, 0, 0, 0, 3]\nclass = 26", fillcolor="#e55839"] ;
377 -> 378 ;
379 [label="X[57] <= -0.0\ngini = 0.69\nsamples = 13\nvalue = [1, 10, 0, 0, 1, 0, 0, 2, 0, 0, 0, 0, 1, 0\n1, 0, 1, 0, 0, 0, 0, 0, 0, 2, 0, 0]\nclass = 2", fillcolor="#f3d5a2"] ;
377 -> 379 ;
380 [label="X[66] <= -0.3\ngini = 0.72\nsamples = 4\nvalue = [0, 0, 0, 0, 1, 0, 0, 2, 0, 0, 0, 0, 0, 0\n0, 0, 1, 0, 0, 0, 0, 0, 0, 2, 0, 0]\nclass = 8", fillcolor="#ffffff"] ;
379 -> 380 ;
381 [label="gini = 0.0\nsamples = 1\nvalue = [0, 0, 0, 0, 0, 0, 0, 0, 0, 0, 0, 0, 0, 0\n0, 0, 0, 0, 0, 0, 0, 0, 0, 2, 0, 0]\nclass = 24", fillcolor="#e5396a"] ;
380 -> 381 ;
382 [label="X[3] <= -0.08\ngini = 0.62\nsamples = 3\nvalue = [0, 0, 0, 0, 1, 0, 0, 2, 0, 0, 0, 0, 0, 0\n0, 0, 1, 0, 0, 0, 0, 0, 0, 0, 0, 0]\nclass = 8", fillcolor="#bdf6be"] ;
380 -> 382 ;
383 [label="gini = 0.0\nsamples = 1\nvalue = [0, 0, 0, 0, 0, 0, 0, 2, 0, 0, 0, 0, 0, 0\n0, 0, 0, 0, 0, 0, 0, 0, 0, 0, 0, 0]\nclass = 8", fillcolor="#39e53c"] ;
382 -> 383 ;
384 [label="X[80] <= -0.17\ngini = 0.5\nsamples = 2\nvalue = [0, 0, 0, 0, 1, 0, 0, 0, 0, 0, 0, 0, 0, 0\n0, 0, 1, 0, 0, 0, 0, 0, 0, 0, 0, 0]\nclass = 5", fillcolor="#ffffff"] ;
382 -> 384 ;
385 [label="gini = 0.0\nsamples = 1\nvalue = [0, 0, 0, 0, 0, 0, 0, 0, 0, 0, 0, 0, 0, 0\n0, 0, 1, 0, 0, 0, 0, 0, 0, 0, 0, 0]\nclass = 17", fillcolor="#4a39e5"] ;
384 -> 385 ;
386 [label="gini = 0.0\nsamples = 1\nvalue = [0, 0, 0, 0, 1, 0, 0, 0, 0, 0, 0, 0, 0, 0\n0, 0, 0, 0, 0, 0, 0, 0, 0, 0, 0, 0]\nclass = 5", fillcolor="#ace539"] ;
384 -> 386 ;
387 [label="X[56] <= 0.09\ngini = 0.39\nsamples = 9\nvalue = [1, 10, 0, 0, 0, 0, 0, 0, 0, 0, 0, 0, 1, 0\n1, 0, 0, 0, 0, 0, 0, 0, 0, 0, 0, 0]\nclass = 2", fillcolor="#ecbc6b"] ;
379 -> 387 ;
388 [label="gini = 0.0\nsamples = 6\nvalue = [0, 10, 0, 0, 0, 0, 0, 0, 0, 0, 0, 0, 0, 0\n0, 0, 0, 0, 0, 0, 0, 0, 0, 0, 0, 0]\nclass = 2", fillcolor="#e5a639"] ;
387 -> 388 ;
389 [label="X[28] <= -0.5\ngini = 0.67\nsamples = 3\nvalue = [1, 0, 0, 0, 0, 0, 0, 0, 0, 0, 0, 0, 1, 0\n1, 0, 0, 0, 0, 0, 0, 0, 0, 0, 0, 0]\nclass = 1", fillcolor="#ffffff"] ;
387 -> 389 ;
390 [label="gini = 0.0\nsamples = 1\nvalue = [1, 0, 0, 0, 0, 0, 0, 0, 0, 0, 0, 0, 0, 0\n0, 0, 0, 0, 0, 0, 0, 0, 0, 0, 0, 0]\nclass = 1", fillcolor="#e58139"] ;
389 -> 390 ;
391 [label="X[22] <= -0.95\ngini = 0.5\nsamples = 2\nvalue = [0, 0, 0, 0, 0, 0, 0, 0, 0, 0, 0, 0, 1, 0\n1, 0, 0, 0, 0, 0, 0, 0, 0, 0, 0, 0]\nclass = 13", fillcolor="#ffffff"] ;
389 -> 391 ;
392 [label="gini = 0.0\nsamples = 1\nvalue = [0, 0, 0, 0, 0, 0, 0, 0, 0, 0, 0, 0, 1, 0\n0, 0, 0, 0, 0, 0, 0, 0, 0, 0, 0, 0]\nclass = 13", fillcolor="#39c5e5"] ;
391 -> 392 ;
393 [label="gini = 0.0\nsamples = 1\nvalue = [0, 0, 0, 0, 0, 0, 0, 0, 0, 0, 0, 0, 0, 0\n1, 0, 0, 0, 0, 0, 0, 0, 0, 0, 0, 0]\nclass = 15", fillcolor="#3978e5"] ;
391 -> 393 ;
394 [label="X[48] <= -0.43\ngini = 0.4\nsamples = 16\nvalue = [0, 22, 2, 0, 0, 0, 0, 0, 0, 0, 0, 0, 1, 0\n0, 0, 0, 0, 0, 0, 0, 0, 0, 4, 0, 0]\nclass = 2", fillcolor="#ecbf70"] ;
352 -> 394 ;
395 [label="X[59] <= 0.1\ngini = 0.57\nsamples = 5\nvalue = [0, 0, 2, 0, 0, 0, 0, 0, 0, 0, 0, 0, 1, 0\n0, 0, 0, 0, 0, 0, 0, 0, 0, 4, 0, 0]\nclass = 24", fillcolor="#f5b0c3"] ;
394 -> 395 ;
396 [label="gini = 0.0\nsamples = 3\nvalue = [0, 0, 0, 0, 0, 0, 0, 0, 0, 0, 0, 0, 0, 0\n0, 0, 0, 0, 0, 0, 0, 0, 0, 4, 0, 0]\nclass = 24", fillcolor="#e5396a"] ;
395 -> 396 ;
397 [label="X[19] <= -0.74\ngini = 0.44\nsamples = 2\nvalue = [0, 0, 2, 0, 0, 0, 0, 0, 0, 0, 0, 0, 1, 0\n0, 0, 0, 0, 0, 0, 0, 0, 0, 0, 0, 0]\nclass = 3", fillcolor="#f2e69c"] ;
395 -> 397 ;
398 [label="gini = 0.0\nsamples = 1\nvalue = [0, 0, 0, 0, 0, 0, 0, 0, 0, 0, 0, 0, 1, 0\n0, 0, 0, 0, 0, 0, 0, 0, 0, 0, 0, 0]\nclass = 13", fillcolor="#39c5e5"] ;
397 -> 398 ;
399 [label="gini = 0.0\nsamples = 1\nvalue = [0, 0, 2, 0, 0, 0, 0, 0, 0, 0, 0, 0, 0, 0\n0, 0, 0, 0, 0, 0, 0, 0, 0, 0, 0, 0]\nclass = 3", fillcolor="#e5ce39"] ;
397 -> 399 ;
400 [label="gini = 0.0\nsamples = 11\nvalue = [0, 22, 0, 0, 0, 0, 0, 0, 0, 0, 0, 0, 0, 0\n0, 0, 0, 0, 0, 0, 0, 0, 0, 0, 0, 0]\nclass = 2", fillcolor="#e5a639"] ;
394 -> 400 ;
401 [label="X[31] <= -0.03\ngini = 0.64\nsamples = 212\nvalue = [1, 0, 1, 0, 0, 0, 0, 0, 0, 0, 23, 2, 0, 0\n4, 1, 128, 0, 0, 0, 0, 0, 23, 0, 140, 0]\nclass = 25", fillcolor="#fdf3f3"] ;
351 -> 401 ;
402 [label="X[37] <= 0.13\ngini = 0.53\nsamples = 110\nvalue = [1, 0, 0, 0, 0, 0, 0, 0, 0, 0, 10, 0, 0, 0\n1, 0, 42, 0, 0, 0, 0, 0, 6, 0, 105, 0]\nclass = 25", fillcolor="#f29a9e"] ;
401 -> 402 ;
403 [label="X[0] <= 2.87\ngini = 0.29\nsamples = 64\nvalue = [1, 0, 0, 0, 0, 0, 0, 0, 0, 0, 3, 0, 0, 0\n0, 0, 11, 0, 0, 0, 0, 0, 1, 0, 82, 0]\nclass = 25", fillcolor="#ea5d64"] ;
402 -> 403 ;
404 [label="X[44] <= 0.96\ngini = 0.02\nsamples = 53\nvalue = [1, 0, 0, 0, 0, 0, 0, 0, 0, 0, 0, 0, 0, 0\n0, 0, 0, 0, 0, 0, 0, 0, 0, 0, 82, 0]\nclass = 25", fillcolor="#e53b43"] ;
403 -> 404 ;
405 [label="gini = 0.0\nsamples = 52\nvalue = [0, 0, 0, 0, 0, 0, 0, 0, 0, 0, 0, 0, 0, 0\n0, 0, 0, 0, 0, 0, 0, 0, 0, 0, 82, 0]\nclass = 25", fillcolor="#e53941"] ;
404 -> 405 ;
406 [label="gini = 0.0\nsamples = 1\nvalue = [1, 0, 0, 0, 0, 0, 0, 0, 0, 0, 0, 0, 0, 0\n0, 0, 0, 0, 0, 0, 0, 0, 0, 0, 0, 0]\nclass = 1", fillcolor="#e58139"] ;
404 -> 406 ;
407 [label="X[63] <= -0.15\ngini = 0.42\nsamples = 11\nvalue = [0, 0, 0, 0, 0, 0, 0, 0, 0, 0, 3, 0, 0, 0\n0, 0, 11, 0, 0, 0, 0, 0, 1, 0, 0, 0]\nclass = 17", fillcolor="#867bee"] ;
403 -> 407 ;
408 [label="X[4] <= -0.58\ngini = 0.38\nsamples = 2\nvalue = [0, 0, 0, 0, 0, 0, 0, 0, 0, 0, 3, 0, 0, 0\n0, 0, 0, 0, 0, 0, 0, 0, 1, 0, 0, 0]\nclass = 11", fillcolor="#7beecd"] ;
407 -> 408 ;
409 [label="gini = 0.0\nsamples = 1\nvalue = [0, 0, 0, 0, 0, 0, 0, 0, 0, 0, 0, 0, 0, 0\n0, 0, 0, 0, 0, 0, 0, 0, 1, 0, 0, 0]\nclass = 23", fillcolor="#e53992"] ;
408 -> 409 ;
410 [label="gini = 0.0\nsamples = 1\nvalue = [0, 0, 0, 0, 0, 0, 0, 0, 0, 0, 3, 0, 0, 0\n0, 0, 0, 0, 0, 0, 0, 0, 0, 0, 0, 0]\nclass = 11", fillcolor="#39e5b4"] ;
408 -> 410 ;
411 [label="gini = 0.0\nsamples = 9\nvalue = [0, 0, 0, 0, 0, 0, 0, 0, 0, 0, 0, 0, 0, 0\n0, 0, 11, 0, 0, 0, 0, 0, 0, 0, 0, 0]\nclass = 17", fillcolor="#4a39e5"] ;
407 -> 411 ;
412 [label="X[10] <= 0.45\ngini = 0.65\nsamples = 46\nvalue = [0, 0, 0, 0, 0, 0, 0, 0, 0, 0, 7, 0, 0, 0\n1, 0, 31, 0, 0, 0, 0, 0, 5, 0, 23, 0]\nclass = 17", fillcolor="#dedbfa"] ;
402 -> 412 ;
413 [label="X[84] <= -0.33\ngini = 0.53\nsamples = 17\nvalue = [0, 0, 0, 0, 0, 0, 0, 0, 0, 0, 6, 0, 0, 0\n0, 0, 17, 0, 0, 0, 0, 0, 4, 0, 0, 0]\nclass = 17", fillcolor="#a097f1"] ;
412 -> 413 ;
414 [label="gini = 0.0\nsamples = 2\nvalue = [0, 0, 0, 0, 0, 0, 0, 0, 0, 0, 6, 0, 0, 0\n0, 0, 0, 0, 0, 0, 0, 0, 0, 0, 0, 0]\nclass = 11", fillcolor="#39e5b4"] ;
413 -> 414 ;
415 [label="X[19] <= -0.09\ngini = 0.31\nsamples = 15\nvalue = [0, 0, 0, 0, 0, 0, 0, 0, 0, 0, 0, 0, 0, 0\n0, 0, 17, 0, 0, 0, 0, 0, 4, 0, 0, 0]\nclass = 17", fillcolor="#7568eb"] ;
413 -> 415 ;
416 [label="gini = 0.0\nsamples = 3\nvalue = [0, 0, 0, 0, 0, 0, 0, 0, 0, 0, 0, 0, 0, 0\n0, 0, 0, 0, 0, 0, 0, 0, 4, 0, 0, 0]\nclass = 23", fillcolor="#e53992"] ;
415 -> 416 ;
417 [label="gini = 0.0\nsamples = 12\nvalue = [0, 0, 0, 0, 0, 0, 0, 0, 0, 0, 0, 0, 0, 0\n0, 0, 17, 0, 0, 0, 0, 0, 0, 0, 0, 0]\nclass = 17", fillcolor="#4a39e5"] ;
415 -> 417 ;
418 [label="X[67] <= -0.11\ngini = 0.54\nsamples = 29\nvalue = [0, 0, 0, 0, 0, 0, 0, 0, 0, 0, 1, 0, 0, 0\n1, 0, 14, 0, 0, 0, 0, 0, 1, 0, 23, 0]\nclass = 25", fillcolor="#f6babd"] ;
412 -> 418 ;
419 [label="X[22] <= 0.44\ngini = 0.11\nsamples = 12\nvalue = [0, 0, 0, 0, 0, 0, 0, 0, 0, 0, 1, 0, 0, 0\n0, 0, 0, 0, 0, 0, 0, 0, 0, 0, 16, 0]\nclass = 25", fillcolor="#e7454d"] ;
418 -> 419 ;
420 [label="gini = 0.0\nsamples = 11\nvalue = [0, 0, 0, 0, 0, 0, 0, 0, 0, 0, 0, 0, 0, 0\n0, 0, 0, 0, 0, 0, 0, 0, 0, 0, 16, 0]\nclass = 25", fillcolor="#e53941"] ;
419 -> 420 ;
421 [label="gini = 0.0\nsamples = 1\nvalue = [0, 0, 0, 0, 0, 0, 0, 0, 0, 0, 1, 0, 0, 0\n0, 0, 0, 0, 0, 0, 0, 0, 0, 0, 0, 0]\nclass = 11", fillcolor="#39e5b4"] ;
419 -> 421 ;
422 [label="X[58] <= -0.04\ngini = 0.53\nsamples = 17\nvalue = [0, 0, 0, 0, 0, 0, 0, 0, 0, 0, 0, 0, 0, 0\n1, 0, 14, 0, 0, 0, 0, 0, 1, 0, 7, 0]\nclass = 17", fillcolor="#b0a8f4"] ;
418 -> 422 ;
423 [label="X[84] <= 0.76\ngini = 0.31\nsamples = 13\nvalue = [0, 0, 0, 0, 0, 0, 0, 0, 0, 0, 0, 0, 0, 0\n1, 0, 14, 0, 0, 0, 0, 0, 1, 0, 1, 0]\nclass = 17", fillcolor="#6c5eea"] ;
422 -> 423 ;
424 [label="X[2] <= -2.44\ngini = 0.23\nsamples = 12\nvalue = [0, 0, 0, 0, 0, 0, 0, 0, 0, 0, 0, 0, 0, 0\n1, 0, 14, 0, 0, 0, 0, 0, 0, 0, 1, 0]\nclass = 17", fillcolor="#6253e8"] ;
423 -> 424 ;
425 [label="gini = 0.0\nsamples = 1\nvalue = [0, 0, 0, 0, 0, 0, 0, 0, 0, 0, 0, 0, 0, 0\n0, 0, 0, 0, 0, 0, 0, 0, 0, 0, 1, 0]\nclass = 25", fillcolor="#e53941"] ;
424 -> 425 ;
426 [label="X[94] <= 0.42\ngini = 0.12\nsamples = 11\nvalue = [0, 0, 0, 0, 0, 0, 0, 0, 0, 0, 0, 0, 0, 0\n1, 0, 14, 0, 0, 0, 0, 0, 0, 0, 0, 0]\nclass = 17", fillcolor="#5747e7"] ;
424 -> 426 ;
427 [label="gini = 0.0\nsamples = 10\nvalue = [0, 0, 0, 0, 0, 0, 0, 0, 0, 0, 0, 0, 0, 0\n0, 0, 14, 0, 0, 0, 0, 0, 0, 0, 0, 0]\nclass = 17", fillcolor="#4a39e5"] ;
426 -> 427 ;
428 [label="gini = 0.0\nsamples = 1\nvalue = [0, 0, 0, 0, 0, 0, 0, 0, 0, 0, 0, 0, 0, 0\n1, 0, 0, 0, 0, 0, 0, 0, 0, 0, 0, 0]\nclass = 15", fillcolor="#3978e5"] ;
426 -> 428 ;
429 [label="gini = 0.0\nsamples = 1\nvalue = [0, 0, 0, 0, 0, 0, 0, 0, 0, 0, 0, 0, 0, 0\n0, 0, 0, 0, 0, 0, 0, 0, 1, 0, 0, 0]\nclass = 23", fillcolor="#e53992"] ;
423 -> 429 ;
430 [label="gini = 0.0\nsamples = 4\nvalue = [0, 0, 0, 0, 0, 0, 0, 0, 0, 0, 0, 0, 0, 0\n0, 0, 0, 0, 0, 0, 0, 0, 0, 0, 6, 0]\nclass = 25", fillcolor="#e53941"] ;
422 -> 430 ;
431 [label="X[26] <= 0.11\ngini = 0.64\nsamples = 102\nvalue = [0, 0, 1, 0, 0, 0, 0, 0, 0, 0, 13, 2, 0, 0\n3, 1, 86, 0, 0, 0, 0, 0, 17, 0, 35, 0]\nclass = 17", fillcolor="#b4adf4"] ;
401 -> 431 ;
432 [label="X[10] <= 1.25\ngini = 0.73\nsamples = 44\nvalue = [0, 0, 1, 0, 0, 0, 0, 0, 0, 0, 9, 2, 0, 0\n0, 1, 19, 0, 0, 0, 0, 0, 9, 0, 27, 0]\nclass = 25", fillcolor="#fbdfe0"] ;
431 -> 432 ;
433 [label="X[21] <= -0.38\ngini = 0.78\nsamples = 33\nvalue = [0, 0, 1, 0, 0, 0, 0, 0, 0, 0, 9, 2, 0, 0\n0, 1, 15, 0, 0, 0, 0, 0, 9, 0, 10, 0]\nclass = 17", fillcolor="#e7e4fb"] ;
432 -> 433 ;
434 [label="X[31] <= 0.38\ngini = 0.43\nsamples = 9\nvalue = [0, 0, 0, 0, 0, 0, 0, 0, 0, 0, 0, 0, 0, 0\n0, 0, 4, 0, 0, 0, 0, 0, 9, 0, 0, 0]\nclass = 23", fillcolor="#f191c2"] ;
433 -> 434 ;
435 [label="X[27] <= 0.24\ngini = 0.18\nsamples = 6\nvalue = [0, 0, 0, 0, 0, 0, 0, 0, 0, 0, 0, 0, 0, 0\n0, 0, 1, 0, 0, 0, 0, 0, 9, 0, 0, 0]\nclass = 23", fillcolor="#e84f9e"] ;
434 -> 435 ;
436 [label="gini = 0.0\nsamples = 5\nvalue = [0, 0, 0, 0, 0, 0, 0, 0, 0, 0, 0, 0, 0, 0\n0, 0, 0, 0, 0, 0, 0, 0, 9, 0, 0, 0]\nclass = 23", fillcolor="#e53992"] ;
435 -> 436 ;
437 [label="gini = 0.0\nsamples = 1\nvalue = [0, 0, 0, 0, 0, 0, 0, 0, 0, 0, 0, 0, 0, 0\n0, 0, 1, 0, 0, 0, 0, 0, 0, 0, 0, 0]\nclass = 17", fillcolor="#4a39e5"] ;
435 -> 437 ;
438 [label="gini = 0.0\nsamples = 3\nvalue = [0, 0, 0, 0, 0, 0, 0, 0, 0, 0, 0, 0, 0, 0\n0, 0, 3, 0, 0, 0, 0, 0, 0, 0, 0, 0]\nclass = 17", fillcolor="#4a39e5"] ;
434 -> 438 ;
439 [label="X[0] <= 2.17\ngini = 0.73\nsamples = 24\nvalue = [0, 0, 1, 0, 0, 0, 0, 0, 0, 0, 9, 2, 0, 0\n0, 1, 11, 0, 0, 0, 0, 0, 0, 0, 10, 0]\nclass = 17", fillcolor="#f7f7fe"] ;
433 -> 439 ;
440 [label="X[71] <= 0.21\ngini = 0.28\nsamples = 8\nvalue = [0, 0, 0, 0, 0, 0, 0, 0, 0, 0, 0, 2, 0, 0\n0, 0, 0, 0, 0, 0, 0, 0, 0, 0, 10, 0]\nclass = 25", fillcolor="#ea6167"] ;
439 -> 440 ;
441 [label="gini = 0.0\nsamples = 7\nvalue = [0, 0, 0, 0, 0, 0, 0, 0, 0, 0, 0, 0, 0, 0\n0, 0, 0, 0, 0, 0, 0, 0, 0, 0, 10, 0]\nclass = 25", fillcolor="#e53941"] ;
440 -> 441 ;
442 [label="gini = 0.0\nsamples = 1\nvalue = [0, 0, 0, 0, 0, 0, 0, 0, 0, 0, 0, 2, 0, 0\n0, 0, 0, 0, 0, 0, 0, 0, 0, 0, 0, 0]\nclass = 12", fillcolor="#39e5dc"] ;
440 -> 442 ;
443 [label="X[13] <= 0.52\ngini = 0.58\nsamples = 16\nvalue = [0, 0, 1, 0, 0, 0, 0, 0, 0, 0, 9, 0, 0, 0\n0, 1, 11, 0, 0, 0, 0, 0, 0, 0, 0, 0]\nclass = 17", fillcolor="#e3e1fb"] ;
439 -> 443 ;
444 [label="X[92] <= 0.14\ngini = 0.44\nsamples = 11\nvalue = [0, 0, 1, 0, 0, 0, 0, 0, 0, 0, 2, 0, 0, 0\n0, 1, 11, 0, 0, 0, 0, 0, 0, 0, 0, 0]\nclass = 17", fillcolor="#8276ed"] ;
443 -> 444 ;
445 [label="X[98] <= -0.09\ngini = 0.72\nsamples = 5\nvalue = [0, 0, 1, 0, 0, 0, 0, 0, 0, 0, 2, 0, 0, 0\n0, 1, 1, 0, 0, 0, 0, 0, 0, 0, 0, 0]\nclass = 11", fillcolor="#cef8ec"] ;
444 -> 445 ;
446 [label="gini = 0.0\nsamples = 2\nvalue = [0, 0, 0, 0, 0, 0, 0, 0, 0, 0, 2, 0, 0, 0\n0, 0, 0, 0, 0, 0, 0, 0, 0, 0, 0, 0]\nclass = 11", fillcolor="#39e5b4"] ;
445 -> 446 ;
447 [label="X[40] <= 0.22\ngini = 0.67\nsamples = 3\nvalue = [0, 0, 1, 0, 0, 0, 0, 0, 0, 0, 0, 0, 0, 0\n0, 1, 1, 0, 0, 0, 0, 0, 0, 0, 0, 0]\nclass = 3", fillcolor="#ffffff"] ;
445 -> 447 ;
448 [label="gini = 0.0\nsamples = 1\nvalue = [0, 0, 0, 0, 0, 0, 0, 0, 0, 0, 0, 0, 0, 0\n0, 1, 0, 0, 0, 0, 0, 0, 0, 0, 0, 0]\nclass = 16", fillcolor="#3950e5"] ;
447 -> 448 ;
449 [label="X[26] <= -0.13\ngini = 0.5\nsamples = 2\nvalue = [0, 0, 1, 0, 0, 0, 0, 0, 0, 0, 0, 0, 0, 0\n0, 0, 1, 0, 0, 0, 0, 0, 0, 0, 0, 0]\nclass = 3", fillcolor="#ffffff"] ;
447 -> 449 ;
450 [label="gini = 0.0\nsamples = 1\nvalue = [0, 0, 0, 0, 0, 0, 0, 0, 0, 0, 0, 0, 0, 0\n0, 0, 1, 0, 0, 0, 0, 0, 0, 0, 0, 0]\nclass = 17", fillcolor="#4a39e5"] ;
449 -> 450 ;
451 [label="gini = 0.0\nsamples = 1\nvalue = [0, 0, 1, 0, 0, 0, 0, 0, 0, 0, 0, 0, 0, 0\n0, 0, 0, 0, 0, 0, 0, 0, 0, 0, 0, 0]\nclass = 3", fillcolor="#e5ce39"] ;
449 -> 451 ;
452 [label="gini = 0.0\nsamples = 6\nvalue = [0, 0, 0, 0, 0, 0, 0, 0, 0, 0, 0, 0, 0, 0\n0, 0, 10, 0, 0, 0, 0, 0, 0, 0, 0, 0]\nclass = 17", fillcolor="#4a39e5"] ;
444 -> 452 ;
453 [label="gini = 0.0\nsamples = 5\nvalue = [0, 0, 0, 0, 0, 0, 0, 0, 0, 0, 7, 0, 0, 0\n0, 0, 0, 0, 0, 0, 0, 0, 0, 0, 0, 0]\nclass = 11", fillcolor="#39e5b4"] ;
443 -> 453 ;
454 [label="X[12] <= -0.24\ngini = 0.31\nsamples = 11\nvalue = [0, 0, 0, 0, 0, 0, 0, 0, 0, 0, 0, 0, 0, 0\n0, 0, 4, 0, 0, 0, 0, 0, 0, 0, 17, 0]\nclass = 25", fillcolor="#eb686e"] ;
432 -> 454 ;
455 [label="gini = 0.0\nsamples = 7\nvalue = [0, 0, 0, 0, 0, 0, 0, 0, 0, 0, 0, 0, 0, 0\n0, 0, 0, 0, 0, 0, 0, 0, 0, 0, 16, 0]\nclass = 25", fillcolor="#e53941"] ;
454 -> 455 ;
456 [label="X[5] <= 0.6\ngini = 0.32\nsamples = 4\nvalue = [0, 0, 0, 0, 0, 0, 0, 0, 0, 0, 0, 0, 0, 0\n0, 0, 4, 0, 0, 0, 0, 0, 0, 0, 1, 0]\nclass = 17", fillcolor="#776aec"] ;
454 -> 456 ;
457 [label="gini = 0.0\nsamples = 1\nvalue = [0, 0, 0, 0, 0, 0, 0, 0, 0, 0, 0, 0, 0, 0\n0, 0, 0, 0, 0, 0, 0, 0, 0, 0, 1, 0]\nclass = 25", fillcolor="#e53941"] ;
456 -> 457 ;
458 [label="gini = 0.0\nsamples = 3\nvalue = [0, 0, 0, 0, 0, 0, 0, 0, 0, 0, 0, 0, 0, 0\n0, 0, 4, 0, 0, 0, 0, 0, 0, 0, 0, 0]\nclass = 17", fillcolor="#4a39e5"] ;
456 -> 458 ;
459 [label="X[22] <= 0.26\ngini = 0.43\nsamples = 58\nvalue = [0, 0, 0, 0, 0, 0, 0, 0, 0, 0, 4, 0, 0, 0\n3, 0, 67, 0, 0, 0, 0, 0, 8, 0, 8, 0]\nclass = 17", fillcolor="#7d71ec"] ;
431 -> 459 ;
460 [label="X[42] <= 0.22\ngini = 0.71\nsamples = 25\nvalue = [0, 0, 0, 0, 0, 0, 0, 0, 0, 0, 4, 0, 0, 0\n2, 0, 16, 0, 0, 0, 0, 0, 8, 0, 6, 0]\nclass = 17", fillcolor="#cbc6f8"] ;
459 -> 460 ;
461 [label="X[3] <= -0.78\ngini = 0.77\nsamples = 19\nvalue = [0, 0, 0, 0, 0, 0, 0, 0, 0, 0, 4, 0, 0, 0\n2, 0, 6, 0, 0, 0, 0, 0, 8, 0, 6, 0]\nclass = 23", fillcolor="#fcebf4"] ;
460 -> 461 ;
462 [label="X[62] <= 0.07\ngini = 0.49\nsamples = 7\nvalue = [0, 0, 0, 0, 0, 0, 0, 0, 0, 0, 0, 0, 0, 0\n0, 0, 4, 0, 0, 0, 0, 0, 0, 0, 5, 0]\nclass = 25", fillcolor="#fad7d9"] ;
461 -> 462 ;
463 [label="gini = 0.0\nsamples = 3\nvalue = [0, 0, 0, 0, 0, 0, 0, 0, 0, 0, 0, 0, 0, 0\n0, 0, 4, 0, 0, 0, 0, 0, 0, 0, 0, 0]\nclass = 17", fillcolor="#4a39e5"] ;
462 -> 463 ;
464 [label="gini = 0.0\nsamples = 4\nvalue = [0, 0, 0, 0, 0, 0, 0, 0, 0, 0, 0, 0, 0, 0\n0, 0, 0, 0, 0, 0, 0, 0, 0, 0, 5, 0]\nclass = 25", fillcolor="#e53941"] ;
462 -> 464 ;
465 [label="X[84] <= -0.2\ngini = 0.69\nsamples = 12\nvalue = [0, 0, 0, 0, 0, 0, 0, 0, 0, 0, 4, 0, 0, 0\n2, 0, 2, 0, 0, 0, 0, 0, 8, 0, 1, 0]\nclass = 23", fillcolor="#f7c2dd"] ;
461 -> 465 ;
466 [label="gini = 0.0\nsamples = 4\nvalue = [0, 0, 0, 0, 0, 0, 0, 0, 0, 0, 4, 0, 0, 0\n0, 0, 0, 0, 0, 0, 0, 0, 0, 0, 0, 0]\nclass = 11", fillcolor="#39e5b4"] ;
465 -> 466 ;
467 [label="X[15] <= -0.42\ngini = 0.57\nsamples = 8\nvalue = [0, 0, 0, 0, 0, 0, 0, 0, 0, 0, 0, 0, 0, 0\n2, 0, 2, 0, 0, 0, 0, 0, 8, 0, 1, 0]\nclass = 23", fillcolor="#f193c4"] ;
465 -> 467 ;
468 [label="X[54] <= 0.32\ngini = 0.64\nsamples = 4\nvalue = [0, 0, 0, 0, 0, 0, 0, 0, 0, 0, 0, 0, 0, 0\n2, 0, 2, 0, 0, 0, 0, 0, 0, 0, 1, 0]\nclass = 15", fillcolor="#ffffff"] ;
467 -> 468 ;
469 [label="gini = 0.0\nsamples = 2\nvalue = [0, 0, 0, 0, 0, 0, 0, 0, 0, 0, 0, 0, 0, 0\n0, 0, 2, 0, 0, 0, 0, 0, 0, 0, 0, 0]\nclass = 17", fillcolor="#4a39e5"] ;
468 -> 469 ;
470 [label="X[67] <= 0.12\ngini = 0.44\nsamples = 2\nvalue = [0, 0, 0, 0, 0, 0, 0, 0, 0, 0, 0, 0, 0, 0\n2, 0, 0, 0, 0, 0, 0, 0, 0, 0, 1, 0]\nclass = 15", fillcolor="#9cbcf2"] ;
468 -> 470 ;
471 [label="gini = 0.0\nsamples = 1\nvalue = [0, 0, 0, 0, 0, 0, 0, 0, 0, 0, 0, 0, 0, 0\n0, 0, 0, 0, 0, 0, 0, 0, 0, 0, 1, 0]\nclass = 25", fillcolor="#e53941"] ;
470 -> 471 ;
472 [label="gini = 0.0\nsamples = 1\nvalue = [0, 0, 0, 0, 0, 0, 0, 0, 0, 0, 0, 0, 0, 0\n2, 0, 0, 0, 0, 0, 0, 0, 0, 0, 0, 0]\nclass = 15", fillcolor="#3978e5"] ;
470 -> 472 ;
473 [label="gini = 0.0\nsamples = 4\nvalue = [0, 0, 0, 0, 0, 0, 0, 0, 0, 0, 0, 0, 0, 0\n0, 0, 0, 0, 0, 0, 0, 0, 8, 0, 0, 0]\nclass = 23", fillcolor="#e53992"] ;
467 -> 473 ;
474 [label="gini = 0.0\nsamples = 6\nvalue = [0, 0, 0, 0, 0, 0, 0, 0, 0, 0, 0, 0, 0, 0\n0, 0, 10, 0, 0, 0, 0, 0, 0, 0, 0, 0]\nclass = 17", fillcolor="#4a39e5"] ;
460 -> 474 ;
475 [label="X[6] <= -0.37\ngini = 0.11\nsamples = 33\nvalue = [0, 0, 0, 0, 0, 0, 0, 0, 0, 0, 0, 0, 0, 0\n1, 0, 51, 0, 0, 0, 0, 0, 0, 0, 2, 0]\nclass = 17", fillcolor="#5444e6"] ;
459 -> 475 ;
476 [label="gini = 0.0\nsamples = 1\nvalue = [0, 0, 0, 0, 0, 0, 0, 0, 0, 0, 0, 0, 0, 0\n1, 0, 0, 0, 0, 0, 0, 0, 0, 0, 0, 0]\nclass = 15", fillcolor="#3978e5"] ;
475 -> 476 ;
477 [label="X[2] <= -3.53\ngini = 0.07\nsamples = 32\nvalue = [0, 0, 0, 0, 0, 0, 0, 0, 0, 0, 0, 0, 0, 0\n0, 0, 51, 0, 0, 0, 0, 0, 0, 0, 2, 0]\nclass = 17", fillcolor="#5141e6"] ;
475 -> 477 ;
478 [label="gini = 0.0\nsamples = 1\nvalue = [0, 0, 0, 0, 0, 0, 0, 0, 0, 0, 0, 0, 0, 0\n0, 0, 0, 0, 0, 0, 0, 0, 0, 0, 1, 0]\nclass = 25", fillcolor="#e53941"] ;
477 -> 478 ;
479 [label="X[30] <= -0.35\ngini = 0.04\nsamples = 31\nvalue = [0, 0, 0, 0, 0, 0, 0, 0, 0, 0, 0, 0, 0, 0\n0, 0, 51, 0, 0, 0, 0, 0, 0, 0, 1, 0]\nclass = 17", fillcolor="#4e3de6"] ;
477 -> 479 ;
480 [label="X[24] <= 0.26\ngini = 0.38\nsamples = 3\nvalue = [0, 0, 0, 0, 0, 0, 0, 0, 0, 0, 0, 0, 0, 0\n0, 0, 3, 0, 0, 0, 0, 0, 0, 0, 1, 0]\nclass = 17", fillcolor="#867bee"] ;
479 -> 480 ;
481 [label="gini = 0.0\nsamples = 1\nvalue = [0, 0, 0, 0, 0, 0, 0, 0, 0, 0, 0, 0, 0, 0\n0, 0, 0, 0, 0, 0, 0, 0, 0, 0, 1, 0]\nclass = 25", fillcolor="#e53941"] ;
480 -> 481 ;
482 [label="gini = 0.0\nsamples = 2\nvalue = [0, 0, 0, 0, 0, 0, 0, 0, 0, 0, 0, 0, 0, 0\n0, 0, 3, 0, 0, 0, 0, 0, 0, 0, 0, 0]\nclass = 17", fillcolor="#4a39e5"] ;
480 -> 482 ;
483 [label="gini = 0.0\nsamples = 28\nvalue = [0, 0, 0, 0, 0, 0, 0, 0, 0, 0, 0, 0, 0, 0\n0, 0, 48, 0, 0, 0, 0, 0, 0, 0, 0, 0]\nclass = 17", fillcolor="#4a39e5"] ;
479 -> 483 ;
484 [label="X[5] <= 3.07\ngini = 0.96\nsamples = 2547\nvalue = [167, 111, 130, 85, 196, 201, 213, 198, 175, 112\n33, 218, 205, 240, 197, 137, 8, 219, 212, 201, 187\n199, 52, 196, 41, 161]\nclass = 14", fillcolor="#fefeff"] ;
102 -> 484 ;
485 [label="X[2] <= -2.64\ngini = 0.95\nsamples = 2385\nvalue = [167, 111, 130, 85, 195, 201, 213, 198, 123, 112\n28, 218, 205, 67, 197, 133, 8, 211, 209, 200, 187\n199, 45, 196, 41, 161]\nclass = 12", fillcolor="#ffffff"] ;
484 -> 485 ;
486 [label="X[3] <= -0.86\ngini = 0.88\nsamples = 402\nvalue = [65, 0, 7, 7, 2, 0, 94, 58, 0, 9, 0, 98, 11\n2, 36, 5, 0, 9, 0, 0, 66, 137, 0, 0, 33, 6]\nclass = 22", fillcolor="#fdf1fa"] ;
485 -> 486 ;
487 [label="X[20] <= -0.01\ngini = 0.69\nsamples = 155\nvalue = [4, 0, 0, 0, 0, 0, 6, 4, 0, 0, 0, 74, 0, 2\n12, 0, 0, 3, 0, 0, 22, 113, 0, 0, 8, 0]\nclass = 22", fillcolor="#f9d3f0"] ;
486 -> 487 ;
488 [label="X[3] <= -1.66\ngini = 0.49\nsamples = 78\nvalue = [3, 0, 0, 0, 0, 0, 6, 4, 0, 0, 0, 9, 0, 2\n1, 0, 0, 1, 0, 0, 12, 93, 0, 0, 2, 0]\nclass = 22", fillcolor="#ee7ad1"] ;
487 -> 488 ;
489 [label="X[71] <= 0.95\ngini = 0.19\nsamples = 44\nvalue = [0, 0, 0, 0, 0, 0, 1, 1, 0, 0, 0, 4, 0, 0\n0, 0, 0, 0, 0, 0, 0, 69, 0, 0, 2, 0]\nclass = 22", fillcolor="#e84fc2"] ;
488 -> 489 ;
490 [label="X[55] <= 0.55\ngini = 0.17\nsamples = 43\nvalue = [0, 0, 0, 0, 0, 0, 1, 0, 0, 0, 0, 4, 0, 0\n0, 0, 0, 0, 0, 0, 0, 69, 0, 0, 2, 0]\nclass = 22", fillcolor="#e84cc1"] ;
489 -> 490 ;
491 [label="X[59] <= 0.64\ngini = 0.06\nsamples = 37\nvalue = [0, 0, 0, 0, 0, 0, 1, 0, 0, 0, 0, 1, 0, 0\n0, 0, 0, 0, 0, 0, 0, 65, 0, 0, 0, 0]\nclass = 22", fillcolor="#e63fbc"] ;
490 -> 491 ;
492 [label="X[98] <= -0.15\ngini = 0.03\nsamples = 35\nvalue = [0, 0, 0, 0, 0, 0, 0, 0, 0, 0, 0, 1, 0, 0\n0, 0, 0, 0, 0, 0, 0, 62, 0, 0, 0, 0]\nclass = 22", fillcolor="#e53cbb"] ;
491 -> 492 ;
493 [label="X[35] <= -0.65\ngini = 0.18\nsamples = 5\nvalue = [0, 0, 0, 0, 0, 0, 0, 0, 0, 0, 0, 1, 0, 0\n0, 0, 0, 0, 0, 0, 0, 9, 0, 0, 0, 0]\nclass = 22", fillcolor="#e84fc2"] ;
492 -> 493 ;
494 [label="gini = 0.0\nsamples = 1\nvalue = [0, 0, 0, 0, 0, 0, 0, 0, 0, 0, 0, 1, 0, 0\n0, 0, 0, 0, 0, 0, 0, 0, 0, 0, 0, 0]\nclass = 12", fillcolor="#39e5dc"] ;
493 -> 494 ;
495 [label="gini = 0.0\nsamples = 4\nvalue = [0, 0, 0, 0, 0, 0, 0, 0, 0, 0, 0, 0, 0, 0\n0, 0, 0, 0, 0, 0, 0, 9, 0, 0, 0, 0]\nclass = 22", fillcolor="#e539ba"] ;
493 -> 495 ;
496 [label="gini = 0.0\nsamples = 30\nvalue = [0, 0, 0, 0, 0, 0, 0, 0, 0, 0, 0, 0, 0, 0\n0, 0, 0, 0, 0, 0, 0, 53, 0, 0, 0, 0]\nclass = 22", fillcolor="#e539ba"] ;
492 -> 496 ;
497 [label="X[94] <= -0.01\ngini = 0.38\nsamples = 2\nvalue = [0, 0, 0, 0, 0, 0, 1, 0, 0, 0, 0, 0, 0, 0\n0, 0, 0, 0, 0, 0, 0, 3, 0, 0, 0, 0]\nclass = 22", fillcolor="#ee7bd1"] ;
491 -> 497 ;
498 [label="gini = 0.0\nsamples = 1\nvalue = [0, 0, 0, 0, 0, 0, 0, 0, 0, 0, 0, 0, 0, 0\n0, 0, 0, 0, 0, 0, 0, 3, 0, 0, 0, 0]\nclass = 22", fillcolor="#e539ba"] ;
497 -> 498 ;
499 [label="gini = 0.0\nsamples = 1\nvalue = [0, 0, 0, 0, 0, 0, 1, 0, 0, 0, 0, 0, 0, 0\n0, 0, 0, 0, 0, 0, 0, 0, 0, 0, 0, 0]\nclass = 7", fillcolor="#5be539"] ;
497 -> 499 ;
500 [label="X[6] <= 0.18\ngini = 0.64\nsamples = 6\nvalue = [0, 0, 0, 0, 0, 0, 0, 0, 0, 0, 0, 3, 0, 0\n0, 0, 0, 0, 0, 0, 0, 4, 0, 0, 2, 0]\nclass = 22", fillcolor="#fbdef4"] ;
490 -> 500 ;
501 [label="gini = 0.0\nsamples = 2\nvalue = [0, 0, 0, 0, 0, 0, 0, 0, 0, 0, 0, 0, 0, 0\n0, 0, 0, 0, 0, 0, 0, 4, 0, 0, 0, 0]\nclass = 22", fillcolor="#e539ba"] ;
500 -> 501 ;
502 [label="X[10] <= 1.74\ngini = 0.48\nsamples = 4\nvalue = [0, 0, 0, 0, 0, 0, 0, 0, 0, 0, 0, 3, 0, 0\n0, 0, 0, 0, 0, 0, 0, 0, 0, 0, 2, 0]\nclass = 12", fillcolor="#bdf6f3"] ;
500 -> 502 ;
503 [label="gini = 0.0\nsamples = 3\nvalue = [0, 0, 0, 0, 0, 0, 0, 0, 0, 0, 0, 3, 0, 0\n0, 0, 0, 0, 0, 0, 0, 0, 0, 0, 0, 0]\nclass = 12", fillcolor="#39e5dc"] ;
502 -> 503 ;
504 [label="gini = 0.0\nsamples = 1\nvalue = [0, 0, 0, 0, 0, 0, 0, 0, 0, 0, 0, 0, 0, 0\n0, 0, 0, 0, 0, 0, 0, 0, 0, 0, 2, 0]\nclass = 25", fillcolor="#e53941"] ;
502 -> 504 ;
505 [label="gini = 0.0\nsamples = 1\nvalue = [0, 0, 0, 0, 0, 0, 0, 1, 0, 0, 0, 0, 0, 0\n0, 0, 0, 0, 0, 0, 0, 0, 0, 0, 0, 0]\nclass = 8", fillcolor="#39e53c"] ;
489 -> 505 ;
506 [label="X[0] <= -7.43\ngini = 0.75\nsamples = 34\nvalue = [3, 0, 0, 0, 0, 0, 5, 3, 0, 0, 0, 5, 0, 2\n1, 0, 0, 1, 0, 0, 12, 24, 0, 0, 0, 0]\nclass = 22", fillcolor="#f8c9ec"] ;
488 -> 506 ;
507 [label="X[93] <= 0.45\ngini = 0.18\nsamples = 4\nvalue = [0, 0, 0, 0, 0, 0, 0, 0, 0, 0, 0, 0, 0, 0\n1, 0, 0, 0, 0, 0, 9, 0, 0, 0, 0, 0]\nclass = 21", fillcolor="#e84fe5"] ;
506 -> 507 ;
508 [label="gini = 0.0\nsamples = 3\nvalue = [0, 0, 0, 0, 0, 0, 0, 0, 0, 0, 0, 0, 0, 0\n0, 0, 0, 0, 0, 0, 9, 0, 0, 0, 0, 0]\nclass = 21", fillcolor="#e539e2"] ;
507 -> 508 ;
509 [label="gini = 0.0\nsamples = 1\nvalue = [0, 0, 0, 0, 0, 0, 0, 0, 0, 0, 0, 0, 0, 0\n1, 0, 0, 0, 0, 0, 0, 0, 0, 0, 0, 0]\nclass = 15", fillcolor="#3978e5"] ;
507 -> 509 ;
510 [label="X[17] <= 0.43\ngini = 0.69\nsamples = 30\nvalue = [3, 0, 0, 0, 0, 0, 5, 3, 0, 0, 0, 5, 0, 2\n0, 0, 0, 1, 0, 0, 3, 24, 0, 0, 0, 0]\nclass = 22", fillcolor="#f3a3df"] ;
506 -> 510 ;
511 [label="X[68] <= 0.49\ngini = 0.34\nsamples = 17\nvalue = [2, 0, 0, 0, 0, 0, 0, 3, 0, 0, 0, 0, 0, 0\n0, 0, 0, 0, 0, 0, 0, 20, 0, 0, 0, 0]\nclass = 22", fillcolor="#eb66ca"] ;
510 -> 511 ;
512 [label="X[55] <= -0.68\ngini = 0.17\nsamples = 15\nvalue = [2, 0, 0, 0, 0, 0, 0, 0, 0, 0, 0, 0, 0, 0\n0, 0, 0, 0, 0, 0, 0, 20, 0, 0, 0, 0]\nclass = 22", fillcolor="#e84dc1"] ;
511 -> 512 ;
513 [label="gini = 0.0\nsamples = 1\nvalue = [2, 0, 0, 0, 0, 0, 0, 0, 0, 0, 0, 0, 0, 0\n0, 0, 0, 0, 0, 0, 0, 0, 0, 0, 0, 0]\nclass = 1", fillcolor="#e58139"] ;
512 -> 513 ;
514 [label="gini = 0.0\nsamples = 14\nvalue = [0, 0, 0, 0, 0, 0, 0, 0, 0, 0, 0, 0, 0, 0\n0, 0, 0, 0, 0, 0, 0, 20, 0, 0, 0, 0]\nclass = 22", fillcolor="#e539ba"] ;
512 -> 514 ;
515 [label="gini = 0.0\nsamples = 2\nvalue = [0, 0, 0, 0, 0, 0, 0, 3, 0, 0, 0, 0, 0, 0\n0, 0, 0, 0, 0, 0, 0, 0, 0, 0, 0, 0]\nclass = 8", fillcolor="#39e53c"] ;
511 -> 515 ;
516 [label="X[86] <= -0.03\ngini = 0.82\nsamples = 13\nvalue = [1, 0, 0, 0, 0, 0, 5, 0, 0, 0, 0, 5, 0, 2\n0, 0, 0, 1, 0, 0, 3, 4, 0, 0, 0, 0]\nclass = 7", fillcolor="#ffffff"] ;
510 -> 516 ;
517 [label="X[23] <= -0.17\ngini = 0.32\nsamples = 4\nvalue = [0, 0, 0, 0, 0, 0, 0, 0, 0, 0, 0, 0, 0, 0\n0, 0, 0, 1, 0, 0, 0, 4, 0, 0, 0, 0]\nclass = 22", fillcolor="#ec6acb"] ;
516 -> 517 ;
518 [label="gini = 0.0\nsamples = 3\nvalue = [0, 0, 0, 0, 0, 0, 0, 0, 0, 0, 0, 0, 0, 0\n0, 0, 0, 0, 0, 0, 0, 4, 0, 0, 0, 0]\nclass = 22", fillcolor="#e539ba"] ;
517 -> 518 ;
519 [label="gini = 0.0\nsamples = 1\nvalue = [0, 0, 0, 0, 0, 0, 0, 0, 0, 0, 0, 0, 0, 0\n0, 0, 0, 1, 0, 0, 0, 0, 0, 0, 0, 0]\nclass = 18", fillcolor="#7239e5"] ;
517 -> 519 ;
520 [label="X[3] <= -1.16\ngini = 0.75\nsamples = 9\nvalue = [1, 0, 0, 0, 0, 0, 5, 0, 0, 0, 0, 5, 0, 2\n0, 0, 0, 0, 0, 0, 3, 0, 0, 0, 0, 0]\nclass = 7", fillcolor="#ffffff"] ;
516 -> 520 ;
521 [label="X[62] <= -0.29\ngini = 0.62\nsamples = 5\nvalue = [0, 0, 0, 0, 0, 0, 0, 0, 0, 0, 0, 5, 0, 2\n0, 0, 0, 0, 0, 0, 3, 0, 0, 0, 0, 0]\nclass = 12", fillcolor="#c6f8f5"] ;
520 -> 521 ;
522 [label="X[70] <= 0.11\ngini = 0.48\nsamples = 3\nvalue = [0, 0, 0, 0, 0, 0, 0, 0, 0, 0, 0, 0, 0, 2\n0, 0, 0, 0, 0, 0, 3, 0, 0, 0, 0, 0]\nclass = 21", fillcolor="#f6bdf5"] ;
521 -> 522 ;
523 [label="gini = 0.0\nsamples = 2\nvalue = [0, 0, 0, 0, 0, 0, 0, 0, 0, 0, 0, 0, 0, 0\n0, 0, 0, 0, 0, 0, 3, 0, 0, 0, 0, 0]\nclass = 21", fillcolor="#e539e2"] ;
522 -> 523 ;
524 [label="gini = 0.0\nsamples = 1\nvalue = [0, 0, 0, 0, 0, 0, 0, 0, 0, 0, 0, 0, 0, 2\n0, 0, 0, 0, 0, 0, 0, 0, 0, 0, 0, 0]\nclass = 14", fillcolor="#399de5"] ;
522 -> 524 ;
525 [label="gini = 0.0\nsamples = 2\nvalue = [0, 0, 0, 0, 0, 0, 0, 0, 0, 0, 0, 5, 0, 0\n0, 0, 0, 0, 0, 0, 0, 0, 0, 0, 0, 0]\nclass = 12", fillcolor="#39e5dc"] ;
521 -> 525 ;
526 [label="X[69] <= -0.49\ngini = 0.28\nsamples = 4\nvalue = [1, 0, 0, 0, 0, 0, 5, 0, 0, 0, 0, 0, 0, 0\n0, 0, 0, 0, 0, 0, 0, 0, 0, 0, 0, 0]\nclass = 7", fillcolor="#7cea61"] ;
520 -> 526 ;
527 [label="gini = 0.0\nsamples = 1\nvalue = [1, 0, 0, 0, 0, 0, 0, 0, 0, 0, 0, 0, 0, 0\n0, 0, 0, 0, 0, 0, 0, 0, 0, 0, 0, 0]\nclass = 1", fillcolor="#e58139"] ;
526 -> 527 ;
528 [label="gini = 0.0\nsamples = 3\nvalue = [0, 0, 0, 0, 0, 0, 5, 0, 0, 0, 0, 0, 0, 0\n0, 0, 0, 0, 0, 0, 0, 0, 0, 0, 0, 0]\nclass = 7", fillcolor="#5be539"] ;
526 -> 528 ;
529 [label="X[48] <= 0.36\ngini = 0.63\nsamples = 77\nvalue = [1, 0, 0, 0, 0, 0, 0, 0, 0, 0, 0, 65, 0, 0\n11, 0, 0, 2, 0, 0, 10, 20, 0, 0, 6, 0]\nclass = 12", fillcolor="#a1f3ee"] ;
487 -> 529 ;
530 [label="X[40] <= -0.02\ngini = 0.58\nsamples = 71\nvalue = [1, 0, 0, 0, 0, 0, 0, 0, 0, 0, 0, 65, 0, 0\n11, 0, 0, 2, 0, 0, 10, 11, 0, 0, 5, 0]\nclass = 12", fillcolor="#8df0eb"] ;
529 -> 530 ;
531 [label="X[66] <= -0.26\ngini = 0.34\nsamples = 34\nvalue = [0, 0, 0, 0, 0, 0, 0, 0, 0, 0, 0, 44, 0, 0\n0, 0, 0, 2, 0, 0, 3, 6, 0, 0, 0, 0]\nclass = 12", fillcolor="#65ebe4"] ;
530 -> 531 ;
532 [label="X[17] <= 0.42\ngini = 0.73\nsamples = 7\nvalue = [0, 0, 0, 0, 0, 0, 0, 0, 0, 0, 0, 2, 0, 0\n0, 0, 0, 2, 0, 0, 3, 4, 0, 0, 0, 0]\nclass = 22", fillcolor="#fce6f6"] ;
531 -> 532 ;
533 [label="gini = 0.0\nsamples = 3\nvalue = [0, 0, 0, 0, 0, 0, 0, 0, 0, 0, 0, 0, 0, 0\n0, 0, 0, 0, 0, 0, 0, 4, 0, 0, 0, 0]\nclass = 22", fillcolor="#e539ba"] ;
532 -> 533 ;
534 [label="X[70] <= -0.34\ngini = 0.65\nsamples = 4\nvalue = [0, 0, 0, 0, 0, 0, 0, 0, 0, 0, 0, 2, 0, 0\n0, 0, 0, 2, 0, 0, 3, 0, 0, 0, 0, 0]\nclass = 21", fillcolor="#fad7f9"] ;
532 -> 534 ;
535 [label="gini = 0.0\nsamples = 1\nvalue = [0, 0, 0, 0, 0, 0, 0, 0, 0, 0, 0, 0, 0, 0\n0, 0, 0, 0, 0, 0, 3, 0, 0, 0, 0, 0]\nclass = 21", fillcolor="#e539e2"] ;
534 -> 535 ;
536 [label="X[71] <= -0.6\ngini = 0.5\nsamples = 3\nvalue = [0, 0, 0, 0, 0, 0, 0, 0, 0, 0, 0, 2, 0, 0\n0, 0, 0, 2, 0, 0, 0, 0, 0, 0, 0, 0]\nclass = 12", fillcolor="#ffffff"] ;
534 -> 536 ;
537 [label="gini = 0.0\nsamples = 1\nvalue = [0, 0, 0, 0, 0, 0, 0, 0, 0, 0, 0, 0, 0, 0\n0, 0, 0, 2, 0, 0, 0, 0, 0, 0, 0, 0]\nclass = 18", fillcolor="#7239e5"] ;
536 -> 537 ;
538 [label="gini = 0.0\nsamples = 2\nvalue = [0, 0, 0, 0, 0, 0, 0, 0, 0, 0, 0, 2, 0, 0\n0, 0, 0, 0, 0, 0, 0, 0, 0, 0, 0, 0]\nclass = 12", fillcolor="#39e5dc"] ;
536 -> 538 ;
539 [label="X[32] <= -0.13\ngini = 0.09\nsamples = 27\nvalue = [0, 0, 0, 0, 0, 0, 0, 0, 0, 0, 0, 42, 0, 0\n0, 0, 0, 0, 0, 0, 0, 2, 0, 0, 0, 0]\nclass = 12", fillcolor="#42e6de"] ;
531 -> 539 ;
540 [label="gini = 0.0\nsamples = 2\nvalue = [0, 0, 0, 0, 0, 0, 0, 0, 0, 0, 0, 0, 0, 0\n0, 0, 0, 0, 0, 0, 0, 2, 0, 0, 0, 0]\nclass = 22", fillcolor="#e539ba"] ;
539 -> 540 ;
541 [label="gini = 0.0\nsamples = 25\nvalue = [0, 0, 0, 0, 0, 0, 0, 0, 0, 0, 0, 42, 0, 0\n0, 0, 0, 0, 0, 0, 0, 0, 0, 0, 0, 0]\nclass = 12", fillcolor="#39e5dc"] ;
539 -> 541 ;
542 [label="X[74] <= 0.12\ngini = 0.74\nsamples = 37\nvalue = [1, 0, 0, 0, 0, 0, 0, 0, 0, 0, 0, 21, 0, 0\n11, 0, 0, 0, 0, 0, 7, 5, 0, 0, 5, 0]\nclass = 12", fillcolor="#ccf8f6"] ;
530 -> 542 ;
543 [label="X[25] <= 0.37\ngini = 0.64\nsamples = 26\nvalue = [1, 0, 0, 0, 0, 0, 0, 0, 0, 0, 0, 19, 0, 0\n2, 0, 0, 0, 0, 0, 5, 5, 0, 0, 2, 0]\nclass = 12", fillcolor="#9ff2ee"] ;
542 -> 543 ;
544 [label="X[53] <= 0.18\ngini = 0.53\nsamples = 22\nvalue = [1, 0, 0, 0, 0, 0, 0, 0, 0, 0, 0, 19, 0, 0\n0, 0, 0, 0, 0, 0, 2, 5, 0, 0, 2, 0]\nclass = 12", fillcolor="#8cf0eb"] ;
543 -> 544 ;
545 [label="X[37] <= -0.23\ngini = 0.31\nsamples = 17\nvalue = [0, 0, 0, 0, 0, 0, 0, 0, 0, 0, 0, 18, 0, 0\n0, 0, 0, 0, 0, 0, 2, 0, 0, 0, 2, 0]\nclass = 12", fillcolor="#61eae3"] ;
544 -> 545 ;
